0.8669310851665426 0.05993993145376597 0.13460700755793265 -0.44136859263872463 -0.8680843837729731 -0.20089305044915795 -0.9139964675002537 0.3206944070449169 0.0017875578093549116 -0.5870105946822438 0.7356970860321297 0.5663177144512496 -0.7258729935347514 -0.4863410408003571 0.08292250857967032 -0.6756487686131275 -0.708037628207115 0.5148951708064522 0.6853288061390774 -0.6823335352256649 0.6506769811299087 -0.6409487073429257 -0.8745282853388585 0.662089167521586 -0.7095927816783424 -0.5133306780927696 0.027064691341580516 0.44643951608572885 0.5652379081663327 0.388371330877862 0.520423396696438 0.29892553609578476 -0.2768751605559452 0.6287741837224747 -0.9902701117777362 0.3264039764824467 0.5972084850671112 0.3336043758147903 0.2541694725027439 0.6108328355833298 0.10725120762740148 0.9918343203908285 0.7900729369513948 0.3055347808819582 0.8534369112399425 0.23690638084489213 -0.5867824988187301 -0.05400711135462399 0.9046915859784758 0.46171194403469307 -0.9474351229970409 0.8885023277267212 -0.8621325463072442 -0.39791586506741483 -0.18601540676807593 -0.5628225665932849 -0.2326896577650298 0.8386513172181206 0.0918379739150259 0.6970046492368207 -0.8419005288931205 -0.05313244508153647 -0.553526748207831 -0.9113381298091705 -0.4209118639578183 -0.5658565543486347 -0.14263236194690054 -0.2701138825402525 -0.7908649353280882 0.7898790708813866 -0.9126106245853967 -0.912162813807526 0.7438245564827335 0.2218574227775162 -0.7421478457642228 -0.14388236035203472 0.18963235590877037 -0.7717242879499423 -0.4670105935918881 -0.5628076082032281 -0.4961217516486033 -0.4395699074086403 0.6643468421913108 0.6035961485906777 -0.685231125941418 0.35285896982583187 -0.6595802415849608 0.36659828834742136 -0.9938999985402568 0.9561013309778781 -0.9634395958100687 -0.8446460535638879 0.4923598971499892 0.8070191679811349 0.7485389013141407 0.5688302616064936 -0.6444703092884821 0.25212709143048406 0.42582312696779157 -0.9678486473167278 -0.9748351901152067 -0.1758000093655736 0.5751883024298103 -0.8969732614787056 -0.9844096162774193 -0.9804021214689758 0.7810878299102821 -0.7734413384396943 -0.9076460739406115 0.07564005766673598 -0.6423944228929052 -0.16871331941341772 0.6254283825370031 0.7807359208994739 9.264954126018132E-4 -0.4414832216701847 -0.653102627341964 -0.37403161124455786 0.8161495283109045 -0.5071319318210517 -0.3892887639918473 0.02093907567791864 0.034836562442108976 -0.25400208249877887 -0.05682360199795078 0.22880094498935621 0.8787329096777188 0.9784567169074623 0.8636099342107308 -0.2602148028597542 -0.45872731617163887 -0.8732286410834117 0.38040683089307115 -0.9021941020267357 -0.9956634824716987 -0.9562672376886999 -0.739144094725518 0.553905912204446 0.1576713284238812 -0.8715884355172724 -0.28749664663131924 0.16077525438340678 0.3887030449851552 0.5969700080829166 -0.12432287539163411 -0.9039159831884588 -0.17066276586635265 0.4635689259021384 -0.06619787097639351 0.6450611809931768 0.8237873932256634 -0.19033904890370812 -0.5799181763905823 0.6551241287308649 -0.12058811973539929 0.6261562374457827 0.7025989714037235 -0.3476945098539357 -0.48523453175476305 0.6321680911063724 -0.2716276911266067 0.6699913871232085 -0.4187537217904195 0.5814866974140923 0.010748288369279435 -0.8412892050476136 0.03438057526894289 0.8481604765870766 -0.039064040901975905 -0.17059172052742666 0.9173515261009116 0.57953238879196 -0.05239152284150883 -0.3758270999887877 -0.18586655021360543 -0.42789862126097034 -0.33072678418803003 0.13454550461528414 -0.02429766982837067 -0.2246455673857296 0.3404069812505457 -0.8905866846045225 -0.8647026815171874 -0.9166884220374352 -0.08111165253530361 -0.6423628353024265 0.044520094571562585 -0.18561065652364062 0.7806386207775035 0.4848221240791788 0.48996754604052895 0.09814015983586977 -0.6839189400619705 -0.12670326236971963 0.9207641461731887 -0.26734137680111947 -0.632600903820185 0.9680406832102859 -0.5666694165630803 -0.99146754412027 0.027842057688379773 0.852005130441624 -0.7545895966710054 -0.5668983083031197 0.4135945563595729 0.8493850146701987 0.6430644543848566 0.26079305164655775 -0.27903023718608266 -0.7133122311789665 -0.1798004935434906 -0.37088522907748267 -0.6302419140198604 0.8550302168967054 0.8402589054390619 0.9125990414191988 0.7771886488691337 -0.7265076639417926 -0.15411315800287673 0.4950112620241244 0.3227417278430862 0.15744693722630432 -0.49152959655546824 0.4893267231837307 0.1654649181443475 0.38682510281981264 0.851129316155857 0.33050224917261684 -0.3771572397023938 0.5709013174115167 -0.02649632220206355 -0.4374869113975094 0.9708779111286723 0.8763981071846917 0.7539948032189617 0.33242801257064813 -0.5170382990842471 0.9668996707743485 0.37623735522030977 -0.006219436535154554 -0.20867874198394354 0.7704852836523288 -0.9853180384751337 -0.9281451652640075 -0.22282181230113207 -0.5897196696865099 -0.6157108218857681 -0.47318798717001787 -0.9810297301797127 0.7947810483965171 0.19838966936069968 0.49828376266886565 0.7436705707500034 0.9512242553277678 -0.8544587471948799 -0.632029744718892 -0.5771325440933798 0.31019969174622186 0.47137677257838495 0.23510104270565646 -0.13180628100274816 -0.588222474603371 -0.012476298491348459 -0.42708553244191094 -0.5578588698814749 -0.7643503766511426 -0.3988955762079869 -0.4084673832536143 -0.11063136130484919 0.8775480164984962 0.7113807614171672 -0.5479262728660159 0.18628689719493996 0.15326183881236943 -0.07704479155419264 -0.903752016031099 0.6258267150424941 0.9460599193061253 0.017620451542802673 -0.1779047470719035 0.31960534009834785 0.493746913930489 -0.5286259346820031 0.4563915781849873 -0.8222096918975373 -0.9071808778527795 -0.3669248073789555 0.7633935259491974 0.7813033645555736 -0.13149933462985586 0.05237851956864514 -0.33679765076637913 0.001960610637927851 0.7944635511476053 0.08447740955830851 0.5956834369064203 0.6609311462316968 0.2527734822961516 -0.5427637849425395 -0.4984845939823055 0.39862269124858163 -0.7045574786362246 -0.21621923273036403 -0.9461109391430251 -0.48925991729509943 -0.169336188650969 0.28371061479804305 0.9753223507925638 -0.9163335582874401 0.12048913774991432 0.153834378704663 0.136077245395828 -0.06778829234752037 0.8878918610376233 0.9416259974854319 -0.8648008697062323 0.7457619892921497 -0.3802787907982631 0.9302433929482296 0.8030727084943822 -0.576578818359993 -0.8177456727151735 0.3736051333941466 0.4857943824446783 -0.18978395727123498 -0.013475229253917087 -0.4737734946624308 -0.3638301671545999 0.21706350586499723 0.7343566624150158 -0.18031521389971483 0.5627022566143313 0.04607601056920596 -0.6895536380147912 -0.5579927469853521 0.7048634163830196 -0.8241158654030103 0.9626649083015388 0.5961149805964538 -0.602071733973849 0.1618362873221959 -0.6818606935387608 0.1387524219042191 -0.7392208603585287 0.7429201707322478 -0.46288627985019537 -0.6559994994474344 -0.5582117082647078 0.13764197111859844 0.5149799960392164 0.5792975692813365 -0.543008436130072 0.46837207340737086 0.24445323015592269 0.5325435577350549 -0.9235356095151124 0.7381725120994116 0.4682905354552056 0.7638763214478355 0.09367616387417266 -0.24690975269416138 0.5462124558667774 -0.8255007084349123 0.1425733301676244 0.4404280843040096 0.9701742981587306 -0.9412035594475584 0.4115488438448419 0.16057439591829126 0.3666020150503497 -0.2719437191719817 -0.09501281435426723 -0.10556965987237033 -0.21620861217222676 0.9294824133217372 0.19380493571819746 0.9550481470402608 -0.027125198269973838 -0.980293423847138 0.6077775050350296 -0.9876124008638992 0.611470975193932 -0.1534693668481193 -0.10472305292661743 0.42258506734407575 -0.39539215392479676 -0.2732290891703275 -0.7894620241701362 -0.14683551637363979 0.8263784175965836 0.634400466748223 -0.8057116791432627 -0.9745733783112562 -0.22893530000318396 -0.49390353773969853 -0.9405270984419836 -0.3660655278357928 0.3815245699010634 -0.6229102735334628 0.25818868569945763 neuralnet.OutputLayer@70b74590-0.7529541219290931 -0.873478426480733 0.45968315379945934 -0.8492741106891638 0.18362148040839943 -0.8721870364610464 -0.09782046596313354 0.9594018761129023 0.16224842684451735 0.048422056799374724 0.7137689227591552 -0.23430657428739476 -0.3516062793914201 0.9591155240209748 -0.8655515557971111 0.2598291675288308 -0.4913151516152392 0.5149998295930847 0.49903702239581105 0.791749613353205 0.7174218494221215 -0.5880123329367177 -0.15561592411557446 -0.05173653351112584 0.6545298022344139 -0.4078997359395232 0.05902182568863712 -0.16825786418258537 -0.10877127471212156 -0.7532250182712175 0.18755068163968625 0.6038816387737092 -0.026223174782868508 0.31946631406222714 0.7425613405854318 -0.1364561245550754 0.2586151796628835 0.17826848502403758 -0.5098493513618041 -0.4130824969450959 -0.3389771769643154 0.39749582791512306 0.8026869135130326 0.801099107050498 0.7627692931061292 -0.7550481148364734 -0.24710261362503483 -0.7470570979181272 0.01288998306180611 -0.03080441030180303 -0.8580597732055681 0.922295614257006 0.3521499941069539 0.3780444262328376 0.3931095047720169 -0.10446818661826485 -0.9795847720043246 0.41478198745926587 -0.9686909502008859 -0.5709868589617161 0.2633065751572079 0.5003870882425273 0.432393008002123 -0.20552571240734174 -0.741661525634413 0.7062611109214888 -0.16123865089398115 -0.004480785005710031 -0.3787271686611161 0.34947767995167034 -0.2320572694047096 0.6969022565089013 -0.9574272406837178 -0.782046024239507 -0.09410219355015037 0.7209525364391942 0.8254006013750456 0.3019676311607845 0.1899078304524492 -0.5223654768284273 -0.3437593935916131 -0.04368494611668028 -0.09246962105057388 0.4299560356023908 0.8144744817237812 0.7786920482822843 -0.5745694133700632 -0.3872561690837286 0.11751279969800987 0.9585253726698597 0.319034837115738 -0.2374092735159088 -0.7253243823556194 0.32981157853860765 -0.29811807451317573 0.4567937045013807 0.47908730992910076 0.1142243708763735 1.1349383801440016E-4 -0.039517854777051054 0.16743921154576724 -0.7610971111483048 0.12748042095844603 -0.8606113879671872 0.009497377844649657 0.8883770923200818 0.3811437360935026 0.6907221568220745 0.6114774005138741 -0.5571579807899634 0.586896605938035 -0.8093740108773346 0.8105396759817415 -0.6343435430352986 0.3095769557011431 -0.34763200333352584 -0.8457852719264095 -0.25891675443428797 -0.15739238857267457 0.7677340780704092 -0.5270352098377152 0.6978531401209362 -0.7211085367265481 0.08245190378614209 0.8126110270415268 -0.3365567318411249 0.11968175611646703 0.5866247091847949 -0.7358259120881272 -0.5842918070227604 0.5213923033413798 -0.38076586907361476 -0.04817761432447509 -0.0202411031244335 0.6323366105075485 -0.6377141811704693 0.07701813643730404 0.1651965476311078 -0.7013104001417646 -0.7099968670350356 -0.8976220911468267 0.6677935963343107 0.28502795695903094 -0.2691166072227438 0.9478940304116318 -0.7543276884513688 -0.3300238516912596 0.6690463002274046 0.19252597454039522 -0.7924730826268348 0.1489913773329551 -0.7358619403952793 -0.6248100796304121 -0.1365805363448661 0.05826468677765484 -0.5015141092552976 -0.6078689477682673 -0.6595322699813817 0.27707222291833977 0.2929868877911871 0.9357270950927952 0.26903463428497487 0.06853306056946651 -0.71950613823725 0.8279778843216987 0.9218907876338505 0.9753435612908482 -0.16726389340459358 0.8072011841088981 0.9207010707150086 -0.7607339330155423 0.5339710828379599 0.8375669584372176 0.2019032890167295 0.7994260074016737 -0.054144033577640194 0.7587258994577293 0.50779613418877 0.7301705109092886 -0.4379047169012996 0.17946158775869636 0.7980064767588373 0.2865874311130965 -0.6087358764017441 -0.030565992704328915 0.08040708917826078 0.36388001416919014 0.6992134826410894 -0.28702674726494737 0.7673247555174518 -0.2283858329031233 0.3903892689893206 0.6766918931930982 0.6602132596619702 0.948254542713197 -0.9036255301600523 -0.5015509943765576 0.5509327486030487 0.5651101895134679 -0.20949781007560386 -0.8591638845742698 -0.44317539475270784 0.4084191129714215 -0.8356327565426694 -0.9483495064143926 0.14571858410257577 0.29729380276504447 -0.1752535803366455 0.7424405824016522 0.18105070518941335 -0.04602512070865028 -0.17854838502672277 -0.38830848821688846 0.6609794828411664 -0.6514735338461713 -0.944003555801514 -0.7990234453000181 0.43270591803656455 0.296855263443486 0.6900379138891938 -0.24827292089086095 0.4374533949309426 -2.7840021807645776E-4 0.9481160759264317 0.9203270637405848 -0.2545600765394892 0.8190882064483626 -0.6476077716710722 0.47506350480504067 -0.854251687610517 0.24144571094131972 -0.1666141607001339 0.32697075349552196 0.5947153729104205 0.5672655356143729 0.7100147508125335 -0.903413873037854 0.7391390319370631 0.07993838484220117 0.8388123941765173 -0.2292495487641527 -0.28256253282608645 0.02180858233477123 -0.6053414552339291 -0.28962294097531316 -0.18754163749200659 0.6714411537792728 -0.40327056023735297 0.10599403937792418 -0.5471273695610306 -0.24584082014531372 0.05102674063985624 0.8891226710446207 -0.18568204131521582 0.7031399169893817 -0.7034559616251499 -0.5376437110934197 0.49437677565800475 0.34381336410062313 0.15200626171660558 0.44938652934985224 0.6741518326845648 0.11968941785243115 -0.16532202684052455 0.9501024160788755 0.9400862710895932 -0.7203451673742095 -0.18313360104321008 0.6490503119445248 0.738583064288235 0.5687022196034938 -0.5113007783948477 0.12365515198944588 0.8481071145723267 -0.9836661805431748 -0.1188287110185523 -0.9407980867059786 -0.5366275177028941 0.8067489831826554 -0.32066666418216017 0.9500789913560963 -0.4621283456019145 0.8964765287878671 0.21422509451538718 0.5724759700127772 -0.9222845660030632 -0.2306694465342891 0.9904906466690553 0.7957767757661771 0.634213574395434 0.2832988052136247 0.9956895135675708 0.5733295986430034 0.4269110831527416 0.06394680360251936 -0.3073601834522812 -0.4449747300583571 -0.6756536260565674 0.9757373290820004 -0.6524166656311621 0.20296136388501906 0.40743589608698993 0.2948007920175474 0.5588039920498953 0.49807807124631953 -0.509688409904879 -0.20049957986847 -0.6288062665312407 0.9025593673029467 0.8352115033969401 -0.12915852495134794 0.775150924993951 -0.2855843645596937 -0.7094025570629144 -0.8175207142802724 0.26050018081435755 -0.9867099652932001 -0.7666358842779456 0.7857615911285535 0.22959387642439044 -0.831676162282738 -0.60548982174084 0.5317505282441071 -0.245468737632772 -0.8500838429259472 -0.10996875997755995 -0.7107681365585418 0.4120153126206447 0.36933403421852573 -0.5784861576766228 -0.6680614676565735 0.7506452443794077 0.3471589039568964 0.6197788611615254 0.393066583876751 -0.4213292084078397 -0.5108408799906018 0.2051371231144976 0.08099662040370548 -0.5709537227973157 -0.3961041830234978 0.9639499527122165 -0.22582023858357103 0.7210257250950718 -0.570388375270211 -0.7128220372950963 0.46950413933459334 -0.26408294156043466 0.42001253692489837 0.08577345884878185 -0.15189511910297615 0.23572301895898473 -0.1374082998864522 0.5528203449659513 0.5933659176601297 0.5383703733330827 -0.7657969625020448 0.35532009191781355 -0.4074843166606513 -0.9824251757443475 0.6235838763257139 -0.8590899437227352 -0.532660263199782 -0.8010082807125464 0.3282396287289938 0.5773998317889069 -0.9004008708465537 0.991417161004796 0.044203663547900285 -0.2939812355612612 0.678106444993629 -0.2789348913389956 0.7642105945315933 -0.007747012357231409 0.8292961369026131 0.8613612596379304 0.8571861566702659 -0.2299407475612777 0.6806362556416676 0.9876454854823403 0.2659496688632511 0.5743952197051467 0.12233929793205389 0.08742087818920596 -0.801189343228518 0.2810967842971718 -0.9996060731418397 -0.04153960366931542 -0.3556415018440041 0.7692344098760697 0.7126813242727718 -0.2003098369807298 -0.030893462324534382 0.5956348285760777 0.45646493059731763 -0.0018051596797930003 0.39854924900626754 0.6400850126364107 -0.24667847313357194 -0.4708080380855366 neuralnet.OutputLayer@26744ad0.9413472441952309 0.7232455906554138 -0.7800209292304158 0.11619620705754141 0.6244986304769546 -0.3955522542380001 -0.1979100002302735 -0.6747485433398638 -0.671708224791941 -0.0605782624184239 0.2619415478709499 -0.15421511343402905 -0.6153935455920837 0.04193170693073378 -0.013767374823682954 -0.8372603896421216 0.5742604608949924 -0.6651381364676247 0.11704104601967902 -0.9184534430903932 -0.03557660416722086 0.24845150032919494 0.2566209978606898 -0.7866884278181084 0.26989267721997834 -0.214751368217032 0.04242766295023692 -0.30636199230305483 0.9244467742499518 -0.04254087556696862 -0.7975631349979839 -0.4477194253809673 0.19677961790303056 0.17778357130755407 0.5143692935965504 -0.8442713030560006 -0.9702072141083953 0.7208340643066727 0.40908285746237294 0.4006344505466263 -0.020495133054900028 -0.9731865587333874 0.6775784159165381 0.6366787217026081 -0.6153672835579928 -0.6652961132648999 0.9340598752214849 0.5463287280429485 -0.789017013699349 0.5855092094260023 -0.3525318562109452 0.6686755778865312 -0.5659841321581529 -0.11174428309723206 -0.15409714383649076 0.7972234345905511 0.19303357925137876 0.9879912281483241 -0.8907235341580064 0.8385767015932352 0.6630050861300442 0.9958105585738654 0.45419517521244923 -0.26874174071419044 0.8335418017299592 -0.7497610540999796 0.8620996097373494 -0.10841253411699703 -0.6056609683078295 0.1757527093088357 -0.14033952579604325 0.1862185008878554 0.23472111264941542 0.7208193208013649 0.003726880692821233 0.2975369937630058 -0.24912482951510462 -0.2880223001511172 -0.20194462084684772 -0.6730484108010031 0.0939073191886578 -0.1960869166390352 0.34377076160997544 0.7098970188461877 0.6078560386671159 0.6743413317854797 -0.5599352733922456 -0.2578476025170132 0.21897770890373458 0.47731335007687625 0.36793785793164246 0.8463220351097511 -0.7874192404445121 -0.915836342570359 -0.15837358941862256 -0.1441570664690096 0.23490270447759443 0.29701663923900357 0.6553876186033689 0.13687151541808673 0.0953523722025682 0.48916154922606936 -0.8849099472234037 0.9904299904090721 -0.07389839158820888 0.21772131017170582 -0.9260225300718928 0.02220770065125155 0.9356111725183498 0.45925383987584045 0.11133996254200162 -0.31126802861119673 0.62118838558298 -0.3350061345083819 0.34479440602880196 0.03894606774714504 -0.8190471154419504 0.7305037891310882 0.46648982408159456 0.3916244797601357 0.5823568990446888 0.8700593184154636 0.6777249480293376 -0.19703297901467554 -0.5557302745905168 0.9090331055703248 0.27398258772075934 -0.7240389861316507 0.5110697294190715 0.5221161753990746 0.13391661124453247 -0.3061184065992415 0.025541452666048237 0.8000629911927897 -0.6060940176264727 -0.015815730980649922 0.024878197101403154 -0.6942270543109741 -0.8311644704935169 -0.5450242508919707 0.3198426165917838 0.5493072263151711 0.5060605070417669 0.12254997995926531 0.2971157640707871 -0.12735230627156446 -0.5487729045199053 -0.9471588682563992 -0.6180787884477263 -0.1252368030501001 0.45179343036518893 0.769144275070845 0.9818706067071409 0.24636769488877208 0.5386371353597432 -0.010466978943544425 0.52024292681441 0.7265167663179692 -0.8081614714229315 -0.18411756742744312 0.07105764059869324 -0.42084825867785947 -0.6807466399656146 0.8274784663666165 0.48968447382782276 0.7404969600751946 -0.16662157558648072 -0.22956475346952576 -0.5514260856487598 -0.43414747849948454 -0.6973218062292038 -0.02650871756015616 -0.3579016102576843 0.8491876738949237 0.6492723664114289 0.6645367806309143 -0.3815642889919759 -0.3222177307529476 -0.1411546345444925 -0.2268673834545335 -0.7222393422820129 -0.6218772112995333 0.8258692553789968 -0.04561480180196964 0.38945963625859814 0.7038400407526391 -0.6353550408586247 0.6902889264911799 -0.581748109417327 0.8915619481695515 0.8330523713310245 -0.24314383915961302 0.1984637748831426 -0.11959611116387647 0.9219221288438957 0.7892221518626926 0.2926113991839081 0.9540649375946133 0.8111380583080446 0.442006208891341 -0.7528702662710013 0.15414733776413791 -0.141632738472679 0.8974795102292075 -0.006356837578118446 -0.15324797010690216 0.21397825355189992 -0.5021491258847346 -0.2854205318533495 0.853384132778968 -0.38558376288363305 0.7079329004229669 0.020041103546589945 -0.8821412905547042 -0.863907359887038 -0.30233909346842447 -0.011614154893674788 0.2437408239914044 0.8546313269794948 -0.32314855115158336 0.7725406453504722 -0.3432367900119848 -0.7161173173030269 0.9330270020335669 0.13114935389513704 -0.8870978774152812 0.7211347919452618 -0.10770725597462816 0.5185923133351503 0.7589855309058356 -0.573042975565904 -0.3722981942161919 -0.3320625006652568 0.6668693022586165 0.06951858124913957 0.1232315855403755 0.8800923132657281 -0.6032727942482702 0.385323337786875 -0.5822647056381869 0.24179768132019386 -0.37338314710964093 -0.705744381263485 0.014727659317945951 0.5324940658124311 -0.37465886597884523 0.1716794016930936 0.7726779040785524 0.740218360929514 -0.5107713833796594 0.9609889507092024 -0.13193324706920095 -0.4688361998700178 -0.2593089432389911 -0.18473846167743524 -0.5593665163600835 -0.855172783795508 0.4615391114757146 -0.0828225583746619 0.6371921842083763 -0.49786777798091986 0.45568099693571507 0.6446862505771715 -0.9732985147485226 -0.400220857317122 0.5870018034720489 -0.14957240469905153 0.6838768648967558 0.8494332489726018 0.9863048256902796 0.40194650023378753 -0.3401435915624933 0.031201280364904105 -0.9320491361435121 -0.5945570909925849 -0.5360315537956667 0.14001063369322087 0.5283864713548103 0.4982014009196314 0.5675696483857281 -0.9192742036515867 0.7356185895437413 0.9558738779300229 -0.33432672503120686 -0.07028909006018691 0.16575209962202142 0.0042240108729858505 0.46048719813006456 -0.8594444102030189 0.039215741336908416 -0.04354698487789943 0.3882274758497134 0.4901717797295321 -0.22110467402092504 -0.40565108402473293 0.9312339059748318 0.8956720870108847 -0.18692228639188402 -0.5263489493641273 -0.26456362033336045 -0.8135471563748436 -0.9797331409810317 -0.3675120664706175 0.59192364003587 -0.009291559703100583 -0.5626757546734563 -0.9903081456404118 0.7034463533344146 -0.3609545371366282 0.8881409454968453 0.902258139372798 0.41421155687733 0.24467488571351081 0.8326761634076377 0.09511557371739743 0.4657458080924918 -0.7185629087391537 0.8655804491659211 -0.8595061502670932 -0.30626674256638386 0.23613837420757255 -0.9759822238105778 -0.6708196940373994 -0.8992249022915709 0.49569469743267125 0.994343206549082 0.5343902392283895 0.23753288598627154 -0.925378885313695 -0.23001124752211421 -0.40475493777120064 -0.531342473692167 0.17357119861625225 0.6256426310328411 0.6872529443488773 0.768590735013957 0.7608978547133007 0.9873348535608537 0.06987760814631205 0.3234471224493576 0.3094271181329076 0.9304954267136829 -0.7536954872539897 -0.8441824391914187 0.7195353279479327 0.39894201661281914 0.3797829490140553 0.8459208774428257 -0.91620010523197 -0.43803976969981373 -0.5817745508163061 -0.08910798250303709 0.8614315225361073 0.0034235693448723126 0.8397491883390549 -0.40067333237476976 0.8427410182661415 0.13989066869421263 0.9740834634137214 0.4450743737349885 -0.09772386108157438 -0.3981739292838201 -0.8723405378089897 -0.5533699127701003 -0.5819184332810436 -0.5241028843709975 -0.9349679742260657 0.8496379952624359 -0.37523170093438474 0.723463796789881 -0.9807798965517056 -0.7773125876186502 0.36757454856510585 -0.32796853951624483 -0.7663648549103568 -0.5471822774527318 0.3280908428936381 -0.13191179538100362 0.9154068497913245 -0.07159670683651675 -0.05859758701361095 -0.5887204460920461 0.41290202309949764 -0.8858178153185555 0.8575555307960013 0.025543085096713547 -0.1502679231251881 -0.09368425495173349 0.9028268349160404 0.9112665638662025 0.4560920756593416 -0.8559052083210326 0.3504965130740172 -0.0532479700292402 0.4602882632027542 -0.13181663379282382 0.7457967606752072 -0.8653497064198085 -0.16492276323765076 0.8814359651965407 neuralnet.OutputLayer@7a029fdb0.36885865680309593 -0.5812460218689149 0.8053426750253156 -0.07948446445904289 -0.6566099616837158 -0.18687507597774744 -0.919985436412808 0.8573881639505336 0.9935516739342599 -0.8782738476963173 0.5227702475060461 -0.3076944108558607 -0.5008115674601477 0.49139059594192 0.4358214678151906 0.7939033663288507 0.5276764970340841 0.25706472891520304 0.16110141300379566 -0.5810719839510509 0.8542346279491342 -0.5583096451989472 -0.7864515625572484 0.8009759879822317 -0.3563271100054507 -0.703005801909829 0.00493786962158449 0.28982248177732217 -0.8834758652211961 -0.5559635807894846 -0.18799751137006337 0.42772307947825683 0.022885271603920843 -0.17954086252115908 -0.9710307535652467 -0.3672493184826874 -0.3808500560732908 -0.08657056126534646 0.005721433782368335 0.9501740090415554 -0.13319507747970982 -0.6465187888860862 -0.3560765497600141 -0.7702775539672381 0.20112835170966048 -0.8256009256131049 -0.5631531674784327 -0.07767456849280485 -0.7746167879128802 0.07689925801793018 0.37341091404210736 -0.7180561258465215 0.01923322786905557 0.14746805766828264 0.4590791315296636 0.158185364402738 -0.22321536600937175 -0.6839874500072227 -0.041419666995901716 0.30964572790046596 0.24991445980106708 -0.3659674259752437 0.5576834943325507 -0.47314364031005696 0.9283002280609216 -0.6747194759554725 0.7400430267326927 -0.9177794693345478 0.17260305493980665 0.7191597005925646 -0.15607099007880998 -0.388347994501945 0.18724323181453928 -0.8013854723369275 -0.3871886732225418 -0.5475827395051607 -0.9983177416302214 0.36356042035946634 0.9905080037438586 -0.5780621976217175 -0.32649924338039316 0.7719307835760156 0.39003630551530744 -0.28458747092938375 -0.9458699691929167 0.026504614206337318 0.43639560899781626 0.9528308727389724 0.41201647422341936 0.139515516967602 -0.954881377167723 0.8293978298241905 -0.5966850427062061 -0.8492977801045386 -0.25472471258267404 -0.5369096586432586 0.6538311156240313 0.8793870605131089 0.029305475571981043 0.5188924548566493 0.07665479147116572 0.5481824578393535 -0.34893198594040875 -0.11452631351381681 -0.07159103209016837 0.2752218270205289 0.6831759061419951 0.9353121971624023 -0.8941776424230758 -0.8470389402512415 0.5672690638313058 -0.20346889762944032 0.8278303700015134 -0.26645595709294223 0.675455524513741 0.1713941226963004 0.33291121724475026 0.251792784741549 -0.8262915263694754 -0.14574586166357262 -0.3349687517847795 -0.7752378110006608 -0.5886091285155742 0.5168980376277911 -0.18555094566532682 -0.8314347754441505 0.12501675358205722 0.5621910276824671 0.1336232174970131 0.9252677064952909 -0.544547082630848 0.9025758194918171 -0.052625882998595275 -0.5391035315232022 0.9494907108852715 -0.3624139827004583 -0.07407179771575945 0.30519412749532737 -0.7905724938237887 0.507719468892505 0.06706618257220365 -0.01074186549124001 0.8252183999102709 0.14879510179784972 0.9387138957401501 -0.30743181403539954 0.3769909010210015 0.003670014732699456 0.2372499272773847 -0.26054755141810004 0.13223676043589905 0.9436765393213767 -0.7872820642295578 -0.15053340003474236 0.12965631289171065 -0.6285112311428345 0.26506581099574533 0.01853003117347829 -0.5148413507196044 0.7158492940371035 0.1123995052702923 -0.6805745263155397 -0.6334828297355589 0.6665632431722575 -0.36817074234067126 0.6022429961851067 -0.6498788189966332 -0.6503420993640335 0.4564595913568984 -0.752267871738431 0.03150178223297906 -0.4937596085097735 -0.9690236820362917 -0.41111455188626855 0.3430702793215922 -0.052621999739569936 0.3575219217476172 -0.9626385004239613 -0.8831070388532706 -0.5713501463474204 0.5494199537028693 -0.8901182976184231 -0.1066887997995839 -0.8263585499375448 0.4209687651910976 0.5832025589146153 0.7406553853615047 0.6117004400825011 -0.7829821526317261 -0.338259984670946 0.13691827180390903 0.2522557846767737 0.6882766994429558 0.9258528498623313 -0.46234762724688827 -0.24919661876254584 -0.31892045393242296 0.6569975763245852 0.6790116941045642 -0.8804620894878984 -0.7107002924994789 0.9836418922111461 -0.44887684951079665 -0.8278040321133463 -0.8611835606759511 -0.15645962624119447 -0.7679271490967153 0.8759770326788018 0.19079795296980773 0.5576773132865231 -0.14916970980501665 -0.4941903388340544 -0.6196342354361438 -0.48781076023696357 0.09938374411241446 -0.21551252887384076 0.6951124990028149 0.05959010067568271 -0.7619235711845356 -0.5425525483433807 0.8584954789691387 0.9017011586430151 0.028340640891163615 0.6387072932838872 0.4532377311100475 0.38528835608181666 -0.37467182064854976 0.40460461477172094 -0.8916762451707885 0.9183429700625558 -0.8921946168186661 0.36874342617911293 0.7106444564321976 0.05041171227512109 -5.25436469541396E-4 0.6935883684724928 -0.40863645745703714 0.21395229900048773 0.1268223560517463 0.2644602872014412 0.3020589814554161 0.11431124327105491 -0.7072140899464004 -0.3623385557209827 -0.8670710181966914 -0.18809196545167117 -0.851056614291581 0.17785321942097143 0.5530041301593706 -0.4507371520147816 -0.005571552548886083 0.3067555417408191 -0.43958297672415036 0.8346910912039502 -0.012934113609978204 -0.4837559910707292 -0.26873958144935506 -0.4397456214118457 0.9379290347247817 -0.7411297961267499 0.932204420466344 0.46972350779121197 0.788105018626605 0.7569807115541294 0.020506841752765292 -0.07192968232405916 0.3962733327326805 -0.6084059995086937 0.8728764746937006 0.11193207784583303 0.054983601715533736 -0.39798021285940266 0.16125235700740304 -0.2654702629381305 0.40635965681447805 0.08925389536128481 2.307870421491831E-4 0.6419900668293549 0.14533807897661766 0.7472130899342432 0.9207706087461338 -0.16638306665909286 -0.8716798610073881 0.8070202935313802 0.24297549345701652 -0.9615508622795964 -0.40799734429135937 -0.43368167963972126 -0.5858976934373493 -0.8441237319722907 -0.9772400937428787 0.16786471892104493 0.0052685824938991654 -0.020019528340884052 0.48974833670029916 0.8036965883679207 -0.9977091394320654 0.37582624874713355 -0.2997466076783146 0.5515876225999898 -0.3647793453455168 -0.22929709992776726 -0.3140833270300314 -0.367644170514445 0.04186871254775937 0.6332796881231091 -0.5375230315932713 -0.9727956931194857 -0.5007892016286043 0.8170826357694422 -0.4004969121063835 -0.8345555266504258 0.15121308347016038 0.8793409664867017 0.8131452277836043 -0.6792030329499211 0.15234149303376088 0.9991478665849673 0.17390814455219983 -0.2905051864635657 -0.10525804088305535 -0.9835172717038068 -0.4305420241264416 -0.6794884513259374 -0.3724152188336832 -0.3882310730017253 -0.2570106960344656 -0.28333887066589225 0.8650218356649666 0.3194884673757139 -0.34894637486909363 0.3986977206633291 0.7421491101449011 0.10351237661213519 0.45820981811734607 -0.4691074870618608 0.06571127947169364 -0.33982057425341083 0.1635039108793237 0.5782618721690576 0.5393222169931084 -0.3889144337677567 0.3865954917229929 0.6294260942685616 0.2648651587480355 -0.1862726916986126 -0.9728260100365438 0.28612154374000953 -0.45247771087967215 -0.723354267931273 -0.555125956859797 0.13618135065389214 -0.4015237640556826 0.5979873087617854 -0.8701890606841131 0.12122180557752926 -0.5544838872684785 0.5432556673706659 0.9845857870810757 -0.0724183529886141 -0.8417671957347064 0.7896683744306489 -0.19748735506188142 0.7178933012448275 0.9737397194185449 0.05052575904631362 -0.913881232916933 -0.33597538806734895 -0.4046784740639815 -0.32770903149004926 -0.6662316535242923 -0.5925977991418898 -0.4736169872578466 0.39798994253730857 0.4565349727355147 -0.43833228409392133 0.9137074728652715 -0.29923538616253254 -0.7549489175144318 -0.028637083188514878 -0.2026227643927483 0.9080209661082534 -0.7432810582032663 0.6693915957371724 0.6116740522440861 0.11605130533696073 -0.8460187502301919 0.3402544271107557 0.1356498562822176 -0.39690149579778733 0.20779350129016172 0.8347480305128273 -0.8404927162719523 -0.5892371607033864 0.247369655401542 0.6186016185060653 -0.10901127533290711 -0.08599938641935367 0.9449121031280853 -0.5696043747231165 neuralnet.OutputLayer@22cfad55-0.3235125255316338 -0.6845471074822718 -0.9984163970258062 -0.8440020851430846 0.798450774592318 -0.7310290197089159 -0.4324613506386772 0.6180116072574654 0.570699564219071 -0.8753934224846953 -0.6122105803727942 0.5493868612461734 0.9882868755387046 0.9595387558301668 0.9081861968312982 0.8700278990356707 0.843136775230283 0.033607584935158474 -0.6261170356006456 -0.48129327035914593 0.6162660662423558 -0.7472908009057383 0.23467821303882197 0.9407186810972934 0.5333716910691271 -0.05614245768025161 -0.6394395201170446 0.18174250992215468 -0.16487696194504398 0.6842071260740863 0.6138483266445184 0.8347178790444542 -0.9028984266100052 0.3562507570984689 0.31565055543333587 -0.665076146074363 -0.8409649376409579 -0.9418784893671668 0.4230023310675761 -0.4657479038817739 -0.18836874930507075 0.017569357759133597 0.33899346424830945 -0.1440118905508102 -0.9383478209745513 -0.9887396037746147 -0.32658839639670567 0.24268739045484555 0.3184876684393594 -0.26755882912550877 0.5896642297010461 -0.722217090899097 0.7818615193257071 0.06898087378741358 -0.32931674365182084 0.36157831103558535 -0.7292130501116204 -0.1760161104063881 0.23969347043337352 -0.6611578055591235 0.6257073152360041 -0.7594406988328287 0.4305558228941748 0.052263060646827286 -0.906986062789306 -0.02667018954327438 0.8381667993871647 -0.4131232427948973 0.014802348874793703 -0.6913876123888014 -0.464729516937169 -0.5120686781392382 0.9946632162319377 -0.6159545697673284 0.533059748165215 0.60057853207968 -0.9127694151855695 0.542274814019184 -0.7739803185551403 0.875723910159829 -0.3932705282517852 -0.5979692602931058 -0.9946077444209829 0.10314580232801573 -0.193645123272709 0.6077846447260528 0.4810761630861029 0.020806588004768534 0.9313245673940136 -0.1251969608198561 -0.27873746270924715 0.16769385273680304 0.276107456530449 0.962822866369673 0.62705764495097 -0.38450718171171416 0.709737191725698 -0.34385908331831194 0.20204780113678888 0.8602237649429191 0.29825535255439006 -0.99760126117922 0.6723831210084616 -0.43362665896815933 0.8230405999048054 0.7528836927014795 -0.5484652481846696 -0.96991995544132 0.13779651276901217 -0.3257316782075407 0.037329008045767664 -0.4789568495116717 -0.0581075207448436 0.6702526479984426 0.46097005813701863 0.5408347184585782 0.9870570178936087 -0.7991818371981949 -0.3158054055656757 -0.6766009262648471 0.33846048239614235 0.5403799868343218 0.8389974325790978 -0.9637053968270901 0.7372231966282946 -0.06795802249614702 0.823937776948347 0.4126145110430959 0.5634457154821626 0.6158024737268974 -0.916825722403401 0.35683516610536004 0.37795696624891606 0.2106836425344797 0.3922440252790065 -0.81422000396914 0.5749656930025832 -0.3245037690043401 0.8232376565800483 -0.0394772262361337 -0.3485933227218557 -0.5441858805803542 0.3483422460696839 -0.932168486346349 0.8835973636701597 -0.17439967807703183 -0.47648431906697375 0.1614949250938974 0.48633993064375136 0.4650566717164609 0.5539840063745919 0.47477130749659935 0.3491696698404919 0.08029640063510679 0.6328575201720333 0.6748254821446054 0.23128821657969312 0.1983687705453019 -0.46214713934083995 -0.9826812787102985 -0.5700655739846742 -0.019617626685602074 -0.9848191108498051 0.8526104098960906 -0.20749144676856845 0.03773523402783441 0.8422729102747627 0.1720107824780116 0.9435332260210498 0.3478981363648733 -0.31778675077495566 0.11026655913053529 -0.536770024964921 0.7173220611020195 0.8844372891250133 -0.7545935548207686 -0.24828296934695782 -0.9152681000626877 0.382229172702509 -0.6249555980381586 0.5050679965603615 -0.2124142015256063 0.34347798419365516 -0.22557038555302766 -0.7729355348308468 -0.298543958050855 -0.5254371625907471 -0.0594867122137579 -0.5893469203477669 0.6145287038595887 -0.9924486209322815 -0.45797984060952346 -0.10001623996930609 -0.9902887574379392 0.739401351366737 -0.11871443755482358 -0.761565541450879 0.521735126222812 0.7817138030472252 -0.8578557683980744 -0.6819281075580408 0.12727856544098226 -0.6641588758709341 0.17150359158642026 -0.5337165328894107 0.7580200254304658 -0.832285340110571 -0.49815193557684634 -0.12255527702298596 -0.3704508465455343 -0.971584213498265 -0.14137806828465094 -0.5400643182631586 -0.4825344200366518 0.9809346335641923 -0.039577185672827864 0.20693940486496865 0.33442155938725626 0.053281286963390406 -0.9292259206731812 0.8954744514725413 -0.7486823810476269 0.3675493267888025 -0.5831199892522057 0.6011308698839897 0.8297269449823451 -0.4100302206867922 0.2815218584910929 0.3119727729947869 -0.00734195220647349 0.3265995641821452 -0.31317964683862065 0.006892191255534197 -0.556896964642259 -0.2568990625679498 -0.87995762341514 0.40107474589334025 0.36496622537603696 0.9270012274433118 -0.44158807917067966 -0.8292315733283298 0.9138074694477542 0.22066539282053654 -0.9021837776059974 -0.3352885235813843 -0.6353743265304662 0.23862927407083878 -0.895424387186289 0.7507219796825219 -0.4457177689293843 0.5214721898253184 0.9246376242897139 0.6903105671992934 0.8951296033115688 0.6694619128482341 0.5946092409486795 -0.51415279227778 -0.8136496964004142 -0.5859217876914818 0.6072756237272156 -0.4952276279505693 0.38718272108561125 0.9173727968093691 -0.14663551092164206 0.9014404913686612 0.6027469763792741 0.802994093082184 -0.7366271054235489 -0.7258493950589779 0.6640930319030061 -0.8944899126500961 -0.8602768335220938 0.5043514673867147 -0.26074266542967206 0.7351881439174348 0.5411764713305968 0.01538797177973994 0.5057918777868915 0.8743035469400281 -0.44149725579374155 -0.005170051233753914 0.14605325870365882 -0.6991139123508382 -0.2875467817804551 -0.020377121327592174 -0.8724835325451618 0.25099163110113176 0.6810534773962281 0.6861221918120569 -0.28110791656128264 0.5273905053839734 0.9014494113505982 0.9534961776418559 0.020634002200994428 0.009162912771457088 -0.5703076680866943 0.08185925084355916 -0.008339525017882266 -0.9468783403837747 0.5270130408755669 0.9055517360707663 0.3032818418178398 0.9661566864385676 0.3797518245601348 0.4138193491304806 -0.3986831336954626 0.40130656074048043 -0.13199584556413158 0.17923828990169188 0.8974439425687962 -0.7547295026106107 -0.5495951287214633 0.8889346856644266 0.8146062036717737 0.048720593291350256 -0.2861231901190705 0.802184172111068 0.486778292290041 -0.04742745817434524 -0.5084411062669066 -0.5655468288776312 -0.7470087889663122 -0.7953877180237048 0.33282430065897584 -0.5566693051206429 -0.6840437391036664 -0.015280487586724512 0.5289961603366357 0.8639536815395652 -0.8319356063446616 -0.7215815046786503 0.47913638217465004 0.10517395287774356 0.46746931022905513 0.7945313040498542 -0.5964305109464959 -0.38554712736384944 0.8042756519115156 0.42210354324490784 0.8694258993003535 -0.2122212746066865 -0.70419546073768 0.8951761605879222 0.23264531096998908 -0.47386913828709865 -0.4608694720891199 0.2839328036337726 0.48413924566463173 -0.8956074322352965 0.2115851883496621 -0.3183292131560206 -0.4668806570738059 0.5512417850184508 -0.3869157168903703 0.20521734273397196 0.19627357376282994 0.1654017417931093 -0.01028194755082723 0.7900019513326929 -0.02478759664479746 0.7875644642772676 -0.6478223933515905 -0.4699564852767075 -0.40651903106404497 0.978035381888397 -0.7742151939430704 0.699527658774387 -0.4151129839867965 0.8342875557074182 0.8460299771373553 0.48022692250579346 -0.557252133203534 -0.8663623342928691 0.48385956498841365 0.6134172265438574 -0.21989170627661714 -0.8354875555632794 0.07212666423198899 -0.8262922692013521 -0.9514041358309067 -0.32750787577674956 0.06663040846025525 0.8247413903245716 0.9123050295852914 -0.0014036917139786942 -0.5455937473199238 -0.16566976013570922 -0.22374237114851747 0.728096498758128 -0.8048520302668839 0.7924252207522487 -0.010729578464967027 0.04634681999878831 0.8099755826348418 0.054426491281560296 -0.7494603865573255 -0.14154984966046336 0.7107190831424837 -0.9883721432476051 -0.02062621982556867 neuralnet.OutputLayer@681ee759-0.17098503695894218 -0.9484252380320902 -0.47022782801899543 -0.5184847710359496 0.4508623312501854 0.6253281652206224 0.19677437727748248 0.8791155971888401 -0.7501180911475129 0.006329505497075338 0.08599287978900327 -0.3925841022330109 -0.9925207327744243 -0.74009440778138 -0.5341585333282428 -0.2353327852897813 0.9342399314541309 0.0432760778302167 0.1538617090590556 0.7929947459324579 0.8085375142921154 -0.8958524289793509 0.6134970581084351 -0.8344185474948961 0.5291245475784879 -0.2123823601834809 -0.4186381360307915 0.7078533575684898 -0.48186877485491697 -0.9276157629222568 0.8570424922027459 0.7548161907300266 0.7411314293621969 0.7773622403365841 0.5523881169420106 0.2637662368370126 0.620552604848738 0.8556152032478247 -0.6185064496655763 -0.7962352295549547 -0.8319437825991047 0.3476502056319577 -0.046316527600389734 0.46509961335571204 -0.0921725362101884 -0.44139505723246486 -0.0908076583840246 -0.5325999628278942 -0.18991454473322666 0.29606169819495454 0.6821832923847123 0.9974475336723355 -0.4964628492905072 0.7339098853133963 -0.31856962074500206 -0.6602749707302982 0.5348002901223198 -0.6860188635484908 0.41043714019447997 0.8464470208935639 -0.26326094581167925 -0.5433946533074564 0.09289685248078616 -0.03934804605705644 -0.25220694871143967 -0.8963340238058176 -0.5149959027067393 0.6967418437469096 -0.9207879195409899 0.8774262920440346 -0.07613175246760828 -0.6021855615264536 -0.4080131760698722 0.003987219620088189 -0.8663052628764771 -0.46217826871386647 -0.147582582192485 -0.04526966204549543 -0.33709376774143807 0.5879500083339363 -0.8362137935677908 -0.18012052728100414 -0.9977413984653629 0.7989730246995461 0.49747904933669873 -0.20286227193849082 0.8044330589906838 0.8023735607956173 0.49297730285609864 -0.6086411347027592 -0.770406025488039 -0.5501672931485312 0.8821525188819637 0.24889746973811666 -0.7590954101212309 0.3996945471638589 -0.6141663390626594 -0.7524629457354264 0.8027813063716819 0.8360471540991318 -0.6068354019996403 -0.9810251615085428 0.9484034178622109 0.946313956926424 0.6771738413517111 -0.5306196152267164 0.8092204836880489 -0.4287058935643575 -0.5695297316331334 -0.20744989376277057 -0.9126748631762654 0.8213696734111577 0.9771558040358299 -0.3679669709783674 -0.5771233171298666 0.5774338886198942 0.38188798589432316 0.370064326741787 0.40643339114158783 0.1776818629242456 -0.3676182573120843 0.4133436302781929 0.025117373196153814 -0.6461855225836595 -0.7877622278901868 0.9541425744397265 -0.5510898621821944 0.6038825458925976 -0.6515730627113315 -0.8601947358578494 -0.23215060522575048 -0.2352380540252571 -0.5494788972880943 0.24867125117706423 0.5131293403341444 -0.9747033541411642 -0.25780606891549107 0.19443855413975564 -0.8623591776009202 0.061046582801692284 -0.39815470201964775 -0.9529994780689327 -0.3812657371918473 -0.7077256463229575 -0.992465911628162 -0.16678163596725215 -0.3257598248807305 0.4966217948169871 -0.15229041957698963 -0.5323113300443816 0.8701993643899748 0.5345576081118973 0.8863660792227392 0.5474647704134243 -0.06461919073958955 -0.23380836404929095 -0.6710664277992201 -0.05359927131697062 -0.40459001925139504 -0.2911035965840669 -0.7599391811521378 0.669189264503919 -0.9180140578559258 0.5721698485400848 0.32992357641188697 -0.4884816823855723 0.4658943612760843 -0.16548697258663103 -0.287848668974127 -0.5552925690287716 0.08386546287532592 0.9313517042658226 0.30113536157354726 0.7587138198567732 -0.5218061072570604 0.1971456555669826 0.26346477120821576 -0.7011003853924438 -0.48427698798640384 0.3521274493514024 0.8685071937336855 -0.7038136267588386 -0.8075406084611387 -0.6927147659891096 -0.2554368790136161 0.4783216705355384 0.22676775856105635 -0.24767608717714107 0.7842998251888259 0.25745371780483806 0.9847126525095948 -0.37814741110089345 0.14791810652841075 0.6959379061101809 -0.17554784962347347 -0.05423111360442712 -0.8268048494041489 -0.22746240596349487 0.27331383721929725 -0.019054812631610463 0.753535042078558 -0.19643122381715672 0.9138335750666517 0.7024304849604227 0.42066864446169794 -0.9489223993238418 -0.27197268042983713 0.3724161837405251 -0.9532209956737627 0.8902159832046496 -0.6212158361943206 0.7824916672482083 0.637565329796866 -0.0376480886409466 -0.6383204315355929 -0.9830691321187778 -0.9540536098049511 0.5452485518701741 -0.32025041415593136 0.9589778708144142 -0.18452754766458912 -0.3026199208511643 -0.8602451994257867 0.8647788363028294 0.5296633834155575 -0.6649971746474774 0.17498476569598154 -0.12343675069734927 0.5618964982312206 0.2672272175413082 -0.6776246346718897 0.41310244681490704 0.6004822551897876 0.8196708025413353 -0.15183016742309796 0.6459393957004287 -0.3275834518515782 -0.7706746487558186 -0.8240348130900983 -0.7116644748436282 -0.9389145152672926 0.684420049595347 0.5450376635366049 -0.6563622888591623 -0.24110094021668027 -0.8599281331256369 -0.04150314074090977 -0.7064712935829223 0.21329664490475087 0.7745105350254483 -0.11488024161743393 -0.9235454771324335 -0.29147558844890864 -0.19283879679105043 0.19257371106813825 -0.4061291904004273 0.9176360055413278 -0.9912576245956674 0.4219442519549237 0.9776362053325185 0.8977885265999763 -0.540949090377543 0.19470024921947438 0.40609818749975934 -0.9275520481527528 0.2988898673401925 0.3759965265325095 -0.5712611727497248 -0.17119203528315097 -0.5383416890545245 0.6269460330522225 0.9686173924016375 0.08666662715835571 0.7248471631305426 0.35947902981216673 -0.053415021772299176 -0.8078301969678039 0.19382966442136018 0.4788088706673358 -0.3009514991891161 0.4290746453981974 0.30603096794076723 -0.0496159033675323 0.5389984229422676 -0.7087668665134079 -0.8566810888576819 -0.6275641599289579 -0.7054700466788542 -0.06055044144822885 -0.23084339559879374 -0.24438070288820013 -0.08399550728724003 0.2872012594307517 -0.7960417022555096 -0.586538702970047 -0.902491833888754 -0.7167190462965165 0.7408233965065706 0.7289022193834607 -0.25505754326860497 -0.15755029115479435 -0.45760151715037123 0.9825730759269679 -0.6641318278554772 0.7217810795138632 -0.2095837789611419 -0.021132204484905825 -0.8415561954264609 0.45150742769372665 0.2592414404738168 0.8795195676130904 -0.14885574118637912 -0.747299723432188 0.7146498772339742 -0.8836924389047794 0.9634876711898416 0.054754007214900535 -0.6054159607347257 0.09162189509525331 0.6521825060858212 -0.8450025103062273 0.38965373513665147 -0.6533125780803799 0.457753601776003 0.4293089157709171 -0.3780636909062286 0.16295666115749174 -0.9259902263851736 -0.958294003354381 -0.5801859822117778 -0.9849335754534393 0.43624826967890895 -0.6552467509921297 -0.7628269495444556 -0.31177282800386785 -0.5172033969610776 0.6903725291494601 -0.31533833860725624 -0.8447337308868114 -0.133308322671837 0.558238410276176 -0.21937680981812813 0.8469414141070768 -0.6523155754382892 0.17923775062342684 0.7259138633218015 0.7836170165940508 0.8264055263470117 -0.595799704516004 -0.16940354478456165 0.1288678185408133 0.09887993787532734 -0.7901351072303037 0.7263477364911668 0.20983202610143548 -0.3735452259749418 -0.9916885983345091 0.1755920760892442 -0.51915978113313 -0.49119726117221896 -0.05678776090768689 -0.38949498522085046 0.513540647167122 -0.3994495743657819 -0.976532373896804 -0.2898701501524099 0.027836239641468308 -0.6307952604568409 0.21618455404893422 -0.45570332180688833 0.5547346403220782 -0.19326951021587557 -0.7524795510221871 -0.9944108757797693 0.2878537532692177 0.9920630220804217 0.6394872850054154 0.8263970742351757 -0.5501396460566501 -0.12090702285016941 0.5381291442640859 -0.41736376989156243 -0.5895376935737202 -0.4643195391155779 -0.19485330807098522 -0.1511128420419583 0.35251547713191944 -0.525137183205715 -0.9104781355344087 0.4557668246618204 -0.5769920799358719 -0.6501889398339983 0.6533478543406812 -0.5420729950735678 -0.37131441516659836 -0.8111673398225034 -0.6208813138320344 -0.4668156929545305 -0.2336992776357696 -0.5552398356000567 neuralnet.OutputLayer@506494db0.11118234816620454 -0.5472747062412592 0.9288831955277749 -0.06331866749474879 0.5432173445098394 -0.18070770854498974 -0.05851719898214991 0.2685535188996979 -0.9435780086370639 -0.1987173025493928 -0.5430660526403315 0.2563861082502856 -0.11099953248549577 -0.2691880656819894 0.9836719486254476 0.4408152347164612 -0.2910913485930139 -0.030104588489982653 -0.9806392804516404 0.17418119978780888 -0.298859458175775 -0.9413338865911568 0.8824210422393004 -0.007884195734671584 -0.9952352807882138 -0.4096570820737214 0.3603545452220962 0.7772974307658831 -0.36042469213610984 -0.3024504831672209 -0.9570217119366423 -0.639419874761182 -0.08462437051834482 0.77172405011157 -0.09932472310081808 -0.7599693122743119 -0.17545475586582848 0.4228763482830251 0.6533960380624532 0.9701006677272349 0.24569436075642115 0.5929142285756394 0.6001429990312006 0.3767251924490346 0.019793674987448218 -0.10638412743683434 0.23263456741108812 -0.030538714396342814 -0.6410234819804868 0.4908936398785697 -0.6707443795428664 -0.1368881877904441 -0.7070972620867813 0.400471106845393 0.5516071398123348 0.7872616502460018 0.3006939484254353 -0.2939510144678581 -0.6218026765035056 -0.3142148339302162 -0.807592866036174 -0.37158687960801484 0.5871694707979788 -0.6929446801076325 0.1391012106079368 0.34105886168507493 -0.6815824452595675 0.611048921631872 -0.6270700376850828 -0.9175336344033287 0.9278468078018628 -0.19206586064705544 0.028405892943742628 -0.7957695291198643 0.6126241738560446 -0.8354460731179145 0.3349358267368756 -0.07572706328433931 -0.09736993470860811 0.12536326242507423 0.5327201898242627 -0.5588363390534045 0.1434480355635449 0.7820989392880648 0.5247981821392912 0.7843466677353189 0.6504621065062623 0.7653896559920047 0.12494772956296152 -0.9896242718274837 -0.8007990074181301 0.4296589524330334 -0.5362700923107221 0.6510609861218069 -0.6119261083029129 -0.04758118657594479 0.494486596754109 -0.6709717509157754 0.4170627044810703 -0.9028479396521637 -0.1592732600292993 -0.8077032805383098 0.2676196192202094 -0.19342614650265388 0.3611051367694126 -0.09584471666534522 -0.26030385208123974 0.14565026576044826 0.6150256044889881 -0.16069067913485158 0.44309872501599323 0.031221681570548387 -0.1004249530887722 -0.5272001852947183 0.5907057532487031 0.5316855364497935 0.1276810365006188 -0.34524219404654277 -0.7141578469087944 0.6445713246271635 -0.3693787231682689 0.10122331113942684 -0.7824842547195595 -0.5550023721985078 -0.980285473906564 0.4179700792899155 0.10437860828152801 0.4113198613950113 0.7284761767283122 0.8388608492746379 -0.5128391168557777 0.8775151367500076 -0.6041068830862527 -0.5095974174595058 -0.7672136159916387 0.7211412699738254 0.13380104933938552 -0.11304753318546057 -0.6488542931546786 0.0915571097463399 0.15854530545771028 0.8728848005487861 -0.04582500925568156 -0.27961535263614357 -0.3570347769399491 0.8247887275552839 0.7199418743970162 -0.12581243332179448 -0.2350762484193334 -0.5663779314463758 -0.5777702995186185 0.531667682464412 0.27064900162029937 -0.7617332880010227 0.6058582995646619 0.8523503880578982 -0.16552412154330276 0.5720626932170989 -0.46620820980468936 0.3931220561405294 0.6524639551439781 -0.8840397535733684 0.10493188074638027 0.9998578744386534 -0.9510150969744968 0.5886186750469132 -0.41076444754887353 0.5148679299084118 0.06775974795918949 -0.38283401046868204 0.09415126734113055 -0.20749895262297946 -0.3511043420692449 0.7538616908646676 -0.4450569907715528 0.3848643024217616 0.8200142391086727 -0.7256050364752114 0.4197398973218701 -0.7385045829179208 0.5332409980252326 -0.4868011221989288 -0.1865344581852022 0.15960326364677002 -0.7868205894631811 0.36953667978376514 -0.15461121515650733 -0.541828803218693 -0.48156416269033053 -0.5758337941213735 0.4520015687717053 0.6471854245099586 -0.7929177062954695 -0.8815689085326386 0.11624330079910916 -0.42573791909043335 0.7028081575794245 -0.6966406555440937 0.3986073743426064 0.23113526191892309 0.02345729909022598 0.41284132794620054 0.17511276869502168 0.16234233443964496 0.11908701566924496 0.6586551836316396 0.06809854748122168 -0.10711564515473182 0.5064120589076969 0.20182764754599225 -0.15821487390882893 -0.4300932025786546 0.936169840859948 0.7997602687404212 0.6258872748474249 0.2691716540456237 0.9171059473333585 -0.8537183430695096 0.13449345802755608 0.8382843100229673 -0.6056574350602048 -0.9437458775802579 0.5180409315337511 0.42767958381235216 0.06214695213922128 -0.04911345240603826 -0.1255049544158362 0.9240198037022512 -0.5752723539024873 -0.7128202420985987 0.5496354860953783 0.7600456309017393 0.21868889450152562 0.7670282286394762 0.27038773308357655 0.17555595483493436 0.5140867150540478 -0.6601349140527563 -0.478982839730268 -0.924041056986594 -0.7735618717237862 0.26818857488006187 0.8282023649998435 -0.45800940840076865 -0.1697937017907316 0.3080427357264419 0.25287398231009883 0.6353720803262487 -0.6322455879845155 -0.5738888815518257 -0.8235258192842285 0.003381161967788593 -0.0790539763771152 0.3504681726172836 0.7460589820041402 0.47792826144167777 -0.7482415190558345 -0.3384632139238005 0.2324102477630472 -0.8064868787574605 -0.558368709547142 -0.5388814723627726 -0.769105332418688 0.9995246666791047 0.8568342730559307 -0.09243538453567313 -0.4340663935655369 -0.8637557378814285 -0.6491771740531717 -0.06931156884743694 0.9632284062685031 -0.714497199273359 -0.8318590740496945 0.20670130750167626 0.8427997129247716 -0.5645177492834218 -0.1564019912545298 0.30648043378681766 -0.17920283232126388 -0.7617226056421388 0.4727262940354312 -0.2355797536393992 0.8461436665762376 -0.853451619486594 -0.03567018376057207 -0.5560782014364412 -0.9565015171319077 -0.9657149782806025 -0.655440265039423 0.9025589570317383 -0.21226789557137615 0.9131249797837722 -0.6424487991859429 -0.25217856571498487 -0.15504513443842782 0.9109546862424458 0.665279201866187 -0.9048582611573917 -0.5741436276017855 0.779180523717482 -0.024155994306829243 0.9251138041195786 0.10029664186360487 -0.2810274337622789 -0.31632633855421544 -0.7727781390598252 -0.09378114755704536 -0.6207897118959228 -0.23220671646086244 -0.4867804812499201 0.8863778942037982 -0.9215667929009608 -0.8821012875271451 0.3940955445422101 0.23532732593581274 0.9728271637348386 -0.5831007842853448 0.1092849804184125 0.3156795111258639 0.34954022230615867 -0.35085027614295905 -0.046251685200953574 -0.11717270839837468 -0.9788186478819749 -0.9060593587690056 0.6054464490347394 -0.1360583300296837 0.9693396938794437 0.8439935458121696 -0.8403492614340499 -0.8101346723302583 0.7028839862191925 -0.07936434256655067 0.8338965091431075 -0.7558922853951491 0.01553943633563093 -0.4252138429119332 0.5340302588709981 -0.9650086803771848 0.9360539582888099 0.42154620703501056 0.8429138422055356 -0.17454973123996576 0.1367882986183837 0.3835802553980163 -0.806497913148561 -0.42272888101747463 0.1108037862667427 0.6640253907329282 -0.4388499499478049 -0.3632104692913013 0.23585931194130427 -0.04534635694636735 0.6094504904573672 -0.1418045847203374 0.8429245764963506 -0.9473925570479527 -0.13764995265267632 0.12650263955506436 -0.49199879332378094 -0.0757347078801105 -0.2251898790867254 0.5996341751217701 0.6347259625453662 -0.14540764453145705 -0.9836847415598419 0.07956220450659846 0.6212929047123369 0.6634730855725348 -0.5430962473304572 0.6845011940729158 0.37293232106077 0.4876782118362897 -0.7956981104635157 0.4131310991531507 0.9791563117009994 -0.5791766184809365 -0.8572483092436481 0.5499558869673918 0.10623152617590537 -0.6016540158113494 0.18817903647201895 -0.012720422915585727 0.1272522236410446 0.30644924155007347 -0.5712247085266359 0.05988477471022846 -0.4734819677797749 -0.9986964549022507 0.35255473220292066 -0.9238197408152989 -0.542194312294406 0.037590909981894294 0.971074932395699 -0.645931557799218 -0.9719326045050682 -0.3643534399678626 -0.8122899987229124 0.7476747587117327 0.42397605399889904 neuralnet.OutputLayer@3ef6354b0.6958540527858904 -0.8621754062181813 -0.17750423778105173 -0.1514351358308249 -0.9046042378636906 -0.4947913529155896 -0.5121072044824515 -0.2317474545562156 -0.5416823228820954 0.4976836621466866 0.2817219326149921 0.7110320736447233 0.05766675501830021 0.16157418373025334 0.3170493403934096 -0.15090864952839622 -0.8991855546617308 -0.5639179449533428 0.18197095326355583 -0.1480022256545509 0.44119092532808113 0.980923057910208 -0.905277947330359 -0.6131732713914333 -0.7065210659871783 0.4914275176771945 -0.04144657969606402 0.10280094587863109 -0.2549203538212941 0.15725176817159892 -0.7572439900097767 0.17684685401897027 0.24665200151307842 -0.9561785135367324 -0.2621356375571128 0.7684661341043422 -0.5479394868955471 -0.65800129811506 0.6468903111622387 -0.9244599812594821 -0.20462548425139604 0.4742378166508967 -0.045149555365961325 0.2660770718822236 0.6187430271375868 -0.21794235386475214 0.5121407178520514 -0.33719754985667416 0.8760024504603291 -0.9982389746482713 0.14164369136861665 0.815561296183257 -0.14438974972411678 0.49911650274732433 -0.6251315990278338 0.7578451801062165 0.7126616606834171 -0.4503162357028768 0.10083201584107104 -0.08521099491320228 0.1399427186561456 0.07450036451698416 -0.39341323341796197 0.026550835012399743 0.30567516364946734 0.6602081380102809 -0.24406128150341755 -0.35172810082971395 -0.6488292468212812 0.3820172053453965 0.6205357179134845 0.4703886950005479 -0.31774055669577805 0.615191563145718 -0.10546567530711692 0.9148807943502782 0.9581901219361305 -0.6416244617979338 0.21177907072352886 0.3574047717848575 0.8317004164660369 -0.4731782144852369 -0.21399372425822027 -0.5851164869186037 0.9219646776551306 -0.38343655306454116 0.025056804423246315 0.14506065219781583 0.3028839037154937 -0.7626970388554457 0.26636276075622933 -0.2897626993088145 -0.3957205722322551 0.39214850359479725 -0.9481484081988107 -0.8472966746638184 0.09146929135282189 0.41057802033374546 0.3365492544408978 0.8644530119422771 0.29479585717797063 -0.034221117127937406 0.30910425451517076 -0.8317942889863247 -0.3128404345337642 -0.788190829360196 0.6186075005246255 -0.9205190114766175 0.8836008517919588 0.32723578078733895 0.4467404317555751 -0.18117440354310466 0.9884342273791974 0.451783230060927 0.15560827186056858 -0.6230487114922988 -0.7847707919292978 -0.5627920419268505 0.96964663836066 0.40058818334735224 -0.7772234817971752 0.023603929348344543 0.02664105259888183 -0.2802659233919974 -0.2373207069117944 0.002529280341242224 -0.9580389786770963 0.943505744813303 0.03483970006267245 -0.12202176498729911 0.07724488649451677 -0.9628317272967548 -0.54377001121726 0.20894047071273048 -0.532480077835548 0.5917053079790278 0.5231616493140555 -0.3289001939974806 -0.26148319351165183 0.4034398631584345 0.7919065504250323 -0.6474930589392758 0.4100286930032485 0.8980430936862064 0.21795111828274294 -0.4244226855685741 0.42473512000765046 0.12347387637280116 0.7282314658418337 0.7766442289525807 -0.2699985263248976 0.3720426163086237 0.7981325975588927 0.5700509928054107 0.3596871584890351 -0.29566326966484757 -0.6425635885716986 0.9562735186643294 -0.5272592154037393 0.5780008450074486 -0.25474867474651186 -0.18291399865834324 -0.11400810160119901 0.6325286694545337 -0.09140065752416515 0.9739498205054623 0.04260525565745965 0.2568646218952594 0.12500372064846 0.5016267544320675 0.35956000043632075 -0.46132115626805226 0.3052108309608986 0.004875293690387972 0.9435394660900933 0.3409875329858736 0.2740728425490947 -0.26625895720296144 -0.37706474780346455 0.7110379921250983 -0.7415379304192959 -0.23146867516742453 -0.3456830972134437 -0.6548648423332903 0.3506121505838674 0.8195790215840075 0.7866124353610532 0.017797178750218356 0.730086417110995 0.21423248559813746 -0.7608261841377574 0.45011448407222965 -0.5188648080053231 0.37341652202730935 0.6265291788323962 -0.8843567888227695 0.5448755365881315 0.9862263097649123 -0.3295124996430834 -0.35283923547851115 0.6047331467650229 -0.618651961937886 0.3287801407683091 0.3580945243844226 -0.026970387553824415 0.4610330147400482 -0.44011993669350036 -0.41827641708203966 -0.9225446028363266 0.4336399490050503 0.5792034780147661 0.07204407103967936 -0.7637089243548894 -0.6344606478668494 0.05760478261844426 -0.7754490588971714 -0.34464663543558527 -0.08205032397488299 -0.8941583168481274 0.844568461393803 0.11934954306131917 0.16893161523405809 0.08729847169066185 0.20597855992334702 -0.37589890384826186 -0.9904381534449516 -0.26362018657499575 0.15444564653891868 0.18929531391174392 0.5948725210533079 -0.16583934891072105 -0.423910872146248 -0.41372927961021333 -0.19251173865644555 0.8305159585945362 -0.9060441612763807 0.5409372881559925 0.7223976498386124 -0.5006540651786083 0.8989139882712363 -0.2457454612682417 0.9467227353834599 0.5888204978235643 -0.9435762043424526 0.4945908744448426 -0.765173331427979 0.7718334400841417 -0.046892010736646506 -0.47251017889302127 0.46713870998091744 0.2249918619016108 -0.8864074113112006 -0.7245199863219778 -0.5644442434809148 0.2512628730795794 -0.10546462259482903 -0.3429435996289819 0.6384612612164765 -0.6824813188069659 0.3743027609498413 0.40018645302302147 0.6779172270889933 -0.818795924322283 0.5379629493698715 0.4188812439660874 -0.1715583987549617 -0.17039117149567506 -0.09791737914991305 0.28561925176022707 0.8533628938753143 -0.6779468924781733 -0.5644355758117113 -0.07130197850873243 0.3578071066553614 0.30284884878774254 0.7741388700234328 0.47976520432562486 0.5480484104145382 -0.3937755266147954 -0.3308025375257221 -0.9624258808100445 0.610754891983877 0.5904069865020513 -0.41213041705846787 0.891021568321301 -0.5875345393665893 0.3755356924921791 0.7314230098674809 0.1462312205195515 0.4637026917078789 0.19969645027790306 0.16340373787842166 -0.5358000128270763 0.19208943592337557 0.5016572686255256 -0.45300586940783605 -0.23044991469869403 0.35770626264721517 0.8622656897399092 -0.6481947935723418 0.9163306546886677 -0.26091947424184614 -0.4647728902317573 0.5820496091984061 0.7695637601193377 -0.9286030296731439 0.3402849633609113 0.7384610928762466 -0.5958155456060117 0.16589637408996494 0.21770550092079843 -0.8974949770622237 0.8559077489725682 -0.5485102975691355 -0.2856507636540909 0.6298078834881221 -0.6520304897026078 -0.8887554461835149 0.2222730654561329 0.9761421394401054 -0.7728901091787205 -0.9731443974126156 -0.5235801536728821 -0.9710692293093481 -0.9180514555197443 -0.1328760940317939 -0.1339491532913325 -0.03534472828492041 -0.9057336919294248 0.5698499444452879 0.674578342458509 0.34170548358084485 0.542761402145682 -0.1372263154998411 0.7556480020857471 0.22242068460681474 -0.7094356728853655 -0.7249692125183436 0.12286746688585459 -0.6899664117688541 -0.15997281077216063 -0.2828300383985586 0.8915194166018733 -0.2919864695223021 0.22577705989824837 0.30059878280833585 -0.7001535785620906 -0.8576441149819253 -0.7186613817616493 -0.24372093730323108 -0.3361582019111894 0.4225040407293357 0.09426849162280804 -0.038165135400407446 0.013588141364072048 -0.9959889930302636 0.2450511000004102 0.5445977955970696 -0.5764062507754505 -0.1846769957458373 0.4882117140757697 0.8785067410429642 -0.7913009777748788 0.94113910304649 0.209307335620328 0.6025812854677897 -0.09274832974636438 -0.6560061770126355 -0.5953621928928635 -0.14033879935774807 -0.5674580994254127 -0.05828669488808125 -0.7454719480650787 -0.9276214451919055 -0.26801034761881437 -0.961713012122393 -0.9344042373232208 -0.7405858241663015 0.46319564850548356 -0.8140851748580692 -0.5408622978120243 -0.34613272394166184 0.46049875878962554 -0.997640210107503 -0.004881165330523518 0.9562961337600533 -0.5692142039086663 -0.3945502566403938 -0.19541609129838478 0.6612985888821137 0.36051684406270734 -0.9097974751412146 -0.5851435396385498 -0.003594856038317107 -0.5633277994180393 0.6575389146349016 0.4957477732552593 0.5479338375618081 -0.046112581953953735 -0.48977983736378783 neuralnet.OutputLayer@618c82c50.19158143028383967 0.7241949130935609 0.9866316804807197 -0.28812498689451527 0.7634419024845822 -0.1459641971334047 0.6999533318458506 -0.3671118313738604 0.5541232243619886 -0.22896715016037483 -0.521249977917077 0.8308611591111804 -0.6767733596359706 0.0026107959482287724 0.22755857061561124 -0.579937682483498 0.05523150149658307 0.842244714470107 0.2309376417004294 0.3771232453119544 -0.4814274105798898 0.5395334569485226 -0.186039382111586 0.5774274490389169 -0.4580774702618322 0.6294996821545329 0.6843292367110739 0.335460370757969 -0.3327681925303153 0.6968368221173434 -0.8370283710979031 -0.02570994149774719 0.9653640551760309 0.73241569877427 0.16505310667238737 0.4885204658677431 -0.5587180706360626 0.4729630761802216 0.7195699571125381 -0.3248317900843052 -0.9263991960269706 0.32688033874594036 0.7797203658411279 0.9428388594948607 -0.2382741234876784 -0.6044994574362382 0.6415276348358001 0.3605812844490459 -0.6516166261079585 -0.22511817397884637 -0.9349192071882876 0.8475085809413365 -0.8263088986616267 0.45307688371097754 -0.9115177098369607 0.9407002488405883 -0.051600748245254846 0.24564406934962857 0.9932554315813296 0.5044266900743694 0.929858679443394 0.9912994046818641 -0.8274601021001655 -0.5148809238887192 -0.3121940935162031 -0.3272580376342392 0.06774428762140317 -0.7151195779968577 0.07322974194438447 0.8568923701819977 0.47015764859393305 0.16720304285159027 -0.8106821944223747 -0.6544934277705592 -0.5270520697592324 0.9518086551928459 0.21756283934314136 0.7821876222755815 0.14447078566802962 0.9654150186749755 0.3052004449484218 0.1254121310601728 -0.4387705030259009 0.14039306723706624 -0.5252076039051189 -0.07111641028603866 -0.5296083414769273 0.376716360464884 -0.30262335245836924 0.6892698595979321 0.3765835037099683 -0.12829517069441243 -0.9265345184205601 -0.34450450662783705 -0.10827766326548949 -0.6214161033768326 0.10945083754375085 -0.6690635698858424 0.42276686654251017 0.06495198055626328 0.6507099748024904 0.9371766972750972 0.6701874140005385 0.3263802396743708 0.34881004071015753 -0.2981225503077537 -0.5137140938899806 -0.9265559611163182 0.9824742061529338 0.4495998619777981 0.7107066299694552 -0.6082402504283766 -0.6739396054306642 0.43830980338367354 0.02092320175743445 0.29770962293712033 -0.9572451403981161 0.13034377190234525 0.26539155757688904 0.53548780875786 -0.32808915395812566 0.9087784317201993 -0.609473450940592 -0.07372619861884266 0.7522559254182536 0.051739606197522714 0.9306646972957258 -0.13550350045195125 -0.5317836725487838 0.32090710723456417 -0.8494286806488728 -0.17957758197176088 -0.40960150937288686 -0.3216114432590643 0.6575630814571357 -0.45180512251850424 0.4902447453876111 0.14969469867489693 0.5265469557143251 0.4938501100923789 -0.5981721990548049 0.04056997926248285 0.3947026814993888 0.26299749640152825 0.06133347445209647 0.2921116669564914 0.31850713817590504 0.041409808704865214 0.22954007047343827 -0.9684822941104735 -0.5234558587880316 0.3967301555134789 0.16895288184420565 0.513884439747451 -0.37383771972824564 0.7432515931943152 -0.14852137706065704 -0.06795066429030305 0.9565140933240497 0.9760171694636476 -0.11720448792858107 0.6342373552924676 -0.9523178631180549 -0.08854100404711496 0.885925302820491 -0.6197084510041577 0.7652008962431931 0.47994948174627083 -0.6491384122209805 0.49299615008321895 0.35791514113470957 0.3558610441740053 0.8632394413029191 0.3372522555219052 -0.15174321259437018 -0.6277210988199701 -0.27138717649941047 -0.9381621135520649 0.11802052537384 -0.37598068718032274 -0.46252625420780646 -0.8492521034652708 -0.6931961894640573 0.322078197009823 -0.6808820360289062 -0.9023932511999695 -0.7914518893065476 -0.08254157274723894 0.9311223505488855 -0.40929739407677246 -0.9749464812519114 0.6892528398249576 -0.03128442662486408 0.49049705247094977 -0.08821053258819789 -0.6979700485241905 0.16973364687620895 0.7180929041641516 0.3255157184672617 -0.0735147847616261 -0.626929818651668 0.9335373701098316 0.8967639832621866 -0.4851308626816101 0.07034612589037137 -0.3421795283181672 0.8415847812531099 -0.9068628364792152 0.4026008100117642 0.7321937071261251 0.28149138090211323 -0.67627544345939 -0.3013170041594614 0.7725523477276904 -0.9595434695899161 0.6893326051983862 -0.14588896220131742 -0.5159591717558587 -0.13775770921507047 0.01651111878807987 0.7047672476400063 0.38007642656011387 -0.33375738135910116 -0.5001131818513812 -0.8229476544622301 0.9883351719998299 0.6082468842107106 -0.8102431427989759 0.18509541660088102 -0.9790224864364178 0.8038134267945871 -0.9120556354999584 0.7082037234910945 -0.906045537414217 -0.3771191027225874 -0.4358152504269014 -0.8982645044710335 0.36644729283041 -0.7116856299545701 -0.002866661770481005 -0.22234804057070934 0.26155278800290915 0.9686373330881183 -0.9160093647900539 0.9146899101478512 0.15779912274408736 0.8034651545956215 0.6087381905492824 0.7218085134487332 0.4019119837276762 -0.9567684933028371 -0.9465510171907607 -0.9464076106900029 -0.910233294965422 0.22366470534516503 0.9568395423946957 -0.6441988547475703 -0.9426464075177745 -0.4220245505156093 0.5302981491393731 0.1682827938161925 -0.7110769009755477 -0.4394106729377384 -0.37043598788079557 -0.1820710987740244 -0.7832918315778182 -0.19290225615473544 -0.37007219101364064 0.7550315603966672 0.9965646472571956 -0.7256147373101285 -0.8214671906184939 0.9029716555510969 0.9967214949300034 0.9279729495893752 0.7977104982390858 0.7561611842812058 0.24216215791879991 0.7027212288994686 -0.7787069659562726 -0.9510036530829122 0.08391022530746073 0.6372645610355602 0.47889064289965255 -0.9244603338207499 -0.31101065285407636 0.9478800272177214 -0.3470391918698873 -0.9660961215889184 -0.789237882233212 -0.7132259923469167 0.9562638898140103 0.6408960938930468 0.4477966019991194 -0.2572668456222168 0.08350099165712 0.17331201178707234 -0.961190730407591 -0.9446722432053322 0.43545030317522837 -0.3238633886054817 -0.512594445612221 -0.40914436323657044 -0.21398684305039295 0.39047163592032785 -0.3615153769670635 -0.5206769766627728 -0.2641146543749693 -0.777185698530398 -0.6771416331100863 -0.1557971225614163 0.07908927062475923 0.9517643770811071 0.29180616817088323 0.7245923518779903 -0.8072775653381988 -0.3303661851502846 0.9322627135347158 0.3436852676416772 -0.8272468240988955 -0.07206761409913265 -0.40118528618380445 0.1160357303183851 -0.4093381813230139 -0.8876521356292832 -0.6572680659773243 0.8036400503028313 -0.9173119120223985 -0.44845850071732696 0.842325036884586 0.6690085716121872 -0.8647098020967472 0.7736293827355435 0.033827081239007795 -0.7293853320916153 0.2614030658055828 -0.4047187244286554 0.25793221320667037 -0.3122576998416354 -0.3791637068484738 0.4634795612565564 0.2336658789512691 -0.26996089270090484 -0.8923152433036065 0.6935567323215669 0.26734831612920007 0.9111141425963867 0.07531774070774544 0.1554587256627511 0.32837112642847577 0.27127935626253175 0.49712652156177783 0.17142805086733248 -0.13697291076822826 -0.8051290200266674 -0.7451253027124739 0.19250339312319575 0.9697888575568994 -0.8477720899969668 -0.07327847976925639 0.430306438033899 -0.8193327346833158 0.32195170492667113 -0.5813434930038516 -0.5816804224852906 0.049414539153535775 -0.3709984683606521 0.7854525676673245 -0.7310845883605931 -0.1364322020509754 0.22884144690849917 0.8439473584289281 0.6563188119978267 0.5082236424815578 0.534480196314063 0.6505061953659206 -0.3091212685578927 -0.8910585477889676 0.7259300554266928 -0.46171218401093395 -0.5722099498918926 0.9726098513599847 0.3013355253930531 0.3651840052302676 -0.23310235490717912 -0.7088245519291231 0.6736362465865721 0.5711688076909694 -0.38552275390686364 -0.5541068016168594 0.4308610770119763 -0.020220389366401803 -0.020168374305101877 -0.21933881059088212 -0.44640193969814346 -0.6175543001399925 -0.07204151941152048 0.7428671517816904 -0.6916694726155103 0.43063471284954735 neuralnet.OutputLayer@7eb785820.292609656593559 0.5190431089290914 0.6420984550178074 -0.919603346922268 0.632630725995317 0.915646271795174 0.14955614104737536 0.7125320684366695 -0.6954311010745899 -0.8646953312182972 0.7302616324756052 -0.38411044754973345 -0.377565442463875 0.4777412181112818 0.5475164193114804 -0.9378503285636787 0.9853201601060583 0.24986326381626056 -0.5217590014089518 0.2079946954051688 -0.482357978147824 -0.546713058876977 0.5824212368665935 -0.43827492862358153 -0.3944910192723804 0.5278548340685084 -0.7722008905419824 -0.04409742859572885 0.4119607661032676 -0.4203921147280796 -0.0341024886778345 0.7548218214992495 -0.028597791612597456 0.8954093670876198 -0.9535434557611265 0.35476270310116964 0.02819772268667442 0.625173947783531 0.7939419513667411 0.8040080666184224 -0.5951202618846408 0.887245891197727 -0.10956218138991658 -0.5572198520603835 -0.20757897671053394 -0.8269043734719792 -0.10069095580877407 0.18919086374505378 0.5510716398357872 -0.6462689117444674 -0.5942592488625155 -0.4409805270606705 -0.5802272039039058 -0.7590036912196738 -0.22726761101079063 -0.22798656635538916 -0.8485727016710639 -0.9394257278111067 -0.6596787767156248 -0.33279236660524236 -0.36151034109638114 0.23771951675086023 0.6045846404916433 0.41061122734281796 0.3584802944800968 0.07858896731707232 0.47104942480403533 0.651023013864691 -0.8359617238720783 0.6059615445571791 -0.39887969777989607 0.36859282518323877 0.950798883433965 -0.5560403745952847 0.47350771881760056 0.9053028099091057 -0.6356238623762461 -0.9326969183294411 -0.574265337364768 -0.20956838014533918 -0.06741164288957746 -0.6287908690682286 0.2808640459168459 0.9352968041794376 0.2301980927271885 -0.32775416170082095 0.4057114774286761 -0.4874746006353051 0.4721390604424367 -0.6784286725216108 0.18996928273485347 0.5325400365037884 0.28063170861748044 -0.13725677533275904 0.028720688689459206 -0.5549997433032856 0.9467889950051043 0.4687299337996914 0.27849056827033447 -0.5788869862267585 0.8951954181903818 -0.5216529414400348 -0.7691332564368039 -0.30609374367325604 0.019297722701329456 0.5618936181115964 0.5963072479844999 -0.9379968943922933 0.26693521233401063 -0.9205253036021788 -0.9506227839407236 0.496772450697772 0.17150436941861957 0.8629341748315981 -0.9124404589601808 0.565975803151263 -0.2804925047624307 -0.8775657266136248 -0.6219397478681051 -0.08344116729654771 -0.03413134739227042 0.7298233519243205 -0.7133456634243198 0.3968104302840131 -0.4774234584445384 -0.5992718156727389 0.8224488037399829 0.0798637806107001 -0.5060284625241919 0.5328607798468984 -0.48780301483653754 -0.253050605738822 0.5752475425106454 0.7657877901685226 -0.9959120362560392 -0.445185033546143 -0.9967226295768888 -0.0768059178591527 -0.4427687993539682 0.13655642455600503 0.4063567492587643 0.45767553671430783 0.10971194045603982 -0.7576070298721685 0.5694369883606255 0.024889607841701022 -0.25766589863175127 -0.07532641471202339 0.8632926052517976 0.4124229247035711 -0.978905137021645 -0.09799365178827246 -0.09886284350135488 -0.10767998419232683 -0.33997322030503263 -0.9723874444734755 0.6276231737160188 0.6675558777455968 0.9951499909528874 -0.8520421472823747 0.9279786359187195 0.563893131001627 -0.005374752902148061 -0.785088632834997 0.3061559097171954 -0.539008011813366 -0.4086100811881882 -0.561988801727652 0.7290917207161879 0.251153816098002 -0.5489292268358233 -0.10286782444098175 -0.6998410913392507 -0.18912343204761672 -0.6348498573217659 0.22858866559252256 0.6111741084195716 0.6290488019639261 0.06944217791289642 0.33247197707165377 -0.04667728426013118 -0.7249423416358353 0.76001717081276 0.09319983324360592 0.7393636523259808 0.8386519776630721 0.03876720182456006 -0.3393972750269413 -0.379355346328228 0.21878255053694928 -0.35830894470284114 -0.8084781083369119 0.6628337776178856 0.6779057467448145 -0.4455860168291157 -0.8776469591621735 0.2857682185462024 -0.7321683501314408 -0.9819478256006317 0.03612289442208927 0.3592269675235169 0.5389413408030631 0.2877576626250675 0.24278886963009616 -0.8165876454414849 -0.3083121634227264 0.6864900384199472 -0.9678612189703409 0.04801768823493224 -0.04770035100934533 -0.34501887866177106 0.6429458026272066 0.556376442085945 -0.7525274273243455 0.8395920885109025 -0.23771388201168353 0.9926228804960262 0.11888077589162471 0.2837833175178751 0.5019107971615937 0.1932089147686653 0.5202630497166214 0.0440784525364214 -0.544587789549152 -0.17544520725337276 0.5497095906287632 -0.11756772306349028 -0.4838528540264512 -0.24702145167970901 0.01903661803236234 -0.5145914727681113 -0.4886449161943265 0.5801373015455509 0.8916114622657486 0.11501400484853519 -0.5030992480724247 -0.9123109178718275 0.22987274605373975 -0.05822604262998998 0.3582054535465733 0.6412834812357004 0.19365039420150165 0.07989300326893256 -0.490778005239891 -0.17927018979826126 0.48917464042115777 0.6162315406746564 -0.7098659312136588 0.11655895705106267 0.264689889872572 0.5753133871656646 0.6875823081292218 -0.668644126109123 -0.08044412895323072 -0.2854812875727504 -0.7252330998454237 -0.11276812175004292 0.38669440332278904 -0.4832653729400487 -0.4367399708156189 -0.9694564836719115 0.7696699082080096 0.5086338988138223 -0.9713375360394687 -0.4247631639577285 -0.5186030442692294 0.6449089636230594 -0.0923845313858741 0.3926677263641757 -0.6833561485424787 -0.4274481962213247 -0.06223581416060975 0.06595709758966495 -0.12028338838085806 0.03187249091274358 0.7330703276500361 0.6303006750246759 0.0259096072527355 0.9164842298427995 -0.35322729015104126 -0.061544462227390406 -0.8861828282605805 0.8539355553549971 -0.7999481570713198 0.166030769340895 -0.0818906660280565 -0.12011496090030294 0.35720179232446003 0.21926160659110383 -0.35904370571658295 0.45642195756343296 -0.24664219742700677 -0.8344453126425446 0.06638436267778858 -0.12906253596042128 0.058453291231255644 0.2830477689564247 0.11628164646462535 0.8843211739540029 0.8553431933218861 0.3503950614264987 0.8397397481484566 0.36155067558006093 -0.9304345170111684 -0.5254938185980468 0.7584896411992297 0.7961811549792018 0.1960251229999066 -0.8935509701834172 -0.08069068244012656 -0.03806796376788435 -0.6086392466391652 0.12046203606664618 0.4977684923583564 -0.9845162452280319 0.24164766931028347 0.546173775087665 0.2442292641235304 -0.09241005294099003 0.45953776085898024 0.03973735894639563 0.9597066575229309 -0.0955909721597813 0.433443820662643 -0.3324327273646963 0.8924604451445317 -0.10583809703019775 0.9488244222799408 0.44050492291898535 -0.0781453734864217 0.26930786633957504 -0.7327231965585496 0.0822036385201409 -0.5307168933406557 -0.10824914186280377 0.30662775049009827 0.2208490086366428 0.681386107974801 0.6253677862112347 0.8725384437303891 -0.04256604122846175 -0.13767989726532703 0.360492462412905 0.6916873815034631 0.15797627461041874 0.7928125195525779 0.35986970626156334 0.565127641019838 0.8344658243275815 -0.7731723754004529 -0.8271355382002521 0.959059370792447 0.2849959816828266 -0.12603752146850222 -0.3609020630368407 -0.8254726121722616 -0.155614978683547 0.7886252877863539 0.5257891408516036 -0.73267220249282 -0.0885836870404344 0.6364456893892252 -0.19662021454456713 0.7389434117085165 0.5482857783737992 -0.505579781121007 0.19686791693818728 -0.21273843472445875 0.24447920028763903 0.9735786051115457 0.4878952644219554 -0.574835709067865 0.17552664433702392 0.7004125522087166 0.6641272942822611 -0.13679589096389166 -0.5868167496141329 -0.16574312555833193 0.793811141704544 0.2612463930642792 0.42573075411703476 0.9699526548133368 -0.13255662905774912 0.8193044791175164 -0.1146794158380785 0.7255176225709407 -0.48504200204077275 -0.5296763410280679 0.235501311972106 -0.3503468528399021 0.7423521666008145 -0.5877321030028569 0.800080181506021 0.019542198748471185 0.6996827600646891 0.8627871711318043 -0.010076104034035138 -0.789258428758276 -0.8967587605792094 -0.28937506024949167 neuralnet.OutputLayer@a8104c30.6956733765396461 -0.1182256669330427 0.5817795857105634 0.37857240649128665 -0.007042245993406859 -0.07241187868498311 0.683750214265348 -0.3059944011591804 0.2874663465689026 0.5033535383723892 -0.5120063853856832 -0.17189995247541445 0.24965677176061163 -0.5496145194533113 -0.04820024645862131 -0.6678043666686244 0.5920118404890107 0.2679849197182591 0.6431966750459422 -0.30325314082844834 0.7692531607142636 -0.006469302022043766 -0.14994180480054864 0.8734869514836701 0.02708529085397593 -0.7362167882987851 0.3443768669258024 -0.641516249602872 -0.2368713987576997 -0.5431898474629251 0.7352950148147079 0.9752764740834473 -0.08950185754552886 -0.10519543607907 0.7184522445786907 -0.1859271074160963 -0.7742144585636342 -0.3091632624263875 0.8066780726002337 -0.1786023419515923 0.08497495508066288 -0.2509764263442482 0.4261952844919231 -0.3176943665607609 0.8359278778492508 0.9638414755064665 -0.6266571039981509 0.8913835874653019 0.3942277046782613 0.8308629704398403 -0.7387075740971365 0.1257008519059859 0.6169878208533666 -0.5170562461822242 -0.37189523372830935 0.17845754931298596 -0.13982758303411402 -0.1579170005511248 0.13242277088493637 -0.8884873111893415 -0.12059284812447768 -0.14853844267020988 -0.2913451279704913 -0.12717768970372678 -0.9706028207196566 0.08253350770759715 -0.4109072916836888 -0.8049719080107488 0.25702053140285963 0.8408930665188986 0.7973087755362621 0.04732685900152811 0.16890496076112194 -0.1012834368526303 0.5685633254640193 0.5170189549801293 0.03367709237867633 0.32202184465191364 -0.6761481242377947 0.6218473551764293 0.7968180229590452 0.43330288980262943 0.4015604755256167 -0.06915496168382496 0.43377602666005866 0.6341675510187457 0.9932529082672222 -0.15927319051560052 0.43314583887604796 0.7226907676857766 -0.6814420850774009 -0.8829120998822269 -0.8783194263383275 -0.9250752203546283 0.36099376400015837 -0.32562444211460406 0.44888148401155314 -0.047608498065288996 0.7462758549341981 0.20472766168945244 -0.17998568521633385 0.5648031150143903 0.023489340256146574 0.9516429677326638 0.4786059795834373 -0.08852963237225486 -0.4243609315215041 -0.20224153316421067 -0.2843677489171229 -0.1179988818570945 -0.8204511151719257 -0.3561720237093975 0.04244429737107658 -0.6125320978512749 -0.6822103160622561 0.40477034127654277 0.1745986873428803 -0.8278819079452245 0.3510561120194551 0.5542045647706458 -0.20236953102180877 -0.5878286592110238 -0.35614801935805296 0.08640829282749096 -0.7662074143164443 0.7159271450041574 -0.5729778823260042 0.7186951915224113 0.2081033141991947 -0.09369874079981988 -0.773002464513118 0.671752826137313 0.3768003805490394 -0.8145961046358419 -0.08510827316151393 0.09383410808386372 0.3824687582979772 0.37762396425300826 -0.928039046074649 -0.850452240209569 0.2355452510451902 -0.16597513598941205 -0.6535394043723012 0.5974193827768184 0.3863281754656872 -0.09780436070711163 0.6275080783500243 -0.18616488660404662 0.08664082418727759 -0.7480791692869898 -0.807013512249477 -0.7247393931140731 -0.5156131191140234 0.6623891046701998 0.93145961525251 0.4359390035818187 0.3327464422817359 -0.5302106093026239 0.3950554292237357 -0.7058127127264919 -0.489079498076483 -0.1719502846321962 -0.16427484607945342 0.14587364771110944 0.5742401862804681 0.317542985683402 -0.29251066585722485 -0.3930096402779494 -0.09590901991949963 -0.45142777773645815 4.0417801546654974E-4 -0.1638669313945983 -0.614685180586518 0.03448715440759098 -0.5019414854212592 -0.5007727036450154 -0.12973128263814948 0.2738856104677533 0.8313616438355659 -0.250546840605695 -0.4888589853500104 0.1873956693663471 -0.5790107447490083 -0.1891709808064448 -0.33106963474324946 -0.4587217196119605 -0.13521201762896384 0.4795195554448529 0.899031044611888 0.9811685195792087 0.5122328866491289 0.4272047769028203 -0.8731332087197345 0.7526910672652479 0.2751044878987362 0.8997273744672478 -0.23342424953918506 -0.9561707323159295 -0.27681054738115873 -0.3449513476869972 0.2023492706456156 0.3235516204830424 0.199176488867584 -0.4600179733007781 0.7935155338033498 -0.26656105335967795 -0.27694435165526443 0.3373094278502885 0.7255660700210979 0.9094178580659857 -0.5698508424576775 -0.34483731695990927 0.5016468776625553 -0.05092658694222818 0.9571934852819282 -0.9802064216704356 -0.6589440709644508 -0.7893555661514806 -0.2616790345552724 -0.3287467407348291 0.9583530617463015 -0.6686680327530091 0.4498920331220816 -0.8413719170354131 0.17102865386643185 0.11798117126761376 -0.37567736115283257 -0.14372172502727443 -0.8956116432459084 -0.3900851357727302 -0.31537793107851897 0.2533188142929801 0.8053774420784251 0.6934575399073659 -0.2985296814320041 0.9430638091872312 0.26533322104921764 -0.30337195791498517 0.08335937102248692 0.9043969708435955 -0.09514875673247725 -0.3188971039630575 0.13951343152148932 0.029476687640149768 -0.24132285596367542 -0.06825668468193558 0.13877896553945812 -0.872345425080424 -0.021730173284780774 0.9109972886492571 0.6810991520789356 -0.6008221195367495 -0.045224707712463785 -0.3300369248410211 0.1290998063513602 -0.19127274691769303 0.7628281724834794 0.09784305689744255 0.6651274315926099 -0.05794150916918128 -0.3100363987571296 -0.8606916115988299 -0.43491492551564015 0.952291066810637 0.0984510861430603 0.14169249808381057 0.2577711394442428 0.6084102395977513 0.5639063692248735 -0.7779299805094982 -0.9178195002890135 -0.6306027817454758 0.24282224832319266 -0.8863370467104329 0.7022886139944835 0.8045145991136108 -0.6192104703419898 -0.5084680235128037 -0.6020006225536676 -0.34552322228256294 -0.7768728606750824 -0.34658531439497386 -0.147143514111591 0.8297175786945018 -0.18473857704357866 0.4914977281286457 -0.7936601875941486 0.7303052879410881 -0.9362876567646695 -0.4821362433931712 -0.44449716108725823 -0.6338096237134291 -0.7009375228504771 0.8677194221680224 0.47364540866659677 -0.115275432041549 -0.43422174370221045 -0.49795404141981536 -0.4191779777989245 0.6624585382675987 0.1330740521223508 0.5511505375484854 0.5422987349240465 -0.9128225416806093 -0.2541136619113503 0.9032444103428187 0.79850398864277 -0.5995849852075212 0.9320552533913894 0.7525134231760647 0.7273618955292055 -0.5438812874710132 0.0644756768184711 -0.8815621545830872 -0.8871870921307405 -0.6970840658766062 -0.29437312131940574 0.055992327558860966 0.7193557967434727 0.05012268534492681 -0.8062516435631384 -0.14717757061009606 -0.6489991294187631 0.32518988532783166 0.16909910053831978 0.39693426183319014 -0.9246032600309368 0.6760172829651486 -0.7138034561094989 -0.22639493265685084 -0.1867554923226098 0.7781748705013407 -0.7384700733951027 -0.8257410454227578 0.3944843689891002 -0.853369678672626 -0.4892913155553751 0.2684615111800165 0.5530437727316296 0.9555298983238316 0.3259396557927692 0.18285043592378902 0.4299626356869236 0.3787430696564328 0.02260613680737167 0.26199789723216527 -0.33887664762990755 -0.22154945540358362 -0.022103870737972597 -0.5454771752555249 -0.6068485757955552 0.8986031928883438 0.5271255492369036 0.8062496217634949 -0.12627051267617417 -0.36644871804667667 0.3537242201816181 -0.5317770771143865 -0.9531267393626983 -0.28214285690377483 0.18277631756656498 0.39269687473937986 -0.2821842450287658 -0.04104044868893775 -0.811617451296809 -0.4690469656492401 -0.12392404304163418 0.15702001832136048 0.7716671722000024 0.6334712832518768 -0.8590366761501965 0.23239982579285468 -0.9744109994033957 -0.5595327035860762 0.6549788389689127 -0.9733914099593721 0.8383085121878253 -0.8716263343558478 0.15298297100243652 -0.16757152899244154 0.8090659832369668 -0.18088470146895663 -0.8938537139874635 -0.37217902959195304 -0.13343687156450978 -0.02798208801488078 -0.5710029462246058 -0.21988686364516474 -0.8561846315930918 -0.24472272245016224 -0.9333802786890656 -0.694845588693826 -0.4736696580440918 0.4618617229045814 0.09040176476720552 0.6233332287338106 0.6501219264984185 0.6046550286459548 -0.36028534216247154 -0.22738980553021648 neuralnet.OutputLayer@5d224b5-0.5340010027006624 0.9392902978613683 -0.5987720243527318 -0.08391788083486684 -0.989465269618171 -0.3028876470513183 0.4864485407980824 0.9545714682117137 0.5592686452791905 -0.8417483260758917 -0.9769818353401762 -0.713450667755783 0.6046533814458394 0.6997070412628619 0.2732717515264549 -0.821781340954063 0.32079589098592753 -0.37404633751714167 -0.17477129771558886 -0.1130683604093089 0.7534333071098912 -0.18912307234141557 -0.22037880476234395 0.38906468188062604 0.8419395413428071 0.8613661881363396 -0.3671207620547934 -0.23632420515970287 0.49093075652750473 0.35110675183746864 0.4263568876890924 0.772549682617987 -0.9533543194879294 0.6777352325348299 -0.7546062504000368 0.4026576570056589 0.6041722943322705 -0.2861174868847204 0.00709525617271034 -0.5516416893379494 -0.8763705100199858 0.8138527124444239 0.8380239310390003 -0.5200907407524014 0.2113143181188497 -0.20171715947742497 -0.7007648544245983 0.5034981396535941 -0.9828022144881481 -0.8510202535191741 -0.47494527346768567 0.10685046417881128 -0.7985328086052947 -0.08050420111115408 0.684346239187492 -0.896270822460945 0.5654263592600886 -0.5974838689143133 0.40128999271738264 -0.5501235483152929 -0.7418003594342095 0.725794733987145 -0.838688026113332 -0.8288934014529556 -0.46055364946633615 0.5915783400840916 0.7230424885140264 0.9996616863642643 0.7756526572399471 0.8819527686107889 0.027220900048813612 -0.5047174949690153 0.5963818167475919 -0.13953022787640534 -0.4216705587047287 -0.6202016607779421 -0.8431434447748066 0.9792702603431094 0.2363519491678182 -0.7551556997050455 -0.9889792566901905 -0.39440375666265903 -0.5717993044303846 -0.5826054620515515 -0.24174128603806855 -0.6986648440603999 0.02670061413366054 0.662350879544644 0.9975900880650259 0.09770079260286668 -0.7228959964191535 -0.7499836947127999 -0.8873664624917232 -0.287668465423746 0.8263447376312728 0.26286016595023676 0.473044799514712 -0.9496381272388215 0.9499176253150896 0.5138644102366761 0.024460538817133504 -0.9588432772715818 0.7185498620365549 0.1106245292286282 -0.7529300243179473 0.7995190607047699 -0.9832421615851199 -0.8526647736111729 -0.3124799989929189 -0.0901972764270823 -0.14513408212177092 -0.2777364944151809 0.851533801440781 0.94336130719872 -0.6861053151384304 -0.9478770685310344 -0.8761295432008365 0.9984033186513338 -0.840431223344909 -0.16289408420924323 0.5434188813538168 -0.5547672201652742 -0.23991340584312848 -0.21922278113935523 -0.013464701062783413 0.2520430707163972 -0.5333490116209115 0.7065262506475825 -0.5697023546955309 0.32428128959305236 -0.7376294687133963 0.5651398359729657 0.10514109233464874 -0.48412994057860004 0.8721685617657449 0.6839831792834521 0.17620743034458086 0.14939526559021776 0.9438212720599962 0.36433979834912134 0.08441307294261935 0.5352493833161154 0.5701016025557709 0.7461007141432012 -0.6516807632343646 -0.3884547281337015 -0.29198046475185 -0.8059641344999747 -0.21015181955225415 -0.8233601712739521 -0.23101183630632993 -0.8574845115289226 -0.8389162685681475 0.4779660236835762 -0.7190541072572014 0.8003521686921294 -0.3269502132515719 -0.8874286148048047 0.4594427055049173 -0.34165379867055246 0.16457672583494087 -0.771314213052041 -0.6592568080689672 0.7624608384865791 0.6011219885007505 0.07054650806819451 0.8192714605739941 -0.021975559096693686 0.30755577396966705 -0.3582698551131388 0.1592675047548635 0.3470233903631027 0.16018621136758227 -0.9291162273789564 0.903249250126275 -0.6371414277838063 0.7832782407727814 0.527896852958011 -0.6634264508230289 0.8957103412548922 0.30249597551801866 -0.1275330913292555 -0.031276760950377014 -0.7029147119851435 0.1374206905323998 0.7193199771867056 -0.2895424601050218 -0.7962238176193803 0.6997905130827389 -0.8919410653018672 0.3360612337504921 0.9182964585432832 -0.7175219921740336 -0.7118894793931165 -0.6320930484858155 0.2431751545435915 -0.7475584417557207 -0.6777150190038725 -0.9254369037568049 0.9280114215705028 0.3218100346182845 -0.18781775069927076 -0.12621716178782016 -0.30203976548209044 -0.1153882071345046 0.3255837070210079 0.03980600870209705 0.27679767772696195 0.4390426877690027 0.31494084413469314 0.36428738600450883 -0.8872832721790048 -0.9699423965060275 0.9463721940821844 0.8674956486069022 0.23572620224950747 0.5548191984369821 0.28383510493228736 0.028745712426652803 -0.9934615962674183 -0.9186272789960646 -0.5986357685345848 -0.5482536081749472 -0.49792028218460904 0.9929364063142578 0.9198396327210223 -0.2770423980358415 -0.9244371777777494 -0.46261658091485447 -0.8895721683906015 -0.7976836729511502 0.7421156784470897 -0.9683097083762682 0.48575809525529445 0.020851158634030975 -0.40365987386351143 -0.36092984714661247 0.8575625516859008 0.9856733252409856 0.4473182308237045 0.943793421116572 -0.6941930725885053 -0.0816027020733513 0.350316880432451 0.9338041832895052 -0.25647720857301837 -0.891129284743419 -0.8270438803751181 -0.0504831482264122 -0.3777405078516616 0.654720381864394 0.8164752619638319 0.45085242163547834 0.38830862231700336 0.003062112556378005 0.13889692420139899 -0.5772528218919252 0.13700085106507387 0.7100667192673659 0.024674819673645487 0.008017190211388803 0.32319074721151886 0.4050870905960461 0.802509800529285 0.698439387263306 -0.34333572485636865 -0.02123062334113668 -0.6734976304187035 0.5999419334300483 -0.5378683330798054 0.8209105581057309 0.3621228697588993 -0.06751556088154542 -0.18041020127991803 -0.6024254201213078 -0.576556694693185 0.8430280968964107 -0.03858943554051375 -0.11619982333929457 -0.7831167935211704 -0.33869972028341966 -0.5888332849742447 -0.06432915538400297 0.2939451996930258 0.07007203595649569 -0.3360456086896618 0.89297820481034 -0.804999104522428 0.998493270769341 0.2711912210020926 0.8224891803063931 0.18145283612827845 -0.12035447276919387 -0.31867661009690906 -0.6649147770433328 0.8672410736877149 -0.21027297577155202 0.2626912125195551 0.20281904588765576 0.5447509811011287 -0.2490932807661116 -0.5085059307397942 -0.44885502411205214 -0.5138392408449337 -0.47552637124788855 0.20624054166640116 -0.9339888038480822 -0.17004027877665617 0.7339431066735191 -0.7754714624812536 -0.08417884159397737 -0.9660298110425307 0.37461235705630624 0.08710515853994372 -0.7029846028100368 -0.8997155841655944 0.2189119930565423 0.5709140295685643 0.9436084085423367 -0.4769690295240723 0.39487921571907236 0.21463399251164794 -0.9582729088922896 -0.04486947467417279 0.37415743934424894 -0.02119835762830491 0.6282014498665444 0.07288659367190764 0.6789601073323297 0.35412776501561505 0.26759427174800077 0.7844510816658491 -0.9758522398552745 0.5065694050281798 -0.9433621480766499 0.38635292320646275 0.11755957786532711 0.16098916752761905 0.43266182959585653 0.2372027719736125 0.5124908109368592 -0.13392114471119465 0.9189113899981679 -0.9354199059244162 0.3510656130773715 -0.47472173231901915 -0.4477925827631105 -0.1654561009387121 -0.5365513053689419 -0.17030911165391072 -0.04339536877810879 -0.2628709821607149 0.5494709321667642 0.6818669677550925 -0.32815029818387 0.9289157570803571 0.3172877026760703 -0.7194489661092085 0.6606908405551932 0.23798953650639887 0.7859992176961743 0.15720744239774553 0.8194857840362244 -0.30059339355110837 -0.9295368242897304 0.7608501841891323 -0.36099311453348604 0.032098831267292294 -0.0015753180991027183 -0.19170137303795698 -0.08435805637565064 -0.41819496875448436 -0.19894679311715724 -0.583288438585146 0.028000686048049728 0.7893030848386929 0.8533619033008103 0.362756305787015 -0.1272023805552306 -0.541492225807969 -0.6969812362388618 0.751050969462319 0.12120758169725598 0.4138366189317316 0.2438421645700567 0.9909618844948465 -0.7910301328104428 -0.9210456189289526 -0.5102172353575017 0.5772013241758945 -0.9714876259691516 -0.032723346666326814 -0.34071853471653224 -0.46791446804858317 -0.06067861079561765 0.5455192490011482 0.1582832315153726 0.016289147850575114 -0.3343950728266115 0.7715642879804928 neuralnet.OutputLayer@4d0460-0.7082176288845521 -0.7172007671145718 -0.7709284081875283 -0.6997049472079921 0.7021386851998557 0.5460647247029284 -0.7393816484592718 -0.5337806705917385 -0.08134749136005615 -0.29000716516138425 -0.30381048907760955 0.5304259946646007 0.26995343642157366 0.7187734919597328 0.7511268011160378 -0.135724725048048 -0.2541234912783452 -0.1434250708362782 -0.7675273300286468 -0.6031276580444315 0.24932483388763238 -0.9433428985373479 -0.5006504664824509 -0.6746522056990409 0.41516249691832796 0.4007286475668206 0.7015938886597193 0.19121807487893405 0.8115547779235567 -0.5162495583174121 -0.40785632346450895 0.7150575208750751 -0.5686601285883873 -0.9319961766039266 -0.27242814518936964 -0.7632825280807712 0.6003187350419662 0.3980152615907804 0.37509949522019315 0.044231193437077265 0.6283292014570584 0.004429388977706172 0.9656355650688152 -0.8756522833325296 0.48203696272368746 0.9590973286672388 -0.9500222487729824 0.7487302711106765 -0.5881764969244899 -0.36618511043746127 -0.19475065635076017 0.8739912943240798 -0.8128612142343001 0.699002380654729 0.6237869532354793 -0.882949844032646 0.42525711576762326 -0.3767662088105027 -0.08323327679849168 0.34029764765304515 -0.6005595143346618 0.4063441867560822 -0.7535429075087904 -0.10138086305243921 0.8178641844114326 -0.08631036449557772 0.3275956447904027 0.8517195514084535 0.9299582880792295 0.5522003263434848 0.42035582021088946 0.9040451750999838 -0.8303936590934567 0.32472332058664444 -0.418078114141454 0.20891358362691326 0.5343307340451517 0.5617446487240171 0.10493186800071397 0.1556299897695146 -0.6525252788431735 -0.9877720060017079 -4.880645669136374E-5 0.7751409135763577 -0.3003749378525503 0.9907077546269621 0.3735597177369018 -0.1377102213558956 0.13114890834536097 0.04799574246600247 -0.8917050601043607 0.4664986973296975 0.33665461129251373 -0.8606502561374324 -0.9928013087891512 0.17759233804075614 -0.6467788578313909 -0.40247202662773307 0.9625382270156985 0.9937585753728013 -0.23196480963159571 0.8290128444443782 -0.7692317394865579 0.3529404494018349 0.5501714391157433 -0.4006006699085235 -0.6738069696384211 -0.2797165633253268 0.700060787320732 0.9774530964903032 -0.28681886834831516 0.5200019683473667 -0.2849946555134931 0.49497286813061303 -0.49284624297389446 0.9819393430455131 0.008079314905551471 -0.7609653861199582 0.9607640377622139 0.9273074232347945 -0.31905738882829915 0.42152153538698456 0.08343574099672824 0.6651146423567057 -0.8495979776537853 0.3245015298152435 0.3363355041905133 0.01550584769502339 0.9477721732743335 -0.6351802407278198 0.7743922308900661 -0.7420963113381398 0.8548805855230918 0.6824262131672808 -0.8675007486257242 -0.75590984637039 0.3884644023745387 -0.9309743856026705 0.3317685028861391 -0.5227923348042975 -0.6048617170818625 0.010564829980483692 -0.5822497048803139 -0.9205261324882674 -0.7566405634791112 -0.9778170963969586 -0.4631331986145575 -0.06904916937965688 -0.70995719303386 0.5702344131503817 0.7577803928622453 0.020120877684343785 -0.8772743220999101 0.5749294047264382 -0.8042411063352416 0.09980518728873944 -0.3796402846469217 0.5004581755298253 -0.608091623588347 -0.030999491487727404 0.39570993925273457 -0.7919938931926885 -0.5761021372936029 -0.7832376770239485 0.36062766667835233 0.2710086621935255 0.015849926057078356 0.6669604672211258 0.3446771416279081 0.14091954691688513 0.5046445231998098 0.3855865292761106 0.17214762162240482 0.07461130749961487 -0.012919537146270144 -0.7273195221181799 0.808663776370211 0.8696173741027075 -0.8068624125533549 0.5106280122537823 0.9945795995493683 0.3384536097916303 0.5278338419065395 0.5156898434847242 0.7281460638497804 0.8352951905179663 0.5176015481274308 -0.689328755346995 0.5089930169769563 -0.3662220769781649 -0.6466812675635775 0.15850210574062584 -0.9644496809637646 -0.7405399251941431 -0.09540066251163848 -0.1415619099626364 -0.8756828220647386 -0.9202810905436632 0.09902344881828773 -0.21775889812056137 0.7119097527031727 -0.7678651730164727 0.8229019821774259 0.7250606865745155 0.561990668487642 0.8736792260836166 -0.03898080863228759 0.15720197865250896 0.5497979176624096 -0.589406152421311 -0.8974395769329511 0.9152851670641123 -0.6197901406841606 -0.16458007653943396 0.09696061508197862 0.6756119157766931 0.22614648714077068 -0.8247199855246693 -0.3585706263455605 -0.6456387487718658 0.8895280075219854 0.8256752151857638 -0.4369782139564862 0.5084250665256135 -0.30421937023789003 -0.20244042046153432 0.3608074181648685 0.7315196873310353 -0.13434137034529992 0.5924831345643061 0.8832947597580824 0.3013069113602944 0.6674826329725717 0.10072976337303652 0.015020666832119334 -0.9823668454152067 0.2631873592276178 -0.990442276498148 -0.2367833131154835 0.3470333661827786 0.019120480002822293 