0.26906239098044593 -0.06704122423558645 -0.4426001178171777 -0.6179150195982154 -0.16476662144872867 -0.0827862918633766 0.18524151761201046 0.7004041410307397 -0.016379769385908016 -0.21379705118706838 0.11575748915277562 0.9522109386586262 -0.7218390555023773 0.07275377646987591 0.012393437876010549 -0.8899881907696069 0.3826608678483827 0.23632709918564676 0.9467399229056098 0.15065554431135708 -0.1287818392277641 -0.7536221889511954 -0.8775662000699554 0.3674910487639803 -0.7617722190265607 0.4673241839014963 -0.7243518324048814 0.8061576950099933 -0.280705121149213 -0.6536671212263631 -0.8674770131705815 0.21546073099328011 -0.35708713223067035 -0.13556421345900405 -0.7917178311110982 0.884936346877943 0.053577581493156945 -0.5167583287967004 -0.373873906262018 -0.0912093227088766 0.8201581789442058 -0.8492370822621454 0.736014376437688 -0.45758901179750466 0.8307386625388202 0.4270892024859486 -0.1092431201652958 -0.8425200409001234 0.8105730768663838 -0.330374221223822 -0.6471055243678239 -0.15586814212275246 -0.1610757830276217 0.5535712361817896 -0.4289787994126538 0.42720588351780275 -0.4890786009800545 -0.3191937681571305 -0.11429345140905522 -0.2335153882112615 -0.4584106526821795 0.19334802337869683 -0.44288036250806473 0.8902378118180473 0.26215864978420067 -0.19068578015783377 -0.900185387232062 0.19418013982092086 -0.8431693159101669 0.5526303025496052 -0.43724156606079856 -0.46476962452308146 -0.7536229801258184 -0.7254226176522321 0.19929625104889637 -0.7932644186216368 -0.41978153871333057 0.34715632014946674 0.07395695756916798 0.12898061837162933 -0.6402587325974803 0.23596084738730905 0.48927813632155615 -0.009902751500101559 -0.2867693875966184 -0.0159975288214248 0.6715283836848059 0.876554132982848 0.9794765822529499 -0.48271819476319766 -0.7884488403849954 -0.7777479797048584 0.5572445461120505 0.5368023055579757 -0.8549499765374423 -0.2517443127491338 0.1376945507289672 -0.8815081007800638 -0.09854251192106667 0.7631193304707646 0.07464233961513156 0.8898315727642405 0.3249286335601884 -0.46726023024426755 -0.9466789631904624 -0.7130426696258471 0.5447052254592311 0.9292101327438419 -0.6960622411260968 -0.7249497930820404 0.16170464692032627 0.7351270317084169 0.755616057284427 0.5037753099304658 0.33718080750819424 0.5524857881458144 -0.45506575150674045 0.9935742569013828 -0.7219710560908156 0.467313312915965 0.658751757548713 0.5423227232934267 -0.031006637269346826 0.4105443373647528 -0.3972245788134283 -0.600815785311479 0.008784496955245191 0.4747271662909337 0.4166421810487252 0.7767408714791815 -0.9341008012733992 0.47170711039019475 -0.9036497949158578 -0.7736413048731591 0.8286144159747597 -0.5903866138862252 -0.7993059824944568 -0.8426819632965191 -0.27308136583029297 0.723774101337252 0.6968672231622653 0.06895520870985417 -0.9563432234740876 0.39548946917323213 0.7003748768061134 -0.2722607561025997 -0.003628562852222683 0.14916158120240608 -0.13348591668445975 -0.7419571694767578 0.695576006989923 0.8307424733597082 -0.3525282772989399 0.23593062991860814 -0.3982785348898332 -0.32816883206929814 -0.7850312660959109 -0.4514759309313544 -0.20898064695767404 -0.7485956727124983 -0.49036103045744595 -0.7142665622458617 0.3755345975301356 0.6328641440065822 -0.016867933206354047 0.9040662062490111 -0.7715836167431658 -0.08603629407148106 0.18731201042722834 0.5909005840359662 -0.5394810552286984 -0.44826888745517224 -0.6011979621460304 -0.7315046474985802 -0.8534220945582941 -0.4313572232963854 -0.9197111718267416 0.22591655767844454 -0.3289705534994498 0.5992514627694739 0.7281113627174443 0.5291888428411838 0.8658405773429594 0.6718876615155545 -0.2337413803378151 -0.6801008002950595 0.25258361857045164 -0.654067087312718 0.7694023796507358 -0.08586501514106404 -0.8674580923744477 -0.9661080942151521 -0.24671691770390425 0.410349614854027 0.7428494761549456 0.9558268672524877 0.30281426458236105 0.8192112637116156 0.011399607946228296 0.6127920294222816 -0.6682874124858601 0.6627745213781571 -0.30677016219295605 0.07123007204977638 0.6192092419429064 0.5358658622986145 0.4979083611811813 -0.1482548550207906 -0.5417540101140292 -0.6297869884881739 -0.3404177942569909 -0.8224910967632608 0.7061661315414235 0.5417690865290465 0.7441562379854063 0.608418578795974 0.8558192316489727 -0.4265426411780028 0.11377706299770873 0.2500175578251933 -0.03337906002287949 -0.07186498082132065 0.7065016575944694 -0.651508311581062 -0.8922652469760233 0.28826567670051195 -0.23528863273163003 0.9665271824820535 -0.5126638161569989 0.16729610854426047 -0.9676586054539144 0.8655908573949131 0.46292008435862086 -0.30987821297076557 0.20805843308267713 0.7187776220404798 -0.14026862652640126 0.7727460541553176 -0.8942612861549524 0.34964837235404844 0.3514306966724252 0.6901054042064984 0.8484491161015186 0.07570943952238707 0.3847098386755463 -0.5287503313707521 -0.6320299388399441 -0.8460035455929051 -0.7647115672485076 -0.362806143918033 0.6559435422977038 -0.7613711519958781 -0.8340325391839712 0.2927507183257062 0.31908782864590157 -0.89142173695693 0.38947391306336565 0.4028241260342884 -0.46943346774048045 -0.6149966366012678 0.11287116546343667 -0.5113081360896773 -0.009614588082379805 -0.30752251423820853 0.5213673765911588 0.8428019333139204 0.85434402750434 0.6227818428202914 0.234346439959646 0.41299336436878376 -0.8448097085400914 -0.18646090713766772 -0.20584060152959482 -0.41034785829467646 0.20969163540617852 0.5710771039813997 -0.19068552448301734 0.4423205155248118 0.1166998414284246 -0.6538267229770054 -0.17927097898834488 -0.6947369275780338 0.23617103443266996 0.345745447681884 0.0670714344250316 0.6734018401516516 -0.4233868754999569 0.950505983521468 -0.46078600564120487 0.9191847015100234 -0.8154567388168961 -0.04015788215971261 0.9026036027289587 0.5150436178434595 0.8471018910983651 0.0368587160395728 -0.4300263216172574 -0.007801503400194254 0.9077128154520472 0.8491272072695083 -0.11281594100053371 0.3911188014249678 0.5212021314068147 -0.9508885315133899 -0.3141274901391129 0.1777849416194469 -0.19743022394383747 -0.5982578435425169 0.41369768905504667 -0.41180905037867066 0.6629974351654967 -0.48117780171289637 0.40378765930055704 -0.19412781943826685 0.5849017284896214 0.008871709198322586 -0.7610068435826409 -0.18243277175910877 0.6190036551614087 0.5890472460483743 0.4249719426911508 -0.1162431551372558 0.7414613582673802 0.2596520542902282 0.952162262438549 -0.6835433366242699 -0.3140457463776214 0.9226269127476989 0.7153786685380297 0.29834668396244834 -0.9410609836279384 0.4787808254124216 -0.9920021340531182 0.2865434417141054 0.09772401776241946 -0.9057290342912493 0.4242826001309511 0.7118818599983792 -0.22099540889120894 -0.15076982836734554 0.9189842495534047 -0.8393333865896628 -0.8845815029711874 -0.28090085460637815 0.5905071549625047 -0.4299507549452224 0.6717462413294945 -0.12484067509235919 -0.002975728383478704 -0.4005679013365242 -0.5803047695108386 -0.30763804966723207 0.6802946125141823 0.7869132332649046 -0.3432520305515877 -0.07843175335812957 0.6777098972903822 -0.750535977282802 -0.4868280755267529 -0.9941126444284056 0.43933289202526216 0.03534244355346883 0.5317122084224818 -0.9825701922739084 0.9452941513836469 -0.8563637404108058 0.4433158951253824 -0.3336304185778485 0.3236789165154401 0.15462145407127015 0.8929472966928494 0.027982265607647938 0.705623895183193 -0.8089924304492419 0.8524984420385473 -0.731064141184212 -0.09970503353298488 0.9886930003404572 -0.5497959932381072 -0.3104394884403171 0.1271445012840976 0.4903165530375463 -0.8480641522865373 -0.22350180219722504 -0.9223587471741078 0.988984786656059 0.6502595507649664 -0.14321175260768482 0.9866891271848173 -0.7942247817658862 0.5000292775158203 0.021216729825363267 -0.1597556003099725 -0.8449675209126111 0.8293109203261116 0.6371500228623295 0.9171168252514653 0.4675333141191188 0.2431534875646657 0.37897204881860835 neuralnet.OutputLayer@6e0af4240.26906239098044593 -0.06704122423558645 -0.4426001178171777 -0.6179150195982154 -0.16476662144872867 -0.0827862918633766 0.18524151761201046 0.7004041410307397 -0.016379769385908016 -0.21379705118706838 0.11575748915277562 0.9522109386586262 -0.7218390555023773 0.07275377646987591 0.012393437876010549 -0.8899881907696069 0.3826608678483827 0.23632709918564676 0.9467399229056098 0.15065554431135708 -0.1287818392277641 -0.7536221889511954 -0.8775662000699554 0.3674910487639803 -0.7617722190265607 0.4673241839014963 -0.7243518324048814 0.8061576950099933 -0.280705121149213 -0.6536671212263631 -0.8674770131705815 0.21546073099328011 -0.35708713223067035 -0.13556421345900405 -0.7917178311110982 0.884936346877943 0.053577581493156945 -0.5167583287967004 -0.373873906262018 -0.0912093227088766 0.8201581789442058 -0.8492370822621454 0.736014376437688 -0.45758901179750466 0.8307386625388202 0.4270892024859486 -0.1092431201652958 -0.8425200409001234 0.8105730768663838 -0.330374221223822 -0.6471055243678239 -0.15586814212275246 -0.1610757830276217 0.5535712361817896 -0.4289787994126538 0.42720588351780275 -0.4890786009800545 -0.3191937681571305 -0.11429345140905522 -0.2335153882112615 -0.4584106526821795 0.19334802337869683 -0.44288036250806473 0.8902378118180473 0.26215864978420067 -0.19068578015783377 -0.900185387232062 0.19418013982092086 -0.8431693159101669 0.5526303025496052 -0.43724156606079856 -0.46476962452308146 -0.7536229801258184 -0.7254226176522321 0.19929625104889637 -0.7932644186216368 -0.41978153871333057 0.34715632014946674 0.07395695756916798 0.12898061837162933 -0.6402587325974803 0.23596084738730905 0.48927813632155615 -0.009902751500101559 -0.2867693875966184 -0.0159975288214248 0.6715283836848059 0.876554132982848 0.9794765822529499 -0.48271819476319766 -0.7884488403849954 -0.7777479797048584 0.5572445461120505 0.5368023055579757 -0.8549499765374423 -0.2517443127491338 0.1376945507289672 -0.8815081007800638 -0.09854251192106667 0.7631193304707646 0.07464233961513156 0.8898315727642405 0.3249286335601884 -0.46726023024426755 -0.9466789631904624 -0.7130426696258471 0.5447052254592311 0.9292101327438419 -0.6960622411260968 -0.7249497930820404 0.16170464692032627 0.7351270317084169 0.755616057284427 0.5037753099304658 0.33718080750819424 0.5524857881458144 -0.45506575150674045 0.9935742569013828 -0.7219710560908156 0.467313312915965 0.658751757548713 0.5423227232934267 -0.031006637269346826 0.4105443373647528 -0.3972245788134283 -0.600815785311479 0.008784496955245191 0.4747271662909337 0.4166421810487252 0.7767408714791815 -0.9341008012733992 0.47170711039019475 -0.9036497949158578 -0.7736413048731591 0.8286144159747597 -0.5903866138862252 -0.7993059824944568 -0.8426819632965191 -0.27308136583029297 0.723774101337252 0.6968672231622653 0.06895520870985417 -0.9563432234740876 0.39548946917323213 0.7003748768061134 -0.2722607561025997 -0.003628562852222683 0.14916158120240608 -0.13348591668445975 -0.7419571694767578 0.695576006989923 0.8307424733597082 -0.3525282772989399 0.23593062991860814 -0.3982785348898332 -0.32816883206929814 -0.7850312660959109 -0.4514759309313544 -0.20898064695767404 -0.7485956727124983 -0.49036103045744595 -0.7142665622458617 0.3755345975301356 0.6328641440065822 -0.016867933206354047 0.9040662062490111 -0.7715836167431658 -0.08603629407148106 0.18731201042722834 0.5909005840359662 -0.5394810552286984 -0.44826888745517224 -0.6011979621460304 -0.7315046474985802 -0.8534220945582941 -0.4313572232963854 -0.9197111718267416 0.22591655767844454 -0.3289705534994498 0.5992514627694739 0.7281113627174443 0.5291888428411838 0.8658405773429594 0.6718876615155545 -0.2337413803378151 -0.6801008002950595 0.25258361857045164 -0.654067087312718 0.7694023796507358 -0.08586501514106404 -0.8674580923744477 -0.9661080942151521 -0.24671691770390425 0.410349614854027 0.7428494761549456 0.9558268672524877 0.30281426458236105 0.8192112637116156 0.011399607946228296 0.6127920294222816 -0.6682874124858601 0.6627745213781571 -0.30677016219295605 0.07123007204977638 0.6192092419429064 0.5358658622986145 0.4979083611811813 -0.1482548550207906 -0.5417540101140292 -0.6297869884881739 -0.3404177942569909 -0.8224910967632608 0.7061661315414235 0.5417690865290465 0.7441562379854063 0.608418578795974 0.8558192316489727 -0.4265426411780028 0.11377706299770873 0.2500175578251933 -0.03337906002287949 -0.07186498082132065 0.7065016575944694 -0.651508311581062 -0.8922652469760233 0.28826567670051195 -0.23528863273163003 0.9665271824820535 -0.5126638161569989 0.16729610854426047 -0.9676586054539144 0.8655908573949131 0.46292008435862086 -0.30987821297076557 0.20805843308267713 0.7187776220404798 -0.14026862652640126 0.7727460541553176 -0.8942612861549524 0.34964837235404844 0.3514306966724252 0.6901054042064984 0.8484491161015186 0.07570943952238707 0.3847098386755463 -0.5287503313707521 -0.6320299388399441 -0.8460035455929051 -0.7647115672485076 -0.362806143918033 0.6559435422977038 -0.7613711519958781 -0.8340325391839712 0.2927507183257062 0.31908782864590157 -0.89142173695693 0.38947391306336565 0.4028241260342884 -0.46943346774048045 -0.6149966366012678 0.11287116546343667 -0.5113081360896773 -0.009614588082379805 -0.30752251423820853 0.5213673765911588 0.8428019333139204 0.85434402750434 0.6227818428202914 0.234346439959646 0.41299336436878376 -0.8448097085400914 -0.18646090713766772 -0.20584060152959482 -0.41034785829467646 0.20969163540617852 0.5710771039813997 -0.19068552448301734 0.4423205155248118 0.1166998414284246 -0.6538267229770054 -0.17927097898834488 -0.6947369275780338 0.23617103443266996 0.345745447681884 0.0670714344250316 0.6734018401516516 -0.4233868754999569 0.950505983521468 -0.46078600564120487 0.9191847015100234 -0.8154567388168961 -0.04015788215971261 0.9026036027289587 0.5150436178434595 0.8471018910983651 0.0368587160395728 -0.4300263216172574 -0.007801503400194254 0.9077128154520472 0.8491272072695083 -0.11281594100053371 0.3911188014249678 0.5212021314068147 -0.9508885315133899 -0.3141274901391129 0.1777849416194469 -0.19743022394383747 -0.5982578435425169 0.41369768905504667 -0.41180905037867066 0.6629974351654967 -0.48117780171289637 0.40378765930055704 -0.19412781943826685 0.5849017284896214 0.008871709198322586 -0.7610068435826409 -0.18243277175910877 0.6190036551614087 0.5890472460483743 0.4249719426911508 -0.1162431551372558 0.7414613582673802 0.2596520542902282 0.952162262438549 -0.6835433366242699 -0.3140457463776214 0.9226269127476989 0.7153786685380297 0.29834668396244834 -0.9410609836279384 0.4787808254124216 -0.9920021340531182 0.2865434417141054 0.09772401776241946 -0.9057290342912493 0.4242826001309511 0.7118818599983792 -0.22099540889120894 -0.15076982836734554 0.9189842495534047 -0.8393333865896628 -0.8845815029711874 -0.28090085460637815 0.5905071549625047 -0.4299507549452224 0.6717462413294945 -0.12484067509235919 -0.002975728383478704 -0.4005679013365242 -0.5803047695108386 -0.30763804966723207 0.6802946125141823 0.7869132332649046 -0.3432520305515877 -0.07843175335812957 0.6777098972903822 -0.750535977282802 -0.4868280755267529 -0.9941126444284056 0.43933289202526216 0.03534244355346883 0.5317122084224818 -0.9825701922739084 0.9452941513836469 -0.8563637404108058 0.4433158951253824 -0.3336304185778485 0.3236789165154401 0.15462145407127015 0.8929472966928494 0.027982265607647938 0.705623895183193 -0.8089924304492419 0.8524984420385473 -0.731064141184212 -0.09970503353298488 0.9886930003404572 -0.5497959932381072 -0.3104394884403171 0.1271445012840976 0.4903165530375463 -0.8480641522865373 -0.22350180219722504 -0.9223587471741078 0.988984786656059 0.6502595507649664 -0.14321175260768482 0.9866891271848173 -0.7942247817658862 0.5000292775158203 0.021216729825363267 -0.1597556003099725 -0.8449675209126111 0.8293109203261116 0.6371500228623295 0.9171168252514653 0.4675333141191188 0.2431534875646657 0.37897204881860835 neuralnet.OutputLayer@7762d5960.26906239098044593 -0.06704122423558645 -0.4426001178171777 -0.6179150195982154 -0.16476662144872867 -0.0827862918633766 0.18524151761201046 0.7004041410307397 -0.016379769385908016 -0.21379705118706838 0.11575748915277562 0.9522109386586262 -0.7218390555023773 0.07275377646987591 0.012393437876010549 -0.8899881907696069 0.3826608678483827 0.23632709918564676 0.9467399229056098 0.15065554431135708 -0.1287818392277641 -0.7536221889511954 -0.8775662000699554 0.3674910487639803 -0.7617722190265607 0.4673241839014963 -0.7243518324048814 0.8061576950099933 -0.280705121149213 -0.6536671212263631 -0.8674770131705815 0.21546073099328011 -0.35708713223067035 -0.13556421345900405 -0.7917178311110982 0.884936346877943 0.053577581493156945 -0.5167583287967004 -0.373873906262018 -0.0912093227088766 0.8201581789442058 -0.8492370822621454 0.736014376437688 -0.45758901179750466 0.8307386625388202 0.4270892024859486 -0.1092431201652958 -0.8425200409001234 0.8105730768663838 -0.330374221223822 -0.6471055243678239 -0.15586814212275246 -0.1610757830276217 0.5535712361817896 -0.4289787994126538 0.42720588351780275 -0.4890786009800545 -0.3191937681571305 -0.11429345140905522 -0.2335153882112615 -0.4584106526821795 0.19334802337869683 -0.44288036250806473 0.8902378118180473 0.26215864978420067 -0.19068578015783377 -0.900185387232062 0.19418013982092086 -0.8431693159101669 0.5526303025496052 -0.43724156606079856 -0.46476962452308146 -0.7536229801258184 -0.7254226176522321 0.19929625104889637 -0.7932644186216368 -0.41978153871333057 0.34715632014946674 0.07395695756916798 0.12898061837162933 -0.6402587325974803 0.23596084738730905 0.48927813632155615 -0.009902751500101559 -0.2867693875966184 -0.0159975288214248 0.6715283836848059 0.876554132982848 0.9794765822529499 -0.48271819476319766 -0.7884488403849954 -0.7777479797048584 0.5572445461120505 0.5368023055579757 -0.8549499765374423 -0.2517443127491338 0.1376945507289672 -0.8815081007800638 -0.09854251192106667 0.7631193304707646 0.07464233961513156 0.8898315727642405 0.3249286335601884 -0.46726023024426755 -0.9466789631904624 -0.7130426696258471 0.5447052254592311 0.9292101327438419 -0.6960622411260968 -0.7249497930820404 0.16170464692032627 0.7351270317084169 0.755616057284427 0.5037753099304658 0.33718080750819424 0.5524857881458144 -0.45506575150674045 0.9935742569013828 -0.7219710560908156 0.467313312915965 0.658751757548713 0.5423227232934267 -0.031006637269346826 0.4105443373647528 -0.3972245788134283 -0.600815785311479 0.008784496955245191 0.4747271662909337 0.4166421810487252 0.7767408714791815 -0.9341008012733992 0.47170711039019475 -0.9036497949158578 -0.7736413048731591 0.8286144159747597 -0.5903866138862252 -0.7993059824944568 -0.8426819632965191 -0.27308136583029297 0.723774101337252 0.6968672231622653 0.06895520870985417 -0.9563432234740876 0.39548946917323213 0.7003748768061134 -0.2722607561025997 -0.003628562852222683 0.14916158120240608 -0.13348591668445975 -0.7419571694767578 0.695576006989923 0.8307424733597082 -0.3525282772989399 0.23593062991860814 -0.3982785348898332 -0.32816883206929814 -0.7850312660959109 -0.4514759309313544 -0.20898064695767404 -0.7485956727124983 -0.49036103045744595 -0.7142665622458617 0.3755345975301356 0.6328641440065822 -0.016867933206354047 0.9040662062490111 -0.7715836167431658 -0.08603629407148106 0.18731201042722834 0.5909005840359662 -0.5394810552286984 -0.44826888745517224 -0.6011979621460304 -0.7315046474985802 -0.8534220945582941 -0.4313572232963854 -0.9197111718267416 0.22591655767844454 -0.3289705534994498 0.5992514627694739 0.7281113627174443 0.5291888428411838 0.8658405773429594 0.6718876615155545 -0.2337413803378151 -0.6801008002950595 0.25258361857045164 -0.654067087312718 0.7694023796507358 -0.08586501514106404 -0.8674580923744477 -0.9661080942151521 -0.24671691770390425 0.410349614854027 0.7428494761549456 0.9558268672524877 0.30281426458236105 0.8192112637116156 0.011399607946228296 0.6127920294222816 -0.6682874124858601 0.6627745213781571 -0.30677016219295605 0.07123007204977638 0.6192092419429064 0.5358658622986145 0.4979083611811813 -0.1482548550207906 -0.5417540101140292 -0.6297869884881739 -0.3404177942569909 -0.8224910967632608 0.7061661315414235 0.5417690865290465 0.7441562379854063 0.608418578795974 0.8558192316489727 -0.4265426411780028 0.11377706299770873 0.2500175578251933 -0.03337906002287949 -0.07186498082132065 0.7065016575944694 -0.651508311581062 -0.8922652469760233 0.28826567670051195 -0.23528863273163003 0.9665271824820535 -0.5126638161569989 0.16729610854426047 -0.9676586054539144 0.8655908573949131 0.46292008435862086 -0.30987821297076557 0.20805843308267713 0.7187776220404798 -0.14026862652640126 0.7727460541553176 -0.8942612861549524 0.34964837235404844 0.3514306966724252 0.6901054042064984 0.8484491161015186 0.07570943952238707 0.3847098386755463 -0.5287503313707521 -0.6320299388399441 -0.8460035455929051 -0.7647115672485076 -0.362806143918033 0.6559435422977038 -0.7613711519958781 -0.8340325391839712 0.2927507183257062 0.31908782864590157 -0.89142173695693 0.38947391306336565 0.4028241260342884 -0.46943346774048045 -0.6149966366012678 0.11287116546343667 -0.5113081360896773 -0.009614588082379805 -0.30752251423820853 0.5213673765911588 0.8428019333139204 0.85434402750434 0.6227818428202914 0.234346439959646 0.41299336436878376 -0.8448097085400914 -0.18646090713766772 -0.20584060152959482 -0.41034785829467646 0.20969163540617852 0.5710771039813997 -0.19068552448301734 0.4423205155248118 0.1166998414284246 -0.6538267229770054 -0.17927097898834488 -0.6947369275780338 0.23617103443266996 0.345745447681884 0.0670714344250316 0.6734018401516516 -0.4233868754999569 0.950505983521468 -0.46078600564120487 0.9191847015100234 -0.8154567388168961 -0.04015788215971261 0.9026036027289587 0.5150436178434595 0.8471018910983651 0.0368587160395728 -0.4300263216172574 -0.007801503400194254 0.9077128154520472 0.8491272072695083 -0.11281594100053371 0.3911188014249678 0.5212021314068147 -0.9508885315133899 -0.3141274901391129 0.1777849416194469 -0.19743022394383747 -0.5982578435425169 0.41369768905504667 -0.41180905037867066 0.6629974351654967 -0.48117780171289637 0.40378765930055704 -0.19412781943826685 0.5849017284896214 0.008871709198322586 -0.7610068435826409 -0.18243277175910877 0.6190036551614087 0.5890472460483743 0.4249719426911508 -0.1162431551372558 0.7414613582673802 0.2596520542902282 0.952162262438549 -0.6835433366242699 -0.3140457463776214 0.9226269127476989 0.7153786685380297 0.29834668396244834 -0.9410609836279384 0.4787808254124216 -0.9920021340531182 0.2865434417141054 0.09772401776241946 -0.9057290342912493 0.4242826001309511 0.7118818599983792 -0.22099540889120894 -0.15076982836734554 0.9189842495534047 -0.8393333865896628 -0.8845815029711874 -0.28090085460637815 0.5905071549625047 -0.4299507549452224 0.6717462413294945 -0.12484067509235919 -0.002975728383478704 -0.4005679013365242 -0.5803047695108386 -0.30763804966723207 0.6802946125141823 0.7869132332649046 -0.3432520305515877 -0.07843175335812957 0.6777098972903822 -0.750535977282802 -0.4868280755267529 -0.9941126444284056 0.43933289202526216 0.03534244355346883 0.5317122084224818 -0.9825701922739084 0.9452941513836469 -0.8563637404108058 0.4433158951253824 -0.3336304185778485 0.3236789165154401 0.15462145407127015 0.8929472966928494 0.027982265607647938 0.705623895183193 -0.8089924304492419 0.8524984420385473 -0.731064141184212 -0.09970503353298488 0.9886930003404572 -0.5497959932381072 -0.3104394884403171 0.1271445012840976 0.4903165530375463 -0.8480641522865373 -0.22350180219722504 -0.9223587471741078 0.988984786656059 0.6502595507649664 -0.14321175260768482 0.9866891271848173 -0.7942247817658862 0.5000292775158203 0.021216729825363267 -0.1597556003099725 -0.8449675209126111 0.8293109203261116 0.6371500228623295 0.9171168252514653 0.4675333141191188 0.2431534875646657 0.37897204881860835 neuralnet.OutputLayer@122051a70.26906239098044593 -0.06704122423558645 -0.4426001178171777 -0.6179150195982154 -0.16476662144872867 -0.0827862918633766 0.18524151761201046 0.7004041410307397 -0.016379769385908016 -0.21379705118706838 0.11575748915277562 0.9522109386586262 -0.7218390555023773 0.07275377646987591 0.012393437876010549 -0.8899881907696069 0.3826608678483827 0.23632709918564676 0.9467399229056098 0.15065554431135708 -0.1287818392277641 -0.7536221889511954 -0.8775662000699554 0.3674910487639803 -0.7617722190265607 0.4673241839014963 -0.7243518324048814 0.8061576950099933 -0.280705121149213 -0.6536671212263631 -0.8674770131705815 0.21546073099328011 -0.35708713223067035 -0.13556421345900405 -0.7917178311110982 0.884936346877943 0.053577581493156945 -0.5167583287967004 -0.373873906262018 -0.0912093227088766 0.8201581789442058 -0.8492370822621454 0.736014376437688 -0.45758901179750466 0.8307386625388202 0.4270892024859486 -0.1092431201652958 -0.8425200409001234 0.8105730768663838 -0.330374221223822 -0.6471055243678239 -0.15586814212275246 -0.1610757830276217 0.5535712361817896 -0.4289787994126538 0.42720588351780275 -0.4890786009800545 -0.3191937681571305 -0.11429345140905522 -0.2335153882112615 -0.4584106526821795 0.19334802337869683 -0.44288036250806473 0.8902378118180473 0.26215864978420067 -0.19068578015783377 -0.900185387232062 0.19418013982092086 -0.8431693159101669 0.5526303025496052 -0.43724156606079856 -0.46476962452308146 -0.7536229801258184 -0.7254226176522321 0.19929625104889637 -0.7932644186216368 -0.41978153871333057 0.34715632014946674 0.07395695756916798 0.12898061837162933 -0.6402587325974803 0.23596084738730905 0.48927813632155615 -0.009902751500101559 -0.2867693875966184 -0.0159975288214248 0.6715283836848059 0.876554132982848 0.9794765822529499 -0.48271819476319766 -0.7884488403849954 -0.7777479797048584 0.5572445461120505 0.5368023055579757 -0.8549499765374423 -0.2517443127491338 0.1376945507289672 -0.8815081007800638 -0.09854251192106667 0.7631193304707646 0.07464233961513156 0.8898315727642405 0.3249286335601884 -0.46726023024426755 -0.9466789631904624 -0.7130426696258471 0.5447052254592311 0.9292101327438419 -0.6960622411260968 -0.7249497930820404 0.16170464692032627 0.7351270317084169 0.755616057284427 0.5037753099304658 0.33718080750819424 0.5524857881458144 -0.45506575150674045 0.9935742569013828 -0.7219710560908156 0.467313312915965 0.658751757548713 0.5423227232934267 -0.031006637269346826 0.4105443373647528 -0.3972245788134283 -0.600815785311479 0.008784496955245191 0.4747271662909337 0.4166421810487252 0.7767408714791815 -0.9341008012733992 0.47170711039019475 -0.9036497949158578 -0.7736413048731591 0.8286144159747597 -0.5903866138862252 -0.7993059824944568 -0.8426819632965191 -0.27308136583029297 0.723774101337252 0.6968672231622653 0.06895520870985417 -0.9563432234740876 0.39548946917323213 0.7003748768061134 -0.2722607561025997 -0.003628562852222683 0.14916158120240608 -0.13348591668445975 -0.7419571694767578 0.695576006989923 0.8307424733597082 -0.3525282772989399 0.23593062991860814 -0.3982785348898332 -0.32816883206929814 -0.7850312660959109 -0.4514759309313544 -0.20898064695767404 -0.7485956727124983 -0.49036103045744595 -0.7142665622458617 0.3755345975301356 0.6328641440065822 -0.016867933206354047 0.9040662062490111 -0.7715836167431658 -0.08603629407148106 0.18731201042722834 0.5909005840359662 -0.5394810552286984 -0.44826888745517224 -0.6011979621460304 -0.7315046474985802 -0.8534220945582941 -0.4313572232963854 -0.9197111718267416 0.22591655767844454 -0.3289705534994498 0.5992514627694739 0.7281113627174443 0.5291888428411838 0.8658405773429594 0.6718876615155545 -0.2337413803378151 -0.6801008002950595 0.25258361857045164 -0.654067087312718 0.7694023796507358 -0.08586501514106404 -0.8674580923744477 -0.9661080942151521 -0.24671691770390425 0.410349614854027 0.7428494761549456 0.9558268672524877 0.30281426458236105 0.8192112637116156 0.011399607946228296 0.6127920294222816 -0.6682874124858601 0.6627745213781571 -0.30677016219295605 0.07123007204977638 0.6192092419429064 0.5358658622986145 0.4979083611811813 -0.1482548550207906 -0.5417540101140292 -0.6297869884881739 -0.3404177942569909 -0.8224910967632608 0.7061661315414235 0.5417690865290465 0.7441562379854063 0.608418578795974 0.8558192316489727 -0.4265426411780028 0.11377706299770873 0.2500175578251933 -0.03337906002287949 -0.07186498082132065 0.7065016575944694 -0.651508311581062 -0.8922652469760233 0.28826567670051195 -0.23528863273163003 0.9665271824820535 -0.5126638161569989 0.16729610854426047 -0.9676586054539144 0.8655908573949131 0.46292008435862086 -0.30987821297076557 0.20805843308267713 0.7187776220404798 -0.14026862652640126 0.7727460541553176 -0.8942612861549524 0.34964837235404844 0.3514306966724252 0.6901054042064984 0.8484491161015186 0.07570943952238707 0.3847098386755463 -0.5287503313707521 -0.6320299388399441 -0.8460035455929051 -0.7647115672485076 -0.362806143918033 0.6559435422977038 -0.7613711519958781 -0.8340325391839712 0.2927507183257062 0.31908782864590157 -0.89142173695693 0.38947391306336565 0.4028241260342884 -0.46943346774048045 -0.6149966366012678 0.11287116546343667 -0.5113081360896773 -0.009614588082379805 -0.30752251423820853 0.5213673765911588 0.8428019333139204 0.85434402750434 0.6227818428202914 0.234346439959646 0.41299336436878376 -0.8448097085400914 -0.18646090713766772 -0.20584060152959482 -0.41034785829467646 0.20969163540617852 0.5710771039813997 -0.19068552448301734 0.4423205155248118 0.1166998414284246 -0.6538267229770054 -0.17927097898834488 -0.6947369275780338 0.23617103443266996 0.345745447681884 0.0670714344250316 0.6734018401516516 -0.4233868754999569 0.950505983521468 -0.46078600564120487 0.9191847015100234 -0.8154567388168961 -0.04015788215971261 0.9026036027289587 0.5150436178434595 0.8471018910983651 0.0368587160395728 -0.4300263216172574 -0.007801503400194254 0.9077128154520472 0.8491272072695083 -0.11281594100053371 0.3911188014249678 0.5212021314068147 -0.9508885315133899 -0.3141274901391129 0.1777849416194469 -0.19743022394383747 -0.5982578435425169 0.41369768905504667 -0.41180905037867066 0.6629974351654967 -0.48117780171289637 0.40378765930055704 -0.19412781943826685 0.5849017284896214 0.008871709198322586 -0.7610068435826409 -0.18243277175910877 0.6190036551614087 0.5890472460483743 0.4249719426911508 -0.1162431551372558 0.7414613582673802 0.2596520542902282 0.952162262438549 -0.6835433366242699 -0.3140457463776214 0.9226269127476989 0.7153786685380297 0.29834668396244834 -0.9410609836279384 0.4787808254124216 -0.9920021340531182 0.2865434417141054 0.09772401776241946 -0.9057290342912493 0.4242826001309511 0.7118818599983792 -0.22099540889120894 -0.15076982836734554 0.9189842495534047 -0.8393333865896628 -0.8845815029711874 -0.28090085460637815 0.5905071549625047 -0.4299507549452224 0.6717462413294945 -0.12484067509235919 -0.002975728383478704 -0.4005679013365242 -0.5803047695108386 -0.30763804966723207 0.6802946125141823 0.7869132332649046 -0.3432520305515877 -0.07843175335812957 0.6777098972903822 -0.750535977282802 -0.4868280755267529 -0.9941126444284056 0.43933289202526216 0.03534244355346883 0.5317122084224818 -0.9825701922739084 0.9452941513836469 -0.8563637404108058 0.4433158951253824 -0.3336304185778485 0.3236789165154401 0.15462145407127015 0.8929472966928494 0.027982265607647938 0.705623895183193 -0.8089924304492419 0.8524984420385473 -0.731064141184212 -0.09970503353298488 0.9886930003404572 -0.5497959932381072 -0.3104394884403171 0.1271445012840976 0.4903165530375463 -0.8480641522865373 -0.22350180219722504 -0.9223587471741078 0.988984786656059 0.6502595507649664 -0.14321175260768482 0.9866891271848173 -0.7942247817658862 0.5000292775158203 0.021216729825363267 -0.1597556003099725 -0.8449675209126111 0.8293109203261116 0.6371500228623295 0.9171168252514653 0.4675333141191188 0.2431534875646657 0.37897204881860835 neuralnet.OutputLayer@237563e0.26906239098044593 -0.06704122423558645 -0.4426001178171777 -0.6179150195982154 -0.16476662144872867 -0.0827862918633766 0.18524151761201046 0.7004041410307397 -0.016379769385908016 -0.21379705118706838 0.11575748915277562 0.9522109386586262 -0.7218390555023773 0.07275377646987591 0.012393437876010549 -0.8899881907696069 0.3826608678483827 0.23632709918564676 0.9467399229056098 0.15065554431135708 -0.1287818392277641 -0.7536221889511954 -0.8775662000699554 0.3674910487639803 -0.7617722190265607 0.4673241839014963 -0.7243518324048814 0.8061576950099933 -0.280705121149213 -0.6536671212263631 -0.8674770131705815 0.21546073099328011 -0.35708713223067035 -0.13556421345900405 -0.7917178311110982 0.884936346877943 0.053577581493156945 -0.5167583287967004 -0.373873906262018 -0.0912093227088766 0.8201581789442058 -0.8492370822621454 0.736014376437688 -0.45758901179750466 0.8307386625388202 0.4270892024859486 -0.1092431201652958 -0.8425200409001234 0.8105730768663838 -0.330374221223822 -0.6471055243678239 -0.15586814212275246 -0.1610757830276217 0.5535712361817896 -0.4289787994126538 0.42720588351780275 -0.4890786009800545 -0.3191937681571305 -0.11429345140905522 -0.2335153882112615 -0.4584106526821795 0.19334802337869683 -0.44288036250806473 0.8902378118180473 0.26215864978420067 -0.19068578015783377 -0.900185387232062 0.19418013982092086 -0.8431693159101669 0.5526303025496052 -0.43724156606079856 -0.46476962452308146 -0.7536229801258184 -0.7254226176522321 0.19929625104889637 -0.7932644186216368 -0.41978153871333057 0.34715632014946674 0.07395695756916798 0.12898061837162933 -0.6402587325974803 0.23596084738730905 0.48927813632155615 -0.009902751500101559 -0.2867693875966184 -0.0159975288214248 0.6715283836848059 0.876554132982848 0.9794765822529499 -0.48271819476319766 -0.7884488403849954 -0.7777479797048584 0.5572445461120505 0.5368023055579757 -0.8549499765374423 -0.2517443127491338 0.1376945507289672 -0.8815081007800638 -0.09854251192106667 0.7631193304707646 0.07464233961513156 0.8898315727642405 0.3249286335601884 -0.46726023024426755 -0.9466789631904624 -0.7130426696258471 0.5447052254592311 0.9292101327438419 -0.6960622411260968 -0.7249497930820404 0.16170464692032627 0.7351270317084169 0.755616057284427 0.5037753099304658 0.33718080750819424 0.5524857881458144 -0.45506575150674045 0.9935742569013828 -0.7219710560908156 0.467313312915965 0.658751757548713 0.5423227232934267 -0.031006637269346826 0.4105443373647528 -0.3972245788134283 -0.600815785311479 0.008784496955245191 0.4747271662909337 0.4166421810487252 0.7767408714791815 -0.9341008012733992 0.47170711039019475 -0.9036497949158578 -0.7736413048731591 0.8286144159747597 -0.5903866138862252 -0.7993059824944568 -0.8426819632965191 -0.27308136583029297 0.723774101337252 0.6968672231622653 0.06895520870985417 -0.9563432234740876 0.39548946917323213 0.7003748768061134 -0.2722607561025997 -0.003628562852222683 0.14916158120240608 -0.13348591668445975 -0.7419571694767578 0.695576006989923 0.8307424733597082 -0.3525282772989399 0.23593062991860814 -0.3982785348898332 -0.32816883206929814 -0.7850312660959109 -0.4514759309313544 -0.20898064695767404 -0.7485956727124983 -0.49036103045744595 -0.7142665622458617 0.3755345975301356 0.6328641440065822 -0.016867933206354047 0.9040662062490111 -0.7715836167431658 -0.08603629407148106 0.18731201042722834 0.5909005840359662 -0.5394810552286984 -0.44826888745517224 -0.6011979621460304 -0.7315046474985802 -0.8534220945582941 -0.4313572232963854 -0.9197111718267416 0.22591655767844454 -0.3289705534994498 0.5992514627694739 0.7281113627174443 0.5291888428411838 0.8658405773429594 0.6718876615155545 -0.2337413803378151 -0.6801008002950595 0.25258361857045164 -0.654067087312718 0.7694023796507358 -0.08586501514106404 -0.8674580923744477 -0.9661080942151521 -0.24671691770390425 0.410349614854027 0.7428494761549456 0.9558268672524877 0.30281426458236105 0.8192112637116156 0.011399607946228296 0.6127920294222816 -0.6682874124858601 0.6627745213781571 -0.30677016219295605 0.07123007204977638 0.6192092419429064 0.5358658622986145 0.4979083611811813 -0.1482548550207906 -0.5417540101140292 -0.6297869884881739 -0.3404177942569909 -0.8224910967632608 0.7061661315414235 0.5417690865290465 0.7441562379854063 0.608418578795974 0.8558192316489727 -0.4265426411780028 0.11377706299770873 0.2500175578251933 -0.03337906002287949 -0.07186498082132065 0.7065016575944694 -0.651508311581062 -0.8922652469760233 0.28826567670051195 -0.23528863273163003 0.9665271824820535 -0.5126638161569989 0.16729610854426047 -0.9676586054539144 0.8655908573949131 0.46292008435862086 -0.30987821297076557 0.20805843308267713 0.7187776220404798 -0.14026862652640126 0.7727460541553176 -0.8942612861549524 0.34964837235404844 0.3514306966724252 0.6901054042064984 0.8484491161015186 0.07570943952238707 0.3847098386755463 -0.5287503313707521 -0.6320299388399441 -0.8460035455929051 -0.7647115672485076 -0.362806143918033 0.6559435422977038 -0.7613711519958781 -0.8340325391839712 0.2927507183257062 0.31908782864590157 -0.89142173695693 0.38947391306336565 0.4028241260342884 -0.46943346774048045 -0.6149966366012678 0.11287116546343667 -0.5113081360896773 -0.009614588082379805 -0.30752251423820853 0.5213673765911588 0.8428019333139204 0.85434402750434 0.6227818428202914 0.234346439959646 0.41299336436878376 -0.8448097085400914 -0.18646090713766772 -0.20584060152959482 -0.41034785829467646 0.20969163540617852 0.5710771039813997 -0.19068552448301734 0.4423205155248118 0.1166998414284246 -0.6538267229770054 -0.17927097898834488 -0.6947369275780338 0.23617103443266996 0.345745447681884 0.0670714344250316 0.6734018401516516 -0.4233868754999569 0.950505983521468 -0.46078600564120487 0.9191847015100234 -0.8154567388168961 -0.04015788215971261 0.9026036027289587 0.5150436178434595 0.8471018910983651 0.0368587160395728 -0.4300263216172574 -0.007801503400194254 0.9077128154520472 0.8491272072695083 -0.11281594100053371 0.3911188014249678 0.5212021314068147 -0.9508885315133899 -0.3141274901391129 0.1777849416194469 -0.19743022394383747 -0.5982578435425169 0.41369768905504667 -0.41180905037867066 0.6629974351654967 -0.48117780171289637 0.40378765930055704 -0.19412781943826685 0.5849017284896214 0.008871709198322586 -0.7610068435826409 -0.18243277175910877 0.6190036551614087 0.5890472460483743 0.4249719426911508 -0.1162431551372558 0.7414613582673802 0.2596520542902282 0.952162262438549 -0.6835433366242699 -0.3140457463776214 0.9226269127476989 0.7153786685380297 0.29834668396244834 -0.9410609836279384 0.4787808254124216 -0.9920021340531182 0.2865434417141054 0.09772401776241946 -0.9057290342912493 0.4242826001309511 0.7118818599983792 -0.22099540889120894 -0.15076982836734554 0.9189842495534047 -0.8393333865896628 -0.8845815029711874 -0.28090085460637815 0.5905071549625047 -0.4299507549452224 0.6717462413294945 -0.12484067509235919 -0.002975728383478704 -0.4005679013365242 -0.5803047695108386 -0.30763804966723207 0.6802946125141823 0.7869132332649046 -0.3432520305515877 -0.07843175335812957 0.6777098972903822 -0.750535977282802 -0.4868280755267529 -0.9941126444284056 0.43933289202526216 0.03534244355346883 0.5317122084224818 -0.9825701922739084 0.9452941513836469 -0.8563637404108058 0.4433158951253824 -0.3336304185778485 0.3236789165154401 0.15462145407127015 0.8929472966928494 0.027982265607647938 0.705623895183193 -0.8089924304492419 0.8524984420385473 -0.731064141184212 -0.09970503353298488 0.9886930003404572 -0.5497959932381072 -0.3104394884403171 0.1271445012840976 0.4903165530375463 -0.8480641522865373 -0.22350180219722504 -0.9223587471741078 0.988984786656059 0.6502595507649664 -0.14321175260768482 0.9866891271848173 -0.7942247817658862 0.5000292775158203 0.021216729825363267 -0.1597556003099725 -0.8449675209126111 0.8293109203261116 0.6371500228623295 0.9171168252514653 0.4675333141191188 0.2431534875646657 0.37897204881860835 neuralnet.OutputLayer@3b2529880.26906239098044593 -0.06704122423558645 -0.4426001178171777 -0.6179150195982154 -0.16476662144872867 -0.0827862918633766 0.18524151761201046 0.7004041410307397 -0.016379769385908016 -0.21379705118706838 0.11575748915277562 0.9522109386586262 -0.7218390555023773 0.07275377646987591 0.012393437876010549 -0.8899881907696069 0.3826608678483827 0.23632709918564676 0.9467399229056098 0.15065554431135708 -0.1287818392277641 -0.7536221889511954 -0.8775662000699554 0.3674910487639803 -0.7617722190265607 0.4673241839014963 -0.7243518324048814 0.8061576950099933 -0.280705121149213 -0.6536671212263631 -0.8674770131705815 0.21546073099328011 -0.35708713223067035 -0.13556421345900405 -0.7917178311110982 0.884936346877943 0.053577581493156945 -0.5167583287967004 -0.373873906262018 -0.0912093227088766 0.8201581789442058 -0.8492370822621454 0.736014376437688 -0.45758901179750466 0.8307386625388202 0.4270892024859486 -0.1092431201652958 -0.8425200409001234 0.8105730768663838 -0.330374221223822 -0.6471055243678239 -0.15586814212275246 -0.1610757830276217 0.5535712361817896 -0.4289787994126538 0.42720588351780275 -0.4890786009800545 -0.3191937681571305 -0.11429345140905522 -0.2335153882112615 -0.4584106526821795 0.19334802337869683 -0.44288036250806473 0.8902378118180473 0.26215864978420067 -0.19068578015783377 -0.900185387232062 0.19418013982092086 -0.8431693159101669 0.5526303025496052 -0.43724156606079856 -0.46476962452308146 -0.7536229801258184 -0.7254226176522321 0.19929625104889637 -0.7932644186216368 -0.41978153871333057 0.34715632014946674 0.07395695756916798 0.12898061837162933 -0.6402587325974803 0.23596084738730905 0.48927813632155615 -0.009902751500101559 -0.2867693875966184 -0.0159975288214248 0.6715283836848059 0.876554132982848 0.9794765822529499 -0.48271819476319766 -0.7884488403849954 -0.7777479797048584 0.5572445461120505 0.5368023055579757 -0.8549499765374423 -0.2517443127491338 0.1376945507289672 -0.8815081007800638 -0.09854251192106667 0.7631193304707646 0.07464233961513156 0.8898315727642405 0.3249286335601884 -0.46726023024426755 -0.9466789631904624 -0.7130426696258471 0.5447052254592311 0.9292101327438419 -0.6960622411260968 -0.7249497930820404 0.16170464692032627 0.7351270317084169 0.755616057284427 0.5037753099304658 0.33718080750819424 0.5524857881458144 -0.45506575150674045 0.9935742569013828 -0.7219710560908156 0.467313312915965 0.658751757548713 0.5423227232934267 -0.031006637269346826 0.4105443373647528 -0.3972245788134283 -0.600815785311479 0.008784496955245191 0.4747271662909337 0.4166421810487252 0.7767408714791815 -0.9341008012733992 0.47170711039019475 -0.9036497949158578 -0.7736413048731591 0.8286144159747597 -0.5903866138862252 -0.7993059824944568 -0.8426819632965191 -0.27308136583029297 0.723774101337252 0.6968672231622653 0.06895520870985417 -0.9563432234740876 0.39548946917323213 0.7003748768061134 -0.2722607561025997 -0.003628562852222683 0.14916158120240608 -0.13348591668445975 -0.7419571694767578 0.695576006989923 0.8307424733597082 -0.3525282772989399 0.23593062991860814 -0.3982785348898332 -0.32816883206929814 -0.7850312660959109 -0.4514759309313544 -0.20898064695767404 -0.7485956727124983 -0.49036103045744595 -0.7142665622458617 0.3755345975301356 0.6328641440065822 -0.016867933206354047 0.9040662062490111 -0.7715836167431658 -0.08603629407148106 0.18731201042722834 0.5909005840359662 -0.5394810552286984 -0.44826888745517224 -0.6011979621460304 -0.7315046474985802 -0.8534220945582941 -0.4313572232963854 -0.9197111718267416 0.22591655767844454 -0.3289705534994498 0.5992514627694739 0.7281113627174443 0.5291888428411838 0.8658405773429594 0.6718876615155545 -0.2337413803378151 -0.6801008002950595 0.25258361857045164 -0.654067087312718 0.7694023796507358 -0.08586501514106404 -0.8674580923744477 -0.9661080942151521 -0.24671691770390425 0.410349614854027 0.7428494761549456 0.9558268672524877 0.30281426458236105 0.8192112637116156 0.011399607946228296 0.6127920294222816 -0.6682874124858601 0.6627745213781571 -0.30677016219295605 0.07123007204977638 0.6192092419429064 0.5358658622986145 0.4979083611811813 -0.1482548550207906 -0.5417540101140292 -0.6297869884881739 -0.3404177942569909 -0.8224910967632608 0.7061661315414235 0.5417690865290465 0.7441562379854063 0.608418578795974 0.8558192316489727 -0.4265426411780028 0.11377706299770873 0.2500175578251933 -0.03337906002287949 -0.07186498082132065 0.7065016575944694 -0.651508311581062 -0.8922652469760233 0.28826567670051195 -0.23528863273163003 0.9665271824820535 -0.5126638161569989 0.16729610854426047 -0.9676586054539144 0.8655908573949131 0.46292008435862086 -0.30987821297076557 0.20805843308267713 0.7187776220404798 -0.14026862652640126 0.7727460541553176 -0.8942612861549524 0.34964837235404844 0.3514306966724252 0.6901054042064984 0.8484491161015186 0.07570943952238707 0.3847098386755463 -0.5287503313707521 -0.6320299388399441 -0.8460035455929051 -0.7647115672485076 -0.362806143918033 0.6559435422977038 -0.7613711519958781 -0.8340325391839712 0.2927507183257062 0.31908782864590157 -0.89142173695693 0.38947391306336565 0.4028241260342884 -0.46943346774048045 -0.6149966366012678 0.11287116546343667 -0.5113081360896773 -0.009614588082379805 -0.30752251423820853 0.5213673765911588 0.8428019333139204 0.85434402750434 0.6227818428202914 0.234346439959646 0.41299336436878376 -0.8448097085400914 -0.18646090713766772 -0.20584060152959482 -0.41034785829467646 0.20969163540617852 0.5710771039813997 -0.19068552448301734 0.4423205155248118 0.1166998414284246 -0.6538267229770054 -0.17927097898834488 -0.6947369275780338 0.23617103443266996 0.345745447681884 0.0670714344250316 0.6734018401516516 -0.4233868754999569 0.950505983521468 -0.46078600564120487 0.9191847015100234 -0.8154567388168961 -0.04015788215971261 0.9026036027289587 0.5150436178434595 0.8471018910983651 0.0368587160395728 -0.4300263216172574 -0.007801503400194254 0.9077128154520472 0.8491272072695083 -0.11281594100053371 0.3911188014249678 0.5212021314068147 -0.9508885315133899 -0.3141274901391129 0.1777849416194469 -0.19743022394383747 -0.5982578435425169 0.41369768905504667 -0.41180905037867066 0.6629974351654967 -0.48117780171289637 0.40378765930055704 -0.19412781943826685 0.5849017284896214 0.008871709198322586 -0.7610068435826409 -0.18243277175910877 0.6190036551614087 0.5890472460483743 0.4249719426911508 -0.1162431551372558 0.7414613582673802 0.2596520542902282 0.952162262438549 -0.6835433366242699 -0.3140457463776214 0.9226269127476989 0.7153786685380297 0.29834668396244834 -0.9410609836279384 0.4787808254124216 -0.9920021340531182 0.2865434417141054 0.09772401776241946 -0.9057290342912493 0.4242826001309511 0.7118818599983792 -0.22099540889120894 -0.15076982836734554 0.9189842495534047 -0.8393333865896628 -0.8845815029711874 -0.28090085460637815 0.5905071549625047 -0.4299507549452224 0.6717462413294945 -0.12484067509235919 -0.002975728383478704 -0.4005679013365242 -0.5803047695108386 -0.30763804966723207 0.6802946125141823 0.7869132332649046 -0.3432520305515877 -0.07843175335812957 0.6777098972903822 -0.750535977282802 -0.4868280755267529 -0.9941126444284056 0.43933289202526216 0.03534244355346883 0.5317122084224818 -0.9825701922739084 0.9452941513836469 -0.8563637404108058 0.4433158951253824 -0.3336304185778485 0.3236789165154401 0.15462145407127015 0.8929472966928494 0.027982265607647938 0.705623895183193 -0.8089924304492419 0.8524984420385473 -0.731064141184212 -0.09970503353298488 0.9886930003404572 -0.5497959932381072 -0.3104394884403171 0.1271445012840976 0.4903165530375463 -0.8480641522865373 -0.22350180219722504 -0.9223587471741078 0.988984786656059 0.6502595507649664 -0.14321175260768482 0.9866891271848173 -0.7942247817658862 0.5000292775158203 0.021216729825363267 -0.1597556003099725 -0.8449675209126111 0.8293109203261116 0.6371500228623295 0.9171168252514653 0.4675333141191188 0.2431534875646657 0.37897204881860835 neuralnet.OutputLayer@5a8a951f0.26906239098044593 -0.06704122423558645 -0.4426001178171777 -0.6179150195982154 -0.16476662144872867 -0.0827862918633766 0.18524151761201046 0.7004041410307397 -0.016379769385908016 -0.21379705118706838 0.11575748915277562 0.9522109386586262 -0.7218390555023773 0.07275377646987591 0.012393437876010549 -0.8899881907696069 0.3826608678483827 0.23632709918564676 0.9467399229056098 0.15065554431135708 -0.1287818392277641 -0.7536221889511954 -0.8775662000699554 0.3674910487639803 -0.7617722190265607 0.4673241839014963 -0.7243518324048814 0.8061576950099933 -0.280705121149213 -0.6536671212263631 -0.8674770131705815 0.21546073099328011 -0.35708713223067035 -0.13556421345900405 -0.7917178311110982 0.884936346877943 0.053577581493156945 -0.5167583287967004 -0.373873906262018 -0.0912093227088766 0.8201581789442058 -0.8492370822621454 0.736014376437688 -0.45758901179750466 0.8307386625388202 0.4270892024859486 -0.1092431201652958 -0.8425200409001234 0.8105730768663838 -0.330374221223822 -0.6471055243678239 -0.15586814212275246 -0.1610757830276217 0.5535712361817896 -0.4289787994126538 0.42720588351780275 -0.4890786009800545 -0.3191937681571305 -0.11429345140905522 -0.2335153882112615 -0.4584106526821795 0.19334802337869683 -0.44288036250806473 0.8902378118180473 0.26215864978420067 -0.19068578015783377 -0.900185387232062 0.19418013982092086 -0.8431693159101669 0.5526303025496052 -0.43724156606079856 -0.46476962452308146 -0.7536229801258184 -0.7254226176522321 0.19929625104889637 -0.7932644186216368 -0.41978153871333057 0.34715632014946674 0.07395695756916798 0.12898061837162933 -0.6402587325974803 0.23596084738730905 0.48927813632155615 -0.009902751500101559 -0.2867693875966184 -0.0159975288214248 0.6715283836848059 0.876554132982848 0.9794765822529499 -0.48271819476319766 -0.7884488403849954 -0.7777479797048584 0.5572445461120505 0.5368023055579757 -0.8549499765374423 -0.2517443127491338 0.1376945507289672 -0.8815081007800638 -0.09854251192106667 0.7631193304707646 0.07464233961513156 0.8898315727642405 0.3249286335601884 -0.46726023024426755 -0.9466789631904624 -0.7130426696258471 0.5447052254592311 0.9292101327438419 -0.6960622411260968 -0.7249497930820404 0.16170464692032627 0.7351270317084169 0.755616057284427 0.5037753099304658 0.33718080750819424 0.5524857881458144 -0.45506575150674045 0.9935742569013828 -0.7219710560908156 0.467313312915965 0.658751757548713 0.5423227232934267 -0.031006637269346826 0.4105443373647528 -0.3972245788134283 -0.600815785311479 0.008784496955245191 0.4747271662909337 0.4166421810487252 0.7767408714791815 -0.9341008012733992 0.47170711039019475 -0.9036497949158578 -0.7736413048731591 0.8286144159747597 -0.5903866138862252 -0.7993059824944568 -0.8426819632965191 -0.27308136583029297 0.723774101337252 0.6968672231622653 0.06895520870985417 -0.9563432234740876 0.39548946917323213 0.7003748768061134 -0.2722607561025997 -0.003628562852222683 0.14916158120240608 -0.13348591668445975 -0.7419571694767578 0.695576006989923 0.8307424733597082 -0.3525282772989399 0.23593062991860814 -0.3982785348898332 -0.32816883206929814 -0.7850312660959109 -0.4514759309313544 -0.20898064695767404 -0.7485956727124983 -0.49036103045744595 -0.7142665622458617 0.3755345975301356 0.6328641440065822 -0.016867933206354047 0.9040662062490111 -0.7715836167431658 -0.08603629407148106 0.18731201042722834 0.5909005840359662 -0.5394810552286984 -0.44826888745517224 -0.6011979621460304 -0.7315046474985802 -0.8534220945582941 -0.4313572232963854 -0.9197111718267416 0.22591655767844454 -0.3289705534994498 0.5992514627694739 0.7281113627174443 0.5291888428411838 0.8658405773429594 0.6718876615155545 -0.2337413803378151 -0.6801008002950595 0.25258361857045164 -0.654067087312718 0.7694023796507358 -0.08586501514106404 -0.8674580923744477 -0.9661080942151521 -0.24671691770390425 0.410349614854027 0.7428494761549456 0.9558268672524877 0.30281426458236105 0.8192112637116156 0.011399607946228296 0.6127920294222816 -0.6682874124858601 0.6627745213781571 -0.30677016219295605 0.07123007204977638 0.6192092419429064 0.5358658622986145 0.4979083611811813 -0.1482548550207906 -0.5417540101140292 -0.6297869884881739 -0.3404177942569909 -0.8224910967632608 0.7061661315414235 0.5417690865290465 0.7441562379854063 0.608418578795974 0.8558192316489727 -0.4265426411780028 0.11377706299770873 0.2500175578251933 -0.03337906002287949 -0.07186498082132065 0.7065016575944694 -0.651508311581062 -0.8922652469760233 0.28826567670051195 -0.23528863273163003 0.9665271824820535 -0.5126638161569989 0.16729610854426047 -0.9676586054539144 0.8655908573949131 0.46292008435862086 -0.30987821297076557 0.20805843308267713 0.7187776220404798 -0.14026862652640126 0.7727460541553176 -0.8942612861549524 0.34964837235404844 0.3514306966724252 0.6901054042064984 0.8484491161015186 0.07570943952238707 0.3847098386755463 -0.5287503313707521 -0.6320299388399441 -0.8460035455929051 -0.7647115672485076 -0.362806143918033 0.6559435422977038 -0.7613711519958781 -0.8340325391839712 0.2927507183257062 0.31908782864590157 -0.89142173695693 0.38947391306336565 0.4028241260342884 -0.46943346774048045 -0.6149966366012678 0.11287116546343667 -0.5113081360896773 -0.009614588082379805 -0.30752251423820853 0.5213673765911588 0.8428019333139204 0.85434402750434 0.6227818428202914 0.234346439959646 0.41299336436878376 -0.8448097085400914 -0.18646090713766772 -0.20584060152959482 -0.41034785829467646 0.20969163540617852 0.5710771039813997 -0.19068552448301734 0.4423205155248118 0.1166998414284246 -0.6538267229770054 -0.17927097898834488 -0.6947369275780338 0.23617103443266996 0.345745447681884 0.0670714344250316 0.6734018401516516 -0.4233868754999569 0.950505983521468 -0.46078600564120487 0.9191847015100234 -0.8154567388168961 -0.04015788215971261 0.9026036027289587 0.5150436178434595 0.8471018910983651 0.0368587160395728 -0.4300263216172574 -0.007801503400194254 0.9077128154520472 0.8491272072695083 -0.11281594100053371 0.3911188014249678 0.5212021314068147 -0.9508885315133899 -0.3141274901391129 0.1777849416194469 -0.19743022394383747 -0.5982578435425169 0.41369768905504667 -0.41180905037867066 0.6629974351654967 -0.48117780171289637 0.40378765930055704 -0.19412781943826685 0.5849017284896214 0.008871709198322586 -0.7610068435826409 -0.18243277175910877 0.6190036551614087 0.5890472460483743 0.4249719426911508 -0.1162431551372558 0.7414613582673802 0.2596520542902282 0.952162262438549 -0.6835433366242699 -0.3140457463776214 0.9226269127476989 0.7153786685380297 0.29834668396244834 -0.9410609836279384 0.4787808254124216 -0.9920021340531182 0.2865434417141054 0.09772401776241946 -0.9057290342912493 0.4242826001309511 0.7118818599983792 -0.22099540889120894 -0.15076982836734554 0.9189842495534047 -0.8393333865896628 -0.8845815029711874 -0.28090085460637815 0.5905071549625047 -0.4299507549452224 0.6717462413294945 -0.12484067509235919 -0.002975728383478704 -0.4005679013365242 -0.5803047695108386 -0.30763804966723207 0.6802946125141823 0.7869132332649046 -0.3432520305515877 -0.07843175335812957 0.6777098972903822 -0.750535977282802 -0.4868280755267529 -0.9941126444284056 0.43933289202526216 0.03534244355346883 0.5317122084224818 -0.9825701922739084 0.9452941513836469 -0.8563637404108058 0.4433158951253824 -0.3336304185778485 0.3236789165154401 0.15462145407127015 0.8929472966928494 0.027982265607647938 0.705623895183193 -0.8089924304492419 0.8524984420385473 -0.731064141184212 -0.09970503353298488 0.9886930003404572 -0.5497959932381072 -0.3104394884403171 0.1271445012840976 0.4903165530375463 -0.8480641522865373 -0.22350180219722504 -0.9223587471741078 0.988984786656059 0.6502595507649664 -0.14321175260768482 0.9866891271848173 -0.7942247817658862 0.5000292775158203 0.021216729825363267 -0.1597556003099725 -0.8449675209126111 0.8293109203261116 0.6371500228623295 0.9171168252514653 0.4675333141191188 0.2431534875646657 0.37897204881860835 neuralnet.OutputLayer@4ab74a800.26906239098044593 -0.06704122423558645 -0.4426001178171777 -0.6179150195982154 -0.16476662144872867 -0.0827862918633766 0.18524151761201046 0.7004041410307397 -0.016379769385908016 -0.21379705118706838 0.11575748915277562 0.9522109386586262 -0.7218390555023773 0.07275377646987591 0.012393437876010549 -0.8899881907696069 0.3826608678483827 0.23632709918564676 0.9467399229056098 0.15065554431135708 -0.1287818392277641 -0.7536221889511954 -0.8775662000699554 0.3674910487639803 -0.7617722190265607 0.4673241839014963 -0.7243518324048814 0.8061576950099933 -0.280705121149213 -0.6536671212263631 -0.8674770131705815 0.21546073099328011 -0.35708713223067035 -0.13556421345900405 -0.7917178311110982 0.884936346877943 0.053577581493156945 -0.5167583287967004 -0.373873906262018 -0.0912093227088766 0.8201581789442058 -0.8492370822621454 0.736014376437688 -0.45758901179750466 0.8307386625388202 0.4270892024859486 -0.1092431201652958 -0.8425200409001234 0.8105730768663838 -0.330374221223822 -0.6471055243678239 -0.15586814212275246 -0.1610757830276217 0.5535712361817896 -0.4289787994126538 0.42720588351780275 -0.4890786009800545 -0.3191937681571305 -0.11429345140905522 -0.2335153882112615 -0.4584106526821795 0.19334802337869683 -0.44288036250806473 0.8902378118180473 0.26215864978420067 -0.19068578015783377 -0.900185387232062 0.19418013982092086 -0.8431693159101669 0.5526303025496052 -0.43724156606079856 -0.46476962452308146 -0.7536229801258184 -0.7254226176522321 0.19929625104889637 -0.7932644186216368 -0.41978153871333057 0.34715632014946674 0.07395695756916798 0.12898061837162933 -0.6402587325974803 0.23596084738730905 0.48927813632155615 -0.009902751500101559 -0.2867693875966184 -0.0159975288214248 0.6715283836848059 0.876554132982848 0.9794765822529499 -0.48271819476319766 -0.7884488403849954 -0.7777479797048584 0.5572445461120505 0.5368023055579757 -0.8549499765374423 -0.2517443127491338 0.1376945507289672 -0.8815081007800638 -0.09854251192106667 0.7631193304707646 0.07464233961513156 0.8898315727642405 0.3249286335601884 -0.46726023024426755 -0.9466789631904624 -0.7130426696258471 0.5447052254592311 0.9292101327438419 -0.6960622411260968 -0.7249497930820404 0.16170464692032627 0.7351270317084169 0.755616057284427 0.5037753099304658 0.33718080750819424 0.5524857881458144 -0.45506575150674045 0.9935742569013828 -0.7219710560908156 0.467313312915965 0.658751757548713 0.5423227232934267 -0.031006637269346826 0.4105443373647528 -0.3972245788134283 -0.600815785311479 0.008784496955245191 0.4747271662909337 0.4166421810487252 0.7767408714791815 -0.9341008012733992 0.47170711039019475 -0.9036497949158578 -0.7736413048731591 0.8286144159747597 -0.5903866138862252 -0.7993059824944568 -0.8426819632965191 -0.27308136583029297 0.723774101337252 0.6968672231622653 0.06895520870985417 -0.9563432234740876 0.39548946917323213 0.7003748768061134 -0.2722607561025997 -0.003628562852222683 0.14916158120240608 -0.13348591668445975 -0.7419571694767578 0.695576006989923 0.8307424733597082 -0.3525282772989399 0.23593062991860814 -0.3982785348898332 -0.32816883206929814 -0.7850312660959109 -0.4514759309313544 -0.20898064695767404 -0.7485956727124983 -0.49036103045744595 -0.7142665622458617 0.3755345975301356 0.6328641440065822 -0.016867933206354047 0.9040662062490111 -0.7715836167431658 -0.08603629407148106 0.18731201042722834 0.5909005840359662 -0.5394810552286984 -0.44826888745517224 -0.6011979621460304 -0.7315046474985802 -0.8534220945582941 -0.4313572232963854 -0.9197111718267416 0.22591655767844454 -0.3289705534994498 0.5992514627694739 0.7281113627174443 0.5291888428411838 0.8658405773429594 0.6718876615155545 -0.2337413803378151 -0.6801008002950595 0.25258361857045164 -0.654067087312718 0.7694023796507358 -0.08586501514106404 -0.8674580923744477 -0.9661080942151521 -0.24671691770390425 0.410349614854027 0.7428494761549456 0.9558268672524877 0.30281426458236105 0.8192112637116156 0.011399607946228296 0.6127920294222816 -0.6682874124858601 0.6627745213781571 -0.30677016219295605 0.07123007204977638 0.6192092419429064 0.5358658622986145 0.4979083611811813 -0.1482548550207906 -0.5417540101140292 -0.6297869884881739 -0.3404177942569909 -0.8224910967632608 0.7061661315414235 0.5417690865290465 0.7441562379854063 0.608418578795974 0.8558192316489727 -0.4265426411780028 0.11377706299770873 0.2500175578251933 -0.03337906002287949 -0.07186498082132065 0.7065016575944694 -0.651508311581062 -0.8922652469760233 0.28826567670051195 -0.23528863273163003 0.9665271824820535 -0.5126638161569989 0.16729610854426047 -0.9676586054539144 0.8655908573949131 0.46292008435862086 -0.30987821297076557 0.20805843308267713 0.7187776220404798 -0.14026862652640126 0.7727460541553176 -0.8942612861549524 0.34964837235404844 0.3514306966724252 0.6901054042064984 0.8484491161015186 0.07570943952238707 0.3847098386755463 -0.5287503313707521 -0.6320299388399441 -0.8460035455929051 -0.7647115672485076 -0.362806143918033 0.6559435422977038 -0.7613711519958781 -0.8340325391839712 0.2927507183257062 0.31908782864590157 -0.89142173695693 0.38947391306336565 0.4028241260342884 -0.46943346774048045 -0.6149966366012678 0.11287116546343667 -0.5113081360896773 -0.009614588082379805 -0.30752251423820853 0.5213673765911588 0.8428019333139204 0.85434402750434 0.6227818428202914 0.234346439959646 0.41299336436878376 -0.8448097085400914 -0.18646090713766772 -0.20584060152959482 -0.41034785829467646 0.20969163540617852 0.5710771039813997 -0.19068552448301734 0.4423205155248118 0.1166998414284246 -0.6538267229770054 -0.17927097898834488 -0.6947369275780338 0.23617103443266996 0.345745447681884 0.0670714344250316 0.6734018401516516 -0.4233868754999569 0.950505983521468 -0.46078600564120487 0.9191847015100234 -0.8154567388168961 -0.04015788215971261 0.9026036027289587 0.5150436178434595 0.8471018910983651 0.0368587160395728 -0.4300263216172574 -0.007801503400194254 0.9077128154520472 0.8491272072695083 -0.11281594100053371 0.3911188014249678 0.5212021314068147 -0.9508885315133899 -0.3141274901391129 0.1777849416194469 -0.19743022394383747 -0.5982578435425169 0.41369768905504667 -0.41180905037867066 0.6629974351654967 -0.48117780171289637 0.40378765930055704 -0.19412781943826685 0.5849017284896214 0.008871709198322586 -0.7610068435826409 -0.18243277175910877 0.6190036551614087 0.5890472460483743 0.4249719426911508 -0.1162431551372558 0.7414613582673802 0.2596520542902282 0.952162262438549 -0.6835433366242699 -0.3140457463776214 0.9226269127476989 0.7153786685380297 0.29834668396244834 -0.9410609836279384 0.4787808254124216 -0.9920021340531182 0.2865434417141054 0.09772401776241946 -0.9057290342912493 0.4242826001309511 0.7118818599983792 -0.22099540889120894 -0.15076982836734554 0.9189842495534047 -0.8393333865896628 -0.8845815029711874 -0.28090085460637815 0.5905071549625047 -0.4299507549452224 0.6717462413294945 -0.12484067509235919 -0.002975728383478704 -0.4005679013365242 -0.5803047695108386 -0.30763804966723207 0.6802946125141823 0.7869132332649046 -0.3432520305515877 -0.07843175335812957 0.6777098972903822 -0.750535977282802 -0.4868280755267529 -0.9941126444284056 0.43933289202526216 0.03534244355346883 0.5317122084224818 -0.9825701922739084 0.9452941513836469 -0.8563637404108058 0.4433158951253824 -0.3336304185778485 0.3236789165154401 0.15462145407127015 0.8929472966928494 0.027982265607647938 0.705623895183193 -0.8089924304492419 0.8524984420385473 -0.731064141184212 -0.09970503353298488 0.9886930003404572 -0.5497959932381072 -0.3104394884403171 0.1271445012840976 0.4903165530375463 -0.8480641522865373 -0.22350180219722504 -0.9223587471741078 0.988984786656059 0.6502595507649664 -0.14321175260768482 0.9866891271848173 -0.7942247817658862 0.5000292775158203 0.021216729825363267 -0.1597556003099725 -0.8449675209126111 0.8293109203261116 0.6371500228623295 0.9171168252514653 0.4675333141191188 0.2431534875646657 0.37897204881860835 neuralnet.OutputLayer@7289634e0.26906239098044593 -0.06704122423558645 -0.4426001178171777 -0.6179150195982154 -0.16476662144872867 -0.0827862918633766 0.18524151761201046 0.7004041410307397 -0.016379769385908016 -0.21379705118706838 0.11575748915277562 0.9522109386586262 -0.7218390555023773 0.07275377646987591 0.012393437876010549 -0.8899881907696069 0.3826608678483827 0.23632709918564676 0.9467399229056098 0.15065554431135708 -0.1287818392277641 -0.7536221889511954 -0.8775662000699554 0.3674910487639803 -0.7617722190265607 0.4673241839014963 -0.7243518324048814 0.8061576950099933 -0.280705121149213 -0.6536671212263631 -0.8674770131705815 0.21546073099328011 -0.35708713223067035 -0.13556421345900405 -0.7917178311110982 0.884936346877943 0.053577581493156945 -0.5167583287967004 -0.373873906262018 -0.0912093227088766 0.8201581789442058 -0.8492370822621454 0.736014376437688 -0.45758901179750466 0.8307386625388202 0.4270892024859486 -0.1092431201652958 -0.8425200409001234 0.8105730768663838 -0.330374221223822 -0.6471055243678239 -0.15586814212275246 -0.1610757830276217 0.5535712361817896 -0.4289787994126538 0.42720588351780275 -0.4890786009800545 -0.3191937681571305 -0.11429345140905522 -0.2335153882112615 -0.4584106526821795 0.19334802337869683 -0.44288036250806473 0.8902378118180473 0.26215864978420067 -0.19068578015783377 -0.900185387232062 0.19418013982092086 -0.8431693159101669 0.5526303025496052 -0.43724156606079856 -0.46476962452308146 -0.7536229801258184 -0.7254226176522321 0.19929625104889637 -0.7932644186216368 -0.41978153871333057 0.34715632014946674 0.07395695756916798 0.12898061837162933 -0.6402587325974803 0.23596084738730905 0.48927813632155615 -0.009902751500101559 -0.2867693875966184 -0.0159975288214248 0.6715283836848059 0.876554132982848 0.9794765822529499 -0.48271819476319766 -0.7884488403849954 -0.7777479797048584 0.5572445461120505 0.5368023055579757 -0.8549499765374423 -0.2517443127491338 0.1376945507289672 -0.8815081007800638 -0.09854251192106667 0.7631193304707646 0.07464233961513156 0.8898315727642405 0.3249286335601884 -0.46726023024426755 -0.9466789631904624 -0.7130426696258471 0.5447052254592311 0.9292101327438419 -0.6960622411260968 -0.7249497930820404 0.16170464692032627 0.7351270317084169 0.755616057284427 0.5037753099304658 0.33718080750819424 0.5524857881458144 -0.45506575150674045 0.9935742569013828 -0.7219710560908156 0.467313312915965 0.658751757548713 0.5423227232934267 -0.031006637269346826 0.4105443373647528 -0.3972245788134283 -0.600815785311479 0.008784496955245191 0.4747271662909337 0.4166421810487252 0.7767408714791815 -0.9341008012733992 0.47170711039019475 -0.9036497949158578 -0.7736413048731591 0.8286144159747597 -0.5903866138862252 -0.7993059824944568 -0.8426819632965191 -0.27308136583029297 0.723774101337252 0.6968672231622653 0.06895520870985417 -0.9563432234740876 0.39548946917323213 0.7003748768061134 -0.2722607561025997 -0.003628562852222683 0.14916158120240608 -0.13348591668445975 -0.7419571694767578 0.695576006989923 0.8307424733597082 -0.3525282772989399 0.23593062991860814 -0.3982785348898332 -0.32816883206929814 -0.7850312660959109 -0.4514759309313544 -0.20898064695767404 -0.7485956727124983 -0.49036103045744595 -0.7142665622458617 0.3755345975301356 0.6328641440065822 -0.016867933206354047 0.9040662062490111 -0.7715836167431658 -0.08603629407148106 0.18731201042722834 0.5909005840359662 -0.5394810552286984 -0.44826888745517224 -0.6011979621460304 -0.7315046474985802 -0.8534220945582941 -0.4313572232963854 -0.9197111718267416 0.22591655767844454 -0.3289705534994498 0.5992514627694739 0.7281113627174443 0.5291888428411838 0.8658405773429594 0.6718876615155545 -0.2337413803378151 -0.6801008002950595 0.25258361857045164 -0.654067087312718 0.7694023796507358 -0.08586501514106404 -0.8674580923744477 -0.9661080942151521 -0.24671691770390425 0.410349614854027 0.7428494761549456 0.9558268672524877 0.30281426458236105 0.8192112637116156 0.011399607946228296 0.6127920294222816 -0.6682874124858601 0.6627745213781571 -0.30677016219295605 0.07123007204977638 0.6192092419429064 0.5358658622986145 0.4979083611811813 -0.1482548550207906 -0.5417540101140292 -0.6297869884881739 -0.3404177942569909 -0.8224910967632608 0.7061661315414235 0.5417690865290465 0.7441562379854063 0.608418578795974 0.8558192316489727 -0.4265426411780028 0.11377706299770873 0.2500175578251933 -0.03337906002287949 -0.07186498082132065 0.7065016575944694 -0.651508311581062 -0.8922652469760233 0.28826567670051195 -0.23528863273163003 0.9665271824820535 -0.5126638161569989 0.16729610854426047 -0.9676586054539144 0.8655908573949131 0.46292008435862086 -0.30987821297076557 0.20805843308267713 0.7187776220404798 -0.14026862652640126 0.7727460541553176 -0.8942612861549524 0.34964837235404844 0.3514306966724252 0.6901054042064984 0.8484491161015186 0.07570943952238707 0.3847098386755463 -0.5287503313707521 -0.6320299388399441 -0.8460035455929051 -0.7647115672485076 -0.362806143918033 0.6559435422977038 -0.7613711519958781 -0.8340325391839712 0.2927507183257062 0.31908782864590157 -0.89142173695693 0.38947391306336565 0.4028241260342884 -0.46943346774048045 -0.6149966366012678 0.11287116546343667 -0.5113081360896773 -0.009614588082379805 -0.30752251423820853 0.5213673765911588 0.8428019333139204 0.85434402750434 0.6227818428202914 0.234346439959646 0.41299336436878376 -0.8448097085400914 -0.18646090713766772 -0.20584060152959482 -0.41034785829467646 0.20969163540617852 0.5710771039813997 -0.19068552448301734 0.4423205155248118 0.1166998414284246 -0.6538267229770054 -0.17927097898834488 -0.6947369275780338 0.23617103443266996 0.345745447681884 0.0670714344250316 0.6734018401516516 -0.4233868754999569 0.950505983521468 -0.46078600564120487 0.9191847015100234 -0.8154567388168961 -0.04015788215971261 0.9026036027289587 0.5150436178434595 0.8471018910983651 0.0368587160395728 -0.4300263216172574 -0.007801503400194254 0.9077128154520472 0.8491272072695083 -0.11281594100053371 0.3911188014249678 0.5212021314068147 -0.9508885315133899 -0.3141274901391129 0.1777849416194469 -0.19743022394383747 -0.5982578435425169 0.41369768905504667 -0.41180905037867066 0.6629974351654967 -0.48117780171289637 0.40378765930055704 -0.19412781943826685 0.5849017284896214 0.008871709198322586 -0.7610068435826409 -0.18243277175910877 0.6190036551614087 0.5890472460483743 0.4249719426911508 -0.1162431551372558 0.7414613582673802 0.2596520542902282 0.952162262438549 -0.6835433366242699 -0.3140457463776214 0.9226269127476989 0.7153786685380297 0.29834668396244834 -0.9410609836279384 0.4787808254124216 -0.9920021340531182 0.2865434417141054 0.09772401776241946 -0.9057290342912493 0.4242826001309511 0.7118818599983792 -0.22099540889120894 -0.15076982836734554 0.9189842495534047 -0.8393333865896628 -0.8845815029711874 -0.28090085460637815 0.5905071549625047 -0.4299507549452224 0.6717462413294945 -0.12484067509235919 -0.002975728383478704 -0.4005679013365242 -0.5803047695108386 -0.30763804966723207 0.6802946125141823 0.7869132332649046 -0.3432520305515877 -0.07843175335812957 0.6777098972903822 -0.750535977282802 -0.4868280755267529 -0.9941126444284056 0.43933289202526216 0.03534244355346883 0.5317122084224818 -0.9825701922739084 0.9452941513836469 -0.8563637404108058 0.4433158951253824 -0.3336304185778485 0.3236789165154401 0.15462145407127015 0.8929472966928494 0.027982265607647938 0.705623895183193 -0.8089924304492419 0.8524984420385473 -0.731064141184212 -0.09970503353298488 0.9886930003404572 -0.5497959932381072 -0.3104394884403171 0.1271445012840976 0.4903165530375463 -0.8480641522865373 -0.22350180219722504 -0.9223587471741078 0.988984786656059 0.6502595507649664 -0.14321175260768482 0.9866891271848173 -0.7942247817658862 0.5000292775158203 0.021216729825363267 -0.1597556003099725 -0.8449675209126111 0.8293109203261116 0.6371500228623295 0.9171168252514653 0.4675333141191188 0.2431534875646657 0.37897204881860835 neuralnet.OutputLayer@60727dfe0.26906239098044593 -0.06704122423558645 -0.4426001178171777 -0.6179150195982154 -0.16476662144872867 -0.0827862918633766 0.18524151761201046 0.7004041410307397 -0.016379769385908016 -0.21379705118706838 0.11575748915277562 0.9522109386586262 -0.7218390555023773 0.07275377646987591 0.012393437876010549 -0.8899881907696069 0.3826608678483827 0.23632709918564676 0.9467399229056098 0.15065554431135708 -0.1287818392277641 -0.7536221889511954 -0.8775662000699554 0.3674910487639803 -0.7617722190265607 0.4673241839014963 -0.7243518324048814 0.8061576950099933 -0.280705121149213 -0.6536671212263631 -0.8674770131705815 0.21546073099328011 -0.35708713223067035 -0.13556421345900405 -0.7917178311110982 0.884936346877943 0.053577581493156945 -0.5167583287967004 -0.373873906262018 -0.0912093227088766 0.8201581789442058 -0.8492370822621454 0.736014376437688 -0.45758901179750466 0.8307386625388202 0.4270892024859486 -0.1092431201652958 -0.8425200409001234 0.8105730768663838 -0.330374221223822 -0.6471055243678239 -0.15586814212275246 -0.1610757830276217 0.5535712361817896 -0.4289787994126538 0.42720588351780275 -0.4890786009800545 -0.3191937681571305 -0.11429345140905522 -0.2335153882112615 -0.4584106526821795 0.19334802337869683 -0.44288036250806473 0.8902378118180473 0.26215864978420067 -0.19068578015783377 -0.900185387232062 0.19418013982092086 -0.8431693159101669 0.5526303025496052 -0.43724156606079856 -0.46476962452308146 -0.7536229801258184 -0.7254226176522321 0.19929625104889637 -0.7932644186216368 -0.41978153871333057 0.34715632014946674 0.07395695756916798 0.12898061837162933 -0.6402587325974803 0.23596084738730905 0.48927813632155615 -0.009902751500101559 -0.2867693875966184 -0.0159975288214248 0.6715283836848059 0.876554132982848 0.9794765822529499 -0.48271819476319766 -0.7884488403849954 -0.7777479797048584 0.5572445461120505 0.5368023055579757 -0.8549499765374423 -0.2517443127491338 0.1376945507289672 -0.8815081007800638 -0.09854251192106667 0.7631193304707646 0.07464233961513156 0.8898315727642405 0.3249286335601884 -0.46726023024426755 -0.9466789631904624 -0.7130426696258471 0.5447052254592311 0.9292101327438419 -0.6960622411260968 -0.7249497930820404 0.16170464692032627 0.7351270317084169 0.755616057284427 0.5037753099304658 0.33718080750819424 0.5524857881458144 -0.45506575150674045 0.9935742569013828 -0.7219710560908156 0.467313312915965 0.658751757548713 0.5423227232934267 -0.031006637269346826 0.4105443373647528 -0.3972245788134283 -0.600815785311479 0.008784496955245191 0.4747271662909337 0.4166421810487252 0.7767408714791815 -0.9341008012733992 0.47170711039019475 -0.9036497949158578 -0.7736413048731591 0.8286144159747597 -0.5903866138862252 -0.7993059824944568 -0.8426819632965191 -0.27308136583029297 0.723774101337252 0.6968672231622653 0.06895520870985417 -0.9563432234740876 0.39548946917323213 0.7003748768061134 -0.2722607561025997 -0.003628562852222683 0.14916158120240608 -0.13348591668445975 -0.7419571694767578 0.695576006989923 0.8307424733597082 -0.3525282772989399 0.23593062991860814 -0.3982785348898332 -0.32816883206929814 -0.7850312660959109 -0.4514759309313544 -0.20898064695767404 -0.7485956727124983 -0.49036103045744595 -0.7142665622458617 0.3755345975301356 0.6328641440065822 -0.016867933206354047 0.9040662062490111 -0.7715836167431658 -0.08603629407148106 0.18731201042722834 0.5909005840359662 -0.5394810552286984 -0.44826888745517224 -0.6011979621460304 -0.7315046474985802 -0.8534220945582941 -0.4313572232963854 -0.9197111718267416 0.22591655767844454 -0.3289705534994498 0.5992514627694739 0.7281113627174443 0.5291888428411838 0.8658405773429594 0.6718876615155545 -0.2337413803378151 -0.6801008002950595 0.25258361857045164 -0.654067087312718 0.7694023796507358 -0.08586501514106404 -0.8674580923744477 -0.9661080942151521 -0.24671691770390425 0.410349614854027 0.7428494761549456 0.9558268672524877 0.30281426458236105 0.8192112637116156 0.011399607946228296 0.6127920294222816 -0.6682874124858601 0.6627745213781571 -0.30677016219295605 0.07123007204977638 0.6192092419429064 0.5358658622986145 0.4979083611811813 -0.1482548550207906 -0.5417540101140292 -0.6297869884881739 -0.3404177942569909 -0.8224910967632608 0.7061661315414235 0.5417690865290465 0.7441562379854063 0.608418578795974 0.8558192316489727 -0.4265426411780028 0.11377706299770873 0.2500175578251933 -0.03337906002287949 -0.07186498082132065 0.7065016575944694 -0.651508311581062 -0.8922652469760233 0.28826567670051195 -0.23528863273163003 0.9665271824820535 -0.5126638161569989 0.16729610854426047 -0.9676586054539144 0.8655908573949131 0.46292008435862086 -0.30987821297076557 0.20805843308267713 0.7187776220404798 -0.14026862652640126 0.7727460541553176 -0.8942612861549524 0.34964837235404844 0.3514306966724252 0.6901054042064984 0.8484491161015186 0.07570943952238707 0.3847098386755463 -0.5287503313707521 -0.6320299388399441 -0.8460035455929051 -0.7647115672485076 -0.362806143918033 0.6559435422977038 -0.7613711519958781 -0.8340325391839712 0.2927507183257062 0.31908782864590157 -0.89142173695693 0.38947391306336565 0.4028241260342884 -0.46943346774048045 -0.6149966366012678 0.11287116546343667 -0.5113081360896773 -0.009614588082379805 -0.30752251423820853 0.5213673765911588 0.8428019333139204 0.85434402750434 0.6227818428202914 0.234346439959646 0.41299336436878376 -0.8448097085400914 -0.18646090713766772 -0.20584060152959482 -0.41034785829467646 0.20969163540617852 0.5710771039813997 -0.19068552448301734 0.4423205155248118 0.1166998414284246 -0.6538267229770054 -0.17927097898834488 -0.6947369275780338 0.23617103443266996 0.345745447681884 0.0670714344250316 0.6734018401516516 -0.4233868754999569 0.950505983521468 -0.46078600564120487 0.9191847015100234 -0.8154567388168961 -0.04015788215971261 0.9026036027289587 0.5150436178434595 0.8471018910983651 0.0368587160395728 -0.4300263216172574 -0.007801503400194254 0.9077128154520472 0.8491272072695083 -0.11281594100053371 0.3911188014249678 0.5212021314068147 -0.9508885315133899 -0.3141274901391129 0.1777849416194469 -0.19743022394383747 -0.5982578435425169 0.41369768905504667 -0.41180905037867066 0.6629974351654967 -0.48117780171289637 0.40378765930055704 -0.19412781943826685 0.5849017284896214 0.008871709198322586 -0.7610068435826409 -0.18243277175910877 0.6190036551614087 0.5890472460483743 0.4249719426911508 -0.1162431551372558 0.7414613582673802 0.2596520542902282 0.952162262438549 -0.6835433366242699 -0.3140457463776214 0.9226269127476989 0.7153786685380297 0.29834668396244834 -0.9410609836279384 0.4787808254124216 -0.9920021340531182 0.2865434417141054 0.09772401776241946 -0.9057290342912493 0.4242826001309511 0.7118818599983792 -0.22099540889120894 -0.15076982836734554 0.9189842495534047 -0.8393333865896628 -0.8845815029711874 -0.28090085460637815 0.5905071549625047 -0.4299507549452224 0.6717462413294945 -0.12484067509235919 -0.002975728383478704 -0.4005679013365242 -0.5803047695108386 -0.30763804966723207 0.6802946125141823 0.7869132332649046 -0.3432520305515877 -0.07843175335812957 0.6777098972903822 -0.750535977282802 -0.4868280755267529 -0.9941126444284056 0.43933289202526216 0.03534244355346883 0.5317122084224818 -0.9825701922739084 0.9452941513836469 -0.8563637404108058 0.4433158951253824 -0.3336304185778485 0.3236789165154401 0.15462145407127015 0.8929472966928494 0.027982265607647938 0.705623895183193 -0.8089924304492419 0.8524984420385473 -0.731064141184212 -0.09970503353298488 0.9886930003404572 -0.5497959932381072 -0.3104394884403171 0.1271445012840976 0.4903165530375463 -0.8480641522865373 -0.22350180219722504 -0.9223587471741078 0.988984786656059 0.6502595507649664 -0.14321175260768482 0.9866891271848173 -0.7942247817658862 0.5000292775158203 0.021216729825363267 -0.1597556003099725 -0.8449675209126111 0.8293109203261116 0.6371500228623295 0.9171168252514653 0.4675333141191188 0.2431534875646657 0.37897204881860835 neuralnet.OutputLayer@6ede3e820.8347243596758166 -0.8570875137469447 0.14020050913702142 -0.24725936590510633 0.08341391104857454 -0.28264167469508095 0.49424055203303163 -0.08415482205551783 0.48471869266995204 0.24791876366009635 0.3063048061324214 0.31685557722226154 0.6667955759693251 0.7609157302366014 -0.4290420130463496 0.2629460742673506 -0.20903428434117055 0.13743018643417537 0.46038573192172216 -0.33789192363968423 0.860178613188437 0.273731256814995 0.9869664586619155 0.10095584135399571 0.08997960246401016 0.00205038467949048 0.011677086922658453 -0.9562457959433966 -0.06235038967691764 0.8698631318794173 0.15472048541433736 -0.6150417110148056 0.8122847214787281 0.7156136792387691 -0.9733568721450888 -0.15803115664804035 0.4944753493974947 -0.731766119554037 0.8835190726352617 0.15669847567911732 -0.5888370865460063 0.0698795801732014 -0.4070790412380637 -0.5471409810549926 -0.7817080557047812 0.19341529603363372 0.12467420425261477 0.14893903838564648 -0.48298179670055075 -0.949920323024742 0.5199567599500753 -0.30766247548145476 -0.10867138184783709 0.09459427650541508 0.9842050787984471 -0.19487232723416859 0.025702324726951886 0.20524185293318442 -0.14456863607252746 0.5228849633210505 -0.7925027828199737 0.7000234946019465 -0.6462645518960463 -0.21924895892973773 0.6035588255661809 -0.6638387075604273 -0.7243281431364562 0.7306110212493486 0.9344687918190715 -0.29742000967763416 0.8862482990171346 -0.9554911302075836 0.4601073103454931 -0.6384162071757326 0.8310981557482258 -0.2838412030231754 -0.009102959449963866 0.11912644722997379 -0.23692185611269623 -0.03205050136962728 -0.7987966896841734 -0.6703883599243027 0.7943544862220336 -0.18212157195429501 -0.8572625841727428 0.08218906533358561 -0.2380014410338671 0.28146614595879726 -0.8688260395516871 0.11653802557100612 -0.530872400852749 -0.4406703153826744 0.2501502503299361 0.00703690565673587 -0.45651169356590104 0.48256084442892466 -0.47815712711680824 0.39926098483289063 0.7717549103800797 -0.09444458142326007 0.31776469123471296 0.23056797177046817 -0.1767634305785818 0.20904070130293018 0.10952235178438818 1.2351517782716037E-4 -0.8044225780470287 -0.9762990099082931 0.01611970605987234 -0.6595230822837997 0.19367407636337808 0.23531929872545443 -0.5820351972413818 -0.315528792013679 0.4095938816542868 0.1734372583916607 -0.14911239528494125 -0.4959995306346049 -0.204206288770161 0.11425356665316766 0.43592935594746973 0.9414150954199678 -0.7716759723115655 0.20127780426772413 0.7590239616755076 0.1651061241958821 0.8247501392837975 -0.9300456213155672 0.702433749549055 0.19723134801197972 0.0188904672543726 -0.3197361007660272 -0.39272240905210365 -0.4926891051211201 -0.021294308637885395 0.5487667382007697 0.970925618488857 0.29852612446917426 0.7841804395694255 0.022623156717903825 -0.14146705947978877 0.07638613418159601 -0.5698849439934628 0.8561237821312148 -0.6644784838615785 0.9587381869482842 0.17754987864697258 -0.10210887973223814 -0.44475371170384015 -0.0769741690899316 0.7121185643428741 0.5462359057219013 -0.9918745094847852 -0.8132522567891046 0.5648840558070843 0.012617414832020724 -0.25322375560944266 0.560125279940283 -0.9300593518739937 0.6895847414417688 -0.16534576062578432 -0.4896947992490194 -0.04606933701801885 -0.24983865747524125 0.5586984292162198 -0.06736221164709078 -0.671834219010454 -0.18005095011033245 0.13175847458606826 0.06968862386635166 -0.8413273705162937 -0.6697859634087464 -0.7327673890676863 -0.5299527485445726 -0.8305082921179735 0.2581980205612573 0.5123455294082252 -0.6115558355512756 0.9581093662389495 0.02756783601316737 7.003145253408061E-4 -0.8676852975016219 -0.09096454834216405 -0.37565569132647614 -0.9511286982061441 0.8282591141593122 -0.755832573562497 0.5882856665285427 0.04246963347584054 0.16972739757692468 -0.6195048456913425 -0.31764175986648846 0.39778442566655325 0.4039625145391099 -0.7674381754423629 -0.701193718926897 0.15613289062050972 -0.9046009832938973 0.42644612084715783 -0.7859989470095111 0.37666898577434227 -0.22765683554794114 0.7332823693057757 0.1996544787179988 0.8937023693867892 0.11624042486791453 0.7047772994641179 0.38844408533828356 -0.05245317746679745 -0.1850790394017966 0.2439796478956553 0.6903071724516193 -0.5186021137761838 0.9840399375789326 0.0867500093957555 -0.9163022272288299 -0.3845361859319194 0.31000208465140067 -0.7601223929277847 0.2454002273266631 0.605139332622828 0.9128633183633427 0.8293877581510938 -0.17611759820671802 0.900899304678816 0.733294336784643 -0.5120591635895375 0.1548428861211414 0.23914613950710994 0.8623029559387673 0.9558825054066169 0.42313075085793483 0.7877011515719442 -0.7609461464146533 -0.48912334645609223 0.11153979681276027 -0.42391494463416535 0.10817719297102357 -0.12757089549385414 0.07241977137077904 0.8851639035577867 -0.6448198371403837 -0.5318470180500605 -0.8996965885956554 -0.8740036438957214 -0.3869000581342945 -0.8116234453398816 0.4698870439418503 0.4735304279055531 0.875871558264721 -0.2934345031491413 0.3901723008996112 -0.8462323973384306 -0.7310882120287403 -0.011189228385393157 0.6781952529108304 0.6266127224559161 -0.14560193813402633 -0.9380119676982921 -0.5002660201665712 -0.17878631036580528 -0.38871606954942994 0.43466073910507663 -0.3057345426169197 0.22339045910309552 -0.5137551131039962 -0.3332072436616118 -0.20881693207607033 0.6898600535729162 0.10387635059869071 -0.46485405264761315 0.2372083639686322 0.8723609639635739 0.029324139009337835 -0.4659725792372913 0.853729047792245 0.6243162138793185 -0.4447478029044859 -0.7491401940571418 -4.601845676729388E-4 -0.42192247239056435 0.7331483201149102 0.5497892814946289 0.060600569138251736 0.6136644147350941 0.666320807426946 0.7430104170964986 0.5647756533019309 0.3787274786198932 -0.9571960021243113 0.7093360245891427 0.6262755439942566 0.5995786260889417 -0.8905986260656855 0.5853163837421587 0.37125743138704137 -0.8232346066572511 -0.8937401525505596 0.48032633633870525 0.151699903237704 0.06492707667647102 -0.08792923162590582 -0.9002180648576341 -0.5024301566215377 -0.4284689517720097 -0.1550119261548074 0.06818398585628693 0.025139965504664685 -0.10459853338110137 -0.7402217863423605 0.6660526555496811 -0.3408327643378166 -0.31655469037471284 0.5480739056359776 0.09393066705427844 -0.8550533670794626 -0.12074577336068038 -0.8592197454011148 -0.11372118530059494 0.638835257687786 -0.2662082315441019 0.11893307259546282 0.773934984948161 0.2478923749207097 -0.8434849769866276 0.5352702217014724 -0.13660926711509114 0.4253710251028008 -0.48774440327587354 0.7414522838407814 0.11387570805274438 0.6628745494997311 -0.030903828198044714 0.09764576216100351 0.5704166982825543 0.6053732364660078 0.8263056324644981 -0.1611866350826271 -0.10418012645331354 0.5646615769446736 0.19698619629004432 -0.5033206914014381 -0.6480495813721867 -0.9577085205950776 -0.41783114574591906 -0.22654316602851565 -0.6523327682986516 -0.22400847354645836 0.3932692176045933 -0.23707427592132024 0.006102101513692171 -0.41510861772237373 -0.7034382378664765 -0.21941412013254813 -0.6616858395172359 -0.14128509305679293 -0.6480023758059148 0.14602264619818084 0.6462431697429187 0.47405099656790173 0.5815059703038619 0.1403075597675847 -0.26025760857329905 0.6458068218654647 -0.3420160566783438 -0.8933914718285337 0.636581550589591 -0.7376897577945496 -0.518529648625983 -0.4250476152671142 0.23883827967065663 -0.5040435894613947 -0.823632727872992 0.15840418502786513 0.33408108940959524 -0.5751452526244529 0.4727454928254059 0.30831001971209193 -0.6328989181728523 -0.5989263595358028 -0.9576514729665486 0.33557365251042137 -0.8485350563167556 0.4236213202468865 0.4593705967349615 -0.8575370751988487 -0.15450047163112846 0.6444374354215228 0.4077777343618191 -0.9111990803551326 0.5820195136328425 -0.21202796191792328 0.21809712626667999 -0.7044041664798446 -0.48541214230067975 -0.006659096190066882 0.9913159993928486 0.410588829994348 -0.7033578721014256 -0.20410993607955452 neuralnet.OutputLayer@1ecd8a93-0.7222945592790586 -0.07626541767151751 -0.041232356604997245 0.11719214216616092 -0.13014620785227304 0.17801392118770287 -0.2099885327194987 0.7230432186865057 -0.9318632852573412 -0.8177202625590192 -0.6112792150127693 -0.4790616070371525 0.5443697979306729 -0.4153511583061379 -0.07697047380344091 0.9222838231722953 0.8147019374880315 0.8460879350678242 0.12413582397692757 -0.44025607567165836 -0.05111452197613908 -0.8500365703977691 -0.7792217809111646 -0.9368709935450578 0.5575976454371352 -0.844734291709664 -0.442124512652148 -0.7894019657213598 -0.8605514992233413 0.9678744631006615 0.718020870901997 0.9493566665550818 -0.6741117087439477 0.06737928706981433 -0.5049585296043335 -0.2541906582464224 -0.23736091843690776 -0.38816608871242286 0.2675079437622052 -0.18611139243252628 0.7646259103985968 0.7417852947597211 -0.9918067550164631 0.6353548567597341 0.7286458777803959 0.6447395869989117 0.5861982799295788 -0.16006833614414495 -0.1179580009857526 0.13303587256739502 0.08682591379141613 0.5782853050346479 -0.11883123520107641 0.9774069454734668 -0.572794189444411 0.4785181722904629 -0.8079499869523775 0.8551932984642379 -0.40805924499868895 0.7178431556075533 0.025812731241544484 0.38050329811893224 0.7833255587147782 -0.3843624301371418 -0.1514147763870607 -0.36779126235696524 0.7775189378931855 -0.9782914413970061 0.4218005463428983 0.9675410139585541 0.8258432915401706 -0.9467157672755087 0.7833483034868275 -0.22840909430974088 -0.26456465458677314 -0.04570436264197697 0.17874612658752764 -0.5520289354874758 0.923935490325408 0.8986293310761104 -0.6326922612895745 -0.8105900903720739 -0.4411743956750187 -0.06772053102913722 0.930894813984761 0.39961451275302495 -0.4246824369578043 0.30415709313457817 -0.2811445073535128 0.5742523361160075 0.8011466381688394 0.6375421837340007 -0.31434961124613126 0.7286137515946268 0.40789971726012164 0.5689891509764768 0.47779915000985074 0.30606418596838303 0.9341471324658351 -0.9365160222453984 -0.13862696482074255 -0.12721829102665216 -0.41493829744805444 -0.10224701302016959 -0.3455870109456126 0.7428876901588979 0.9776910533493846 0.19115329727263786 0.24134660296985333 0.16067154849253673 -0.036240995134682485 0.11823349137941652 -0.9534405098888297 0.45431930530691444 0.28785400033187214 0.43090730574095015 0.8764772086077522 0.06388555567958143 -0.7849754176154646 0.3826795042571123 -0.30456822256194926 -0.08491386791120425 0.6469383435840445 -0.576677348682806 -0.13130048482237067 0.8740865275406519 -0.1794676500694493 -0.6799800806958087 0.9217566323775132 -0.9245420605748021 0.3000304201505498 -0.5301664953770454 -0.5397687555219328 -0.4011291361615694 0.40673903727399374 0.2673770828650709 0.649336696203225 0.09728299842866817 0.42744856171243406 0.7590819934963833 -0.059269775601329955 0.6021074422746996 0.2697240275966115 0.08914720587512759 0.9815996285916395 -0.6147442767181551 -0.2690914437390589 0.6692242266005128 -0.434927533426566 -0.2854581888423129 -0.8208027704659229 0.6905513581757494 -0.6506391297503147 0.8525944695928843 0.3434583452798914 0.7594422664872267 0.9488839571564845 -0.7905892246639412 0.629247002883469 0.6499428027525533 0.9942962742407706 -0.8613713201642038 0.1492116017572892 -0.38432919897840623 0.27712259507731585 -0.8244926608706904 -0.37374803966937575 -0.5697108578316175 0.09265880599095033 0.24286381896773368 0.8186353753751197 -0.5139450821091903 0.12292118960963005 0.4265816341895543 0.8709815988065649 -0.6148688154336119 -0.5424358820358058 0.755914100426045 0.4286242230707392 0.6309130106108825 -0.2704337681783616 -0.8388415149179961 -0.19773754418186484 -0.7520475089635223 -0.5142927149814268 -0.4477374131882247 -0.5561804865828457 -0.48001316166617414 0.2579010573266227 0.1307980962833969 -0.5763117279282519 -0.013723048117990744 -0.1643366394370448 0.46312824484910753 -0.9133908612708153 -0.5634813062852032 0.7446064826566674 0.08752083550210965 -0.8672963476431376 0.8129442957244525 0.2399625111235424 -0.9302089417409618 0.7179696000610736 0.693202892174722 0.35372587715034665 -0.23743682475064154 -0.0870069618599516 -0.22310366036643403 -0.13807963908286536 -0.6514549067317066 -0.21021120402444682 -0.4706823827363077 0.9344655374243962 0.5788267211183611 -0.7635424531839995 -0.2955607342909372 -0.2892576583583488 -0.541978897769961 0.21153454648929437 -0.15865034870931782 -0.07728456948908657 -0.2816722808007911 0.8501644786089665 0.3293309584991382 0.8247108573116992 -0.5120605231567094 -0.39988943869282256 -0.798816394680833 0.24189971557381107 -0.9463500995749282 0.29650549461823095 -0.7638262073640438 0.22230239311149647 -0.5145745102366801 -0.14853248400664154 0.13643421436787928 -0.9293202344206529 -0.19115178845017078 -0.46859906024329634 0.7464775408127814 0.00487116703100865 0.5408385286414763 0.7860145301776102 0.3867584349625123 -0.8493026284053964 0.6404473446887298 0.3657399842783057 -0.8996111005972878 -0.5279252297444229 -0.8503624542154062 -0.7228982111398519 0.807991819028778 -0.29304076532372747 -0.8768768345873625 -0.3406532714638624 0.22946728751985745 0.6825065397781891 -0.52987465948699 -0.7271776504282117 -0.22728850815720136 -0.9533717481137158 -0.6126486893031905 0.24461507656473047 -0.9229804398669708 0.5570381114156087 0.4689845301198837 0.46610741394123933 0.31133582374511315 0.48890074039481946 -0.11224801487780567 0.4485561458329672 -0.19761130047059938 -0.6188348710548661 0.28733820869757976 -0.9434339083593255 0.852128704591224 -0.5406864012404824 -0.018944259400918262 -0.18264638764586283 -0.6957754108171637 -0.5848123378003803 0.4696388625400648 0.07974700895133391 -0.7485158382488993 0.3562385119711474 0.16155984437859483 0.2266239919114783 -0.684852174753955 0.2673464359143768 -0.023990504594114337 0.15547586267892965 0.8576248025742802 -0.8345148911011018 -0.5603593555131969 -0.016569391724594595 0.856350317567767 0.7250744057480717 0.14573062489609545 -0.7733503286865524 0.6213556427398289 0.7608486312309642 0.45533240242444684 -0.20729878750099962 0.09555902532430205 -0.1266868987994697 0.9953879585303097 0.9233446566405218 0.7567722150266838 0.38410197492875753 0.49417816978394047 0.5710510708729919 -0.3745776928931632 0.5563815217923156 -0.5802346715275198 -0.40567828822591756 0.1628301226009985 0.947345771206476 0.6165042132048487 0.04511473021443846 -0.1282390908659703 0.5611745027317621 0.016887839120378945 0.7989896366647206 -0.25655915769885274 -0.45620541320219976 -0.37603584534315515 0.8693413429127244 -0.24774134405211412 0.31450735937481844 0.3806906254874076 0.1476130012427086 -0.09073380734555725 -0.11000905793095561 0.5686445073701344 -0.36019010117604955 -0.16394952307534216 0.39621114683771275 -0.20439101653943703 -0.18397180265480484 -0.0913578411630348 0.35310351812713503 -0.039780959120118364 -0.3340275713736459 -0.8967015173320397 -0.22787643951707903 -0.6730443973101808 -0.156642483581088 -0.7819299266385296 0.7413790427481184 0.7455839412994786 -0.308665456927229 0.9712294292730165 -0.6525914418865135 -0.6707285541517932 -0.5528121652475294 0.02447133469210705 0.153982784019426 -0.47689831740688826 -0.07306559593245421 0.539239641803089 -0.7693231287349501 -0.6080933883466663 0.06040710562953244 0.8519095353318146 -0.10162505417350998 -0.6899735376082926 0.7780831184337962 0.010556638927227247 -0.016830621945364 -0.29309166518092333 0.6073682887011675 -0.3752585463610152 0.7890360327266359 0.50687979972966 -0.4948198417900789 0.9715791760442453 0.10480353885146498 -0.22113686784374786 -0.3057230960230445 0.9171667337739065 -0.9592331082693006 0.4964894750194736 -0.23647989001587577 0.6524001729367995 0.08017244568799886 -0.7003392114974223 0.8896750811298308 0.8159032091947771 -0.5370457670090067 -0.4218988435587496 -0.485142168269845 0.45315040149175667 -0.527374640560312 -0.11678220538907813 -0.8843785286250525 0.7182232949185197 0.7481058527514132 -0.33158331263885876 0.19510095888100787 0.9006827484226818 neuralnet.OutputLayer@27e709170.35864284802954494 -0.49815591046874275 0.3286240186455526 -0.5983912411858745 0.2578501916561612 0.7987503621729516 -0.6151046258535589 0.8289037524578788 0.44176011982609964 -0.16382800495107974 0.5501998142759562 -0.07069321374636428 0.2926095387908638 0.6522145686709564 -0.555065544883967 0.03385111777237648 -0.5251325676730498 0.9561606636030031 -0.2216250978883063 0.859244114950929 0.8393398692391126 0.48195121493917914 0.9759628221786247 -0.8034261938404685 0.8204704066597229 -0.009451875201593407 0.5167314177009822 0.37770219362073365 0.7876310593386637 0.9020069237150252 0.680596043337769 0.6315696007934026 -0.024734633874145318 0.9254977931744214 -0.3291652804543942 -0.32391767890265377 -0.14088059296551336 -0.19581038377688398 -0.330474614921933 -0.029165507939455493 0.675268371842969 -0.5073250982998821 -0.258531990734989 -0.6541186429061476 0.1258786962250329 0.18766056914520246 -0.8894479649561992 -0.9292308752378303 -0.21682041694681253 0.6975484650408518 -0.026138592487609302 -0.5809575121021443 0.8153644688561756 -0.4177723952827257 0.022138041019929333 0.9838791428689153 -0.888605615674692 -0.6507837602831675 0.32653266592869 0.21209829938859315 0.7940932348603148 -0.8560773378086668 -0.5962954296616848 0.13268940524597828 0.2725501455756799 -0.18269195422755902 0.5540204515880907 0.08271750142739087 -0.8924106849489519 0.8500788651901067 -0.0025533104206272306 0.3828637365219294 -0.06827671271214875 -0.675469141243976 -0.2777948841173651 -0.37378650254771495 0.7832340197123477 -0.7114942452727089 0.1727227167660138 -0.7591590904302259 0.46036844805340915 -0.6148234137791732 0.09307639734092066 0.7272667299408087 -0.22449687227400417 -0.6785060654441506 -0.2858839626902778 -0.10163104840487869 0.9618175954989373 -0.47957862182597644 0.5277209683485158 -0.7614405640338254 -0.5503196900473054 -0.5897372212948314 -0.32194458144119764 0.3121391542352836 0.9516341050796859 -0.8794967909146789 -0.6380327947015384 -0.11678447057406738 0.3604858934940828 -0.3909015187163408 -0.03958029661894458 -0.05870740380428485 0.6333425911096618 -0.7181278089899604 -0.8914615093717899 -0.7281151608377174 -0.7138385248408952 -0.8191881857593456 0.7888412560493151 -0.8311089155619675 -0.2889671407864488 -0.37583408379401206 -0.6672696157555197 -0.31199489325199414 0.5264028530549241 -0.5537219968046533 -0.9815380910374125 0.8055159104550554 0.02506182522161393 -0.5126301252874038 0.6355412204068177 0.5262213204193442 0.36413516891185393 -0.13929575941871375 0.8686841051258084 0.413977186671012 0.9855545462910079 0.5237809755401766 -0.1411505465158649 0.9691368244393176 -0.6735241995071827 -0.592097260538864 0.5909991193797075 0.5036874699772511 -0.189367927273829 0.5323998382415899 0.4016455097033279 -0.34348391148059454 0.4593317724807052 0.2212301272342989 -0.49573692492749344 -0.07842675755120321 0.9522696535869294 0.43513535114977586 0.9044896162671657 0.7387542898550025 -0.7470694529184402 0.8759870731653275 0.8738306972552341 0.01346858523931338 0.8124163893086478 0.564713043264914 -0.47871854016191273 -0.18712557232225102 0.12218420918723749 -0.9470454227555372 -0.7552541331760017 -0.6542447376178304 0.9154833525515801 0.9234360753854272 0.5530912620630553 0.8145073052981955 0.456138780325408 -0.7536237408736026 -0.9332730419825103 -0.03841609805173396 0.11053375932310894 -0.22004362732701876 0.3682162618544731 -0.0167439850891814 -0.7951381685787818 0.8820787234364424 0.7699739523295085 -0.7006683945053964 0.12748578726284632 0.8979701681559965 -0.7242097083635313 -0.4684588068011055 -0.2300265383382396 -0.37744488157814193 -0.134136261861177 -0.9769791485186471 0.9063646167304878 -0.163739240198427 -0.6428114417738875 0.6284684416775244 -0.3933731524035885 0.7657193354812295 0.15538851588996627 -0.8947541993410815 0.5571172544489558 -0.876230855969428 0.19013362184663707 -0.23954438979738168 -0.5699037009711759 0.4926718993808642 -0.26926806545759474 0.5627217681735286 -0.4102696372726258 -0.3036197283932609 0.924822490109763 -0.5506981829059148 0.24923252001572527 -0.7127995817737873 -0.8483340469555303 0.2728939781879106 0.18036703387104125 -0.21612854870903309 -0.7104409198141722 -0.30392397102291624 0.6218960577442358 -0.8641287911125906 0.9684910584857049 0.2971125833486774 0.7089662740168217 -0.5440235545533113 0.8152903365478407 -0.6243516513509868 0.5440814146665718 -0.8775490694882048 0.6470314133836471 0.10170051041366024 -0.3827753535186429 -0.7242230045592962 0.8741080087276673 0.131882098450537 -0.7552034933317806 0.7540298917599316 0.9287351356985959 -0.9971884969231858 -0.20689403739855938 0.9666413483858796 0.02619258124406354 0.11745048714575035 -0.13713732685397606 0.7986021762774733 0.7302195628461272 