0.3079138852704554 0.7374306855245607 -0.8293678563289171 0.6878227285969991 0.6450285524982406 -0.6307631957352212 -0.3385708206010911 -0.6905493665179234 0.6209598969556357 0.26632066023554246 -0.9510763602413275 -0.8653016025809563 0.8114654821450914 0.3267678846397253 -0.8400797309829569 0.24169736493052862 0.5913741051710204 0.17104787285859013 -0.30838074731420495 -0.45934126738836467 -0.5306343547450321 0.3954374249178185 7.92312728476352E-4 0.8564731604703341 -0.6186141644534842 -0.9591646876245326 0.10368751109412866 -0.9828454279071507 0.8732491816474506 -0.5118976875468833 0.2140988354030675 -0.752958308559338 -0.00878366941561659 0.2495491294335147 -0.687783081339526 -0.35668184236625966 0.8633834913873217 0.7452168066254549 -0.15366727175835915 0.34531851442720574 -0.6161520984105289 0.18781577398071325 0.7983905808375622 0.7986025544122238 -0.42055120047540684 0.8791478779475853 -0.3226463953427977 0.1771297109449086 -0.6465649999175139 -0.8070527539745137 0.0852959431795568 0.011153661571421614 -0.4459394373284983 -0.8943731345709859 -0.016606327518948194 0.6266572444950512 -0.8643823321709163 -0.41942520526014104 -0.3187536555649203 -0.5678859653319928 -0.5240864176553247 -0.6715554446299207 0.5052915464861968 -0.01517908675549462 0.33319290162391424 -0.7077572520202315 0.551923313371923 -0.7264035795375675 -0.9031179717646055 0.6507234945979564 0.48911087521770813 -0.29423943233281535 0.7745457245638329 -0.37268424599443717 -0.012967785386152508 0.869354332386961 -0.08926905178891509 -0.9629222300438854 -0.40694137467076197 -0.46125354827964404 -0.5650645057596992 0.32540419722002345 -0.8617041983263157 0.43221544269446266 -0.6468358320212918 0.04569709045743853 0.6001255205818001 0.5397598452806014 -0.4678198692602836 -0.09288570246921912 0.6354938325207772 0.09113346363021413 0.3637544127400564 0.9878687095018066 0.24012923132432762 -0.6023502892361433 -0.6415254601814113 -0.33371928186580235 -0.4641111636331542 -0.6067476687691394 0.20987164655548662 0.654677104708867 -0.9921515745346575 0.034185625845076784 0.3290261552336632 -0.9640586274147066 -0.5702380934333499 -0.8473334725774738 0.5010458718725195 0.8765980180748473 -0.33430627796090107 0.5554910841328766 -0.8841151503638489 0.22316528726555296 0.8109144275273988 -0.6824004165241241 0.31927094686783786 0.6514298532820213 0.13986942682831494 -0.6557447052769275 -0.4082092874849722 -0.9755535359859415 0.8258748141289209 0.4115123745270274 0.35657637679668863 0.3894822453266792 -0.2417621748593023 0.38778576074081283 -0.3659425228061106 0.593727673189397 -0.7608179291478568 -0.9188082410648232 -0.11423575077835801 -0.017831959377765494 -0.7638947021880947 -0.16362195292536896 -0.36754438414552393 -0.3607799538595452 -0.1054990201478887 0.3561591678775211 0.2935288992332594 0.9011212961051662 0.4929077602127667 -0.7203570246147761 0.807753750600174 0.07303591668135045 -0.8875439659818136 -0.6112222094297538 0.7772470774448158 0.3796909388785684 -0.721719634346074 0.3153458147997601 -0.8209770296878339 -0.47074640140948165 -0.6540452798155507 -0.29677410525944414 0.6475468721824332 -0.0828641559519192 0.7002546287284829 0.6659758562000899 -0.7819967996207304 0.40138472346763987 0.012403059803130168 0.3340435092320899 0.4883336777439332 0.8780737777540173 0.08133330777218983 0.3726790799593239 -0.10222310427023928 0.12931614878717068 0.7395992922181843 -0.3187520741707076 0.2042722949572774 -0.16428650225091102 0.1199521017510412 0.46435034868994574 -0.0193101867899913 -0.6113501689733906 -0.7017756697958552 -0.5509470225521736 -0.2672061833217724 -0.47287472296690214 0.10534400843827496 -0.03840390635176372 0.9969049243099163 0.6019661436759588 -0.7512691411760251 -0.3309836554569545 -0.08648284965026087 0.8522823926039129 -0.07691909778353156 0.13094198305148408 0.440169674918938 -0.19811297279425422 0.804064883868334 0.535977456076432 -0.30745532654586727 -0.7441679808911096 -0.20342586132802132 0.554074514758358 0.25132316615023687 0.3299173526609849 -0.39796276519335094 0.6064387168714315 -0.5075881144990797 0.08153097457660752 0.136573940006808 0.8200694638297763 0.6727644406842821 0.15289450214379674 -0.00770506543038052 0.8240805777554692 -0.7994581518044852 0.08400827314992287 0.5162153343283081 -0.5145260049445272 0.03854872887636751 -0.27952271606242085 -0.9272750303894589 -0.15410895251125567 -0.18012537763445857 0.22099261174072815 0.6534158872412023 0.37777354314090383 0.014973762830173265 -0.7275426471766897 -0.9412435753944192 -0.7550711289699623 -0.6150871291798913 -0.8686297710007161 -0.6345614320479156 -0.6578114314544455 -0.7745366866221332 0.33377747930206747 0.6364088324673834 -0.6379712211579951 0.27474499090323523 0.33041410530913207 -0.23780916407392305 0.1499101192552431 0.081250898100656 -0.19200702610276044 0.7360686126489665 -0.13120409638802943 0.551677165122086 0.12325330460042039 0.46533859682258816 0.49779763232501806 -0.004188431350923949 0.5965137002386095 0.6688569947446336 0.4880263924937911 0.41992628813949984 0.55112647523687 0.3795719520518229 0.8352261186307461 0.9861849600690401 0.031316027455068896 -0.20891342618030695 0.7952291216052909 0.3333962475720399 0.3421912242716859 -0.4996329246872593 -0.8468159434847974 0.9582783140031405 -0.38708459238363724 0.8046861765528913 -0.40378629950870637 -0.31512041944252855 0.8396369952533592 0.4193465820126653 0.8638873192572969 0.735933658592502 0.5932418967354608 0.4626061954452162 -0.959252011577922 -0.6189021453360076 0.2245756582839643 -0.4161516295525556 -0.5139113946434484 -0.8750122130216913 0.8346627489626225 -0.1718999252779697 -0.6089219194511007 0.9488136690301829 -0.9603388272167357 -0.01842898399024151 -0.9680738257874146 -0.9962496727563644 0.11174711528520298 -0.6645904313731714 -0.783357611533951 0.1268176814631624 0.051615217920983 0.7541714229164139 0.7655687823796417 -0.3997307885308221 -0.3985297157181591 -0.28323493646678544 0.7326009439814226 0.17691467531549898 0.8668134474465987 0.29544816314852285 -0.6279207671251658 0.7544489092654945 -0.2695941818675126 -0.6032555738650065 0.0398395491307163 -0.60589744815603 0.4338124996190931 0.66025190849296 0.5368315723011708 -0.9304677905195389 -0.1859442238551159 0.20991686529603515 -0.842102287472969 -0.48804124045853714 0.6301752514434094 0.5995222609338722 0.4914821516375949 0.4326506955312527 -0.9661792413716381 0.27133144479488547 0.9698089155760069 -0.11618115536695417 -0.46182206488677324 0.2448577962449 -0.7680918446908451 0.42809583694588305 0.2512130589515926 -0.47820810841470474 -0.4808704889594051 0.47365207788153185 0.764959347074589 -0.6072158504541699 0.8566914668888548 -0.3203435074943981 -0.04323229344360857 -0.11900684025720853 0.5144731796761374 -0.1873902646235983 0.25739922314219754 -0.5156071658394645 0.811639924824409 0.13981489366965094 -0.7072922622259022 0.0714770788865482 -0.5943443191668423 0.16804137808872932 -0.49951099725220804 -0.2597189526653271 -0.24349814029284944 0.7937881105465587 0.5737719276265604 -0.9750019371546144 0.9980943537102467 0.23134526421004475 0.7701850772883093 0.49373097661948606 -0.7055559144317588 0.1653473846906548 0.05971417289041547 0.3502718524096906 -0.731604195074007 0.6593392452306404 -0.7622889804224542 -0.43317572403829396 -0.07697254826242228 0.3990428579953865 -0.09416426868319516 -0.3727860469625015 0.8341039172030291 -0.19909141161248345 0.1920020133503777 -0.44530402114248313 0.2773279320554364 -0.45009306041096453 0.23451302940699248 -0.7023438017180904 0.4143699998176572 -0.09349237373772024 0.4604610432686642 0.12238913239513538 -0.9584839520350908 -0.9630954336851494 0.13103530289047138 0.6461640438151643 0.59584532398984 -0.9473372943848803 0.2654230374849995 0.8767798508579798 -0.19537977409651197 -0.9896562980431739 -0.9288324722952402 0.8069582767136086 -0.7106140957378152 -0.08305654048575617 -0.7452998936631714 0.05280016992262526 -0.3706348584818083 neuralnet.OutputLayer@6fe6a5590.3079138852704554 0.7374306855245607 -0.8293678563289171 0.6878227285969991 0.6450285524982406 -0.6307631957352212 -0.3385708206010911 -0.6905493665179234 0.6209598969556357 0.26632066023554246 -0.9510763602413275 -0.8653016025809563 0.8114654821450914 0.3267678846397253 -0.8400797309829569 0.24169736493052862 0.5913741051710204 0.17104787285859013 -0.30838074731420495 -0.45934126738836467 -0.5306343547450321 0.3954374249178185 7.92312728476352E-4 0.8564731604703341 -0.6186141644534842 -0.9591646876245326 0.10368751109412866 -0.9828454279071507 0.8732491816474506 -0.5118976875468833 0.2140988354030675 -0.752958308559338 -0.00878366941561659 0.2495491294335147 -0.687783081339526 -0.35668184236625966 0.8633834913873217 0.7452168066254549 -0.15366727175835915 0.34531851442720574 -0.6161520984105289 0.18781577398071325 0.7983905808375622 0.7986025544122238 -0.42055120047540684 0.8791478779475853 -0.3226463953427977 0.1771297109449086 -0.6465649999175139 -0.8070527539745137 0.0852959431795568 0.011153661571421614 -0.4459394373284983 -0.8943731345709859 -0.016606327518948194 0.6266572444950512 -0.8643823321709163 -0.41942520526014104 -0.3187536555649203 -0.5678859653319928 -0.5240864176553247 -0.6715554446299207 0.5052915464861968 -0.01517908675549462 0.33319290162391424 -0.7077572520202315 0.551923313371923 -0.7264035795375675 -0.9031179717646055 0.6507234945979564 0.48911087521770813 -0.29423943233281535 0.7745457245638329 -0.37268424599443717 -0.012967785386152508 0.869354332386961 -0.08926905178891509 -0.9629222300438854 -0.40694137467076197 -0.46125354827964404 -0.5650645057596992 0.32540419722002345 -0.8617041983263157 0.43221544269446266 -0.6468358320212918 0.04569709045743853 0.6001255205818001 0.5397598452806014 -0.4678198692602836 -0.09288570246921912 0.6354938325207772 0.09113346363021413 0.3637544127400564 0.9878687095018066 0.24012923132432762 -0.6023502892361433 -0.6415254601814113 -0.33371928186580235 -0.4641111636331542 -0.6067476687691394 0.20987164655548662 0.654677104708867 -0.9921515745346575 0.034185625845076784 0.3290261552336632 -0.9640586274147066 -0.5702380934333499 -0.8473334725774738 0.5010458718725195 0.8765980180748473 -0.33430627796090107 0.5554910841328766 -0.8841151503638489 0.22316528726555296 0.8109144275273988 -0.6824004165241241 0.31927094686783786 0.6514298532820213 0.13986942682831494 -0.6557447052769275 -0.4082092874849722 -0.9755535359859415 0.8258748141289209 0.4115123745270274 0.35657637679668863 0.3894822453266792 -0.2417621748593023 0.38778576074081283 -0.3659425228061106 0.593727673189397 -0.7608179291478568 -0.9188082410648232 -0.11423575077835801 -0.017831959377765494 -0.7638947021880947 -0.16362195292536896 -0.36754438414552393 -0.3607799538595452 -0.1054990201478887 0.3561591678775211 0.2935288992332594 0.9011212961051662 0.4929077602127667 -0.7203570246147761 0.807753750600174 0.07303591668135045 -0.8875439659818136 -0.6112222094297538 0.7772470774448158 0.3796909388785684 -0.721719634346074 0.3153458147997601 -0.8209770296878339 -0.47074640140948165 -0.6540452798155507 -0.29677410525944414 0.6475468721824332 -0.0828641559519192 0.7002546287284829 0.6659758562000899 -0.7819967996207304 0.40138472346763987 0.012403059803130168 0.3340435092320899 0.4883336777439332 0.8780737777540173 0.08133330777218983 0.3726790799593239 -0.10222310427023928 0.12931614878717068 0.7395992922181843 -0.3187520741707076 0.2042722949572774 -0.16428650225091102 0.1199521017510412 0.46435034868994574 -0.0193101867899913 -0.6113501689733906 -0.7017756697958552 -0.5509470225521736 -0.2672061833217724 -0.47287472296690214 0.10534400843827496 -0.03840390635176372 0.9969049243099163 0.6019661436759588 -0.7512691411760251 -0.3309836554569545 -0.08648284965026087 0.8522823926039129 -0.07691909778353156 0.13094198305148408 0.440169674918938 -0.19811297279425422 0.804064883868334 0.535977456076432 -0.30745532654586727 -0.7441679808911096 -0.20342586132802132 0.554074514758358 0.25132316615023687 0.3299173526609849 -0.39796276519335094 0.6064387168714315 -0.5075881144990797 0.08153097457660752 0.136573940006808 0.8200694638297763 0.6727644406842821 0.15289450214379674 -0.00770506543038052 0.8240805777554692 -0.7994581518044852 0.08400827314992287 0.5162153343283081 -0.5145260049445272 0.03854872887636751 -0.27952271606242085 -0.9272750303894589 -0.15410895251125567 -0.18012537763445857 0.22099261174072815 0.6534158872412023 0.37777354314090383 0.014973762830173265 -0.7275426471766897 -0.9412435753944192 -0.7550711289699623 -0.6150871291798913 -0.8686297710007161 -0.6345614320479156 -0.6578114314544455 -0.7745366866221332 0.33377747930206747 0.6364088324673834 -0.6379712211579951 0.27474499090323523 0.33041410530913207 -0.23780916407392305 0.1499101192552431 0.081250898100656 -0.19200702610276044 0.7360686126489665 -0.13120409638802943 0.551677165122086 0.12325330460042039 0.46533859682258816 0.49779763232501806 -0.004188431350923949 0.5965137002386095 0.6688569947446336 0.4880263924937911 0.41992628813949984 0.55112647523687 0.3795719520518229 0.8352261186307461 0.9861849600690401 0.031316027455068896 -0.20891342618030695 0.7952291216052909 0.3333962475720399 0.3421912242716859 -0.4996329246872593 -0.8468159434847974 0.9582783140031405 -0.38708459238363724 0.8046861765528913 -0.40378629950870637 -0.31512041944252855 0.8396369952533592 0.4193465820126653 0.8638873192572969 0.735933658592502 0.5932418967354608 0.4626061954452162 -0.959252011577922 -0.6189021453360076 0.2245756582839643 -0.4161516295525556 -0.5139113946434484 -0.8750122130216913 0.8346627489626225 -0.1718999252779697 -0.6089219194511007 0.9488136690301829 -0.9603388272167357 -0.01842898399024151 -0.9680738257874146 -0.9962496727563644 0.11174711528520298 -0.6645904313731714 -0.783357611533951 0.1268176814631624 0.051615217920983 0.7541714229164139 0.7655687823796417 -0.3997307885308221 -0.3985297157181591 -0.28323493646678544 0.7326009439814226 0.17691467531549898 0.8668134474465987 0.29544816314852285 -0.6279207671251658 0.7544489092654945 -0.2695941818675126 -0.6032555738650065 0.0398395491307163 -0.60589744815603 0.4338124996190931 0.66025190849296 0.5368315723011708 -0.9304677905195389 -0.1859442238551159 0.20991686529603515 -0.842102287472969 -0.48804124045853714 0.6301752514434094 0.5995222609338722 0.4914821516375949 0.4326506955312527 -0.9661792413716381 0.27133144479488547 0.9698089155760069 -0.11618115536695417 -0.46182206488677324 0.2448577962449 -0.7680918446908451 0.42809583694588305 0.2512130589515926 -0.47820810841470474 -0.4808704889594051 0.47365207788153185 0.764959347074589 -0.6072158504541699 0.8566914668888548 -0.3203435074943981 -0.04323229344360857 -0.11900684025720853 0.5144731796761374 -0.1873902646235983 0.25739922314219754 -0.5156071658394645 0.811639924824409 0.13981489366965094 -0.7072922622259022 0.0714770788865482 -0.5943443191668423 0.16804137808872932 -0.49951099725220804 -0.2597189526653271 -0.24349814029284944 0.7937881105465587 0.5737719276265604 -0.9750019371546144 0.9980943537102467 0.23134526421004475 0.7701850772883093 0.49373097661948606 -0.7055559144317588 0.1653473846906548 0.05971417289041547 0.3502718524096906 -0.731604195074007 0.6593392452306404 -0.7622889804224542 -0.43317572403829396 -0.07697254826242228 0.3990428579953865 -0.09416426868319516 -0.3727860469625015 0.8341039172030291 -0.19909141161248345 0.1920020133503777 -0.44530402114248313 0.2773279320554364 -0.45009306041096453 0.23451302940699248 -0.7023438017180904 0.4143699998176572 -0.09349237373772024 0.4604610432686642 0.12238913239513538 -0.9584839520350908 -0.9630954336851494 0.13103530289047138 0.6461640438151643 0.59584532398984 -0.9473372943848803 0.2654230374849995 0.8767798508579798 -0.19537977409651197 -0.9896562980431739 -0.9288324722952402 0.8069582767136086 -0.7106140957378152 -0.08305654048575617 -0.7452998936631714 0.05280016992262526 -0.3706348584818083 neuralnet.OutputLayer@282890be0.2934430310430408 0.09392390476251178 -0.37135692361685413 0.47535549805691646 0.8306876384226063 -0.44799957437379234 -0.4641822972775864 0.9084916744160152 0.15786061551535202 0.5754945133505799 -0.21304481574870648 0.991890597343547 -0.8807502131775881 -0.02152012287712035 -0.22396359739125005 -0.25485707398832436 -0.5763906987655825 0.3271012100507873 -0.7929341040707315 0.14084577886732585 -0.6917067403441911 -0.5273043812389452 -0.9019948531794988 0.6102687176989382 0.875239371663852 -0.6700154658239735 0.3491198794411594 -0.4922478911935234 0.41700143456221006 -0.7129351430904083 -0.89315465696516 0.31452793795727396 0.9056327212111182 -0.6321809665134137 -0.8201340287607051 0.6394814575391129 0.583384507880926 -0.5688752340278909 -0.21622185253754755 -0.782892552392914 -0.2232097507945796 -0.33133438770559376 0.37027734848185867 0.4250306119702052 -0.6059876603547425 -0.7401111713417753 -0.9385216106142296 -0.29468872631347465 0.28296780036195013 -0.2637364870588783 0.6943101486661918 0.3325685315408322 0.6827310624284394 -0.20312330274662116 -0.022129087232959477 0.43182563445118716 0.33541726479470746 0.5748550778871199 0.18150438581191675 0.010895062779852416 0.6169361362221674 -0.3277199175345903 0.8658587035352341 0.0839218797144422 0.9538097299763101 -0.6747870400371749 0.8153890123312313 -0.9308768854921052 0.2151705584838176 0.41707926461399036 -0.23989593460870495 0.43639736152915676 -0.9160122241800174 -0.513234024367654 0.027660407094513895 0.7478108580308876 -0.766238523275283 0.5580254642386707 -0.35563171379834757 -0.4886558785948608 -0.4349854306888661 -0.5983035950907359 -0.08513836000820796 -0.3120657448671511 0.6229045403658175 -0.4937432161119173 0.32404651567619636 -0.16712603738302967 -0.5594424876214448 0.5216081871412225 -2.022331580403547E-4 -0.9089957808198862 0.48404976530920996 0.623916506364851 -0.4115815335213293 -0.9762823613860175 -0.3495352054562274 0.16584187602320155 -0.5258202267171446 0.24429717489667557 -0.3393611188699911 0.08849424849701937 0.9257680169799898 -0.656845079849569 0.9479630039204573 0.012738787339121704 0.19199825141415716 0.6595813443571906 0.7631888832335744 0.25371186991301853 0.37190754817187743 -0.7879784676650832 0.6662247742956874 0.44113354377118386 -0.765114925724275 -0.058114461390205374 -0.4325881228919324 0.12862782366794534 0.10877560668739161 -0.6894223667042138 0.7051256233812158 0.05908049230156931 0.6412295702088451 -0.03322885442628298 -0.6694930786959021 -0.6367648308457317 0.18465962295536875 0.4688119647769229 -0.1751708105836195 -0.679703790162758 -0.11992663245979762 -0.9997681328049102 0.6459544367127306 -0.2608203120746244 0.2012278851663074 -0.703705195080339 -0.9825892846093842 -0.9639730743308043 0.858815716290172 0.044760347148695145 -0.9989105087818562 0.6183267313654898 -0.995062136267506 0.3199814990596255 -0.6189511808485763 -0.15897398868022827 0.6805194427962007 -0.06171565839680282 -0.7855745992443949 -0.9002436943232515 -0.6684790305403138 0.3134081256882638 0.5433857259044774 0.26705350899720637 0.01211471379958362 -0.4304105729287322 -0.5888557341397009 -0.2226319427742851 0.9821263901707904 0.5095092684025856 -0.7285231023514842 0.015786110096820072 0.7890563545939324 0.004509248853396208 -0.8546335342382114 -0.02437107958505358 -0.5416603357978009 0.4918271458673654 -0.5346791629007491 -0.6947474980019174 -0.9350022350433872 0.34157849769451953 0.6967568344683626 -0.8299019958413086 -0.949325659829594 0.7551707554837119 0.2602802021551105 -0.21011411226944354 0.11680268234994062 0.7340074606513819 -0.5432802599220897 -0.02778511702785913 -0.8387321420872823 -0.7831780540022212 -0.539223714353227 -0.4759887113943557 -0.5642766636547087 -0.7732483105623821 0.6758813066597833 0.5744388991367512 -0.8536041258424265 0.3431755044315242 0.9934582482249001 -0.2479370700337834 0.974831962849596 0.8631138006964829 0.6697522477953609 -0.08782147760842118 -0.8119484097052649 -0.9657617190489948 0.5026196670433135 0.9660524124674426 0.980800011029259 0.9147287837127986 -0.12659049463419914 -0.9969480763254137 0.6462199024246243 -0.02029789507975066 -0.3860452541638847 -0.32821416309144125 -0.08512257673279999 0.08194823502198856 0.8987309988811871 0.9718705836335993 0.004608821047445311 -0.13465564756784287 -0.23518282685774294 0.6500541225174875 0.3634319218627744 0.0985529195247905 -0.020837377751849018 -0.8386597915040008 0.902483225155202 -0.43270137072855064 -0.16003534551397713 -0.8125027453101706 0.4526664726834764 -0.6446127726089108 -0.11280797588299774 -0.5361754850005988 -0.15612054242166717 -0.6757225700505923 0.16134260945693135 0.784070371820535 -0.8848595788226561 0.9319230231016367 -0.42135108512473307 -0.4113817272029172 0.992860972213713 0.8241177353712946 0.6587809539116801 -0.779984663924368 0.6074780428986895 0.7929245144670578 0.4556475669330995 -0.597971020333857 0.9996095305589582 -0.8189406215404718 0.29554777430447887 0.5849686950638096 -0.05084429464637086 -0.13070007343445922 0.2464312521776164 -0.25583316581523374 0.05702786097432122 0.9139549962867903 -0.9614753601353194 -0.06468707103485216 0.4415169757508489 0.29788957572495167 -0.9244248786892406 0.23669471775470008 -0.6388367986253405 0.2631499311069537 -0.152662020697943 0.6531051090530648 -0.8658276301666854 -0.7556454953722734 0.3419483184271025 0.5498917210717276 -0.15885569917044606 0.505058961584912 -0.6898982587850165 0.3308927523861668 0.032699017123818286 -0.5235070738364076 -0.46546827447102446 0.39523484275101783 -0.5645438001627856 0.3385060574607822 -0.32450341614109257 0.10145436473130975 0.9870622629033063 0.19222714549322906 -0.9023667698938981 -0.8486946749892578 -0.6787390702909489 -0.07431769154991552 0.12173123289001286 -0.23002247633475037 -0.4355597800259855 -0.4628333963573492 0.907237595809364 -0.48382254878897224 0.35210480089427476 0.7731166307455943 -0.8374978928912579 0.8884147472311659 0.7931388596761051 -0.22893318209561986 -0.16082691466157073 0.9085497047290809 0.5267352461700778 0.3343421033162193 0.11838735035147385 0.03773389987050957 0.46604444322038685 -0.839330849733052 0.2974728300104432 0.5127288174567767 0.5978838120447493 0.005980856229210962 -0.42081814301878717 0.053505745028604945 0.7125663979388518 0.38831870033161875 -0.5722463899702686 0.8791799060058936 0.9347542576664569 0.07275858426280901 0.748500381281748 0.7437488172277229 -0.21271715431609073 -0.4285767862263591 0.06563070663150672 0.8527064768768333 0.47658730021433626 -0.8655006263093689 -0.5034543079890258 -0.1948223866543225 -0.5184919803533659 0.8872291036269658 -0.7358677956772368 -0.6955737112217717 0.05705700972321959 -0.380559313943028 -0.14974056726826435 0.14497687554041927 0.24075890545908296 -0.7094451179201122 -0.493228370347758 -0.3084395081096364 0.5403860438904423 0.153246563186492 -0.4778563455825674 0.6599515328495911 -0.03339374340990342 0.8990365562912461 -0.5556164688366921 -0.1393454328203455 -0.9100497762803668 -0.1881125277782172 -0.08013910077528141 0.7133778803058842 -0.40434712864573774 -0.69889650465515 0.19402107310496108 0.7452020477257443 -0.5112247916973098 -0.36090696590548077 -0.11170857467018247 -0.9178909762826986 -0.11861014185621532 -0.6836826261115339 0.9071610325385792 0.6877424656558453 -0.25128854809971 -0.7446261475250229 0.21404659945468874 -0.9775370414102746 0.35643946735594567 0.6058705793170512 -0.5478441782252409 0.0393576944248506 -0.7187938972116176 0.9256470725214713 -0.33049296478313794 -0.6768504827213497 -0.7767993054939618 -0.007044844546866713 -0.33768143266206674 -0.5439085788103911 -0.3425269258255381 0.08628980207242964 0.08927531452429671 -0.22303192922170678 0.9101722724661055 -0.5916233333273102 -0.32377829453772766 -0.0778315358197269 -0.5405040124842984 -0.9400165317395018 0.6565028623521171 0.4102346186473429 0.2392342937526063 -0.973797821753361 0.44073534033088924 -0.016007429944150053 0.9156809418263779 -0.4919988738756338 neuralnet.OutputLayer@2c0736740.3079138852704554 0.7374306855245607 -0.8293678563289171 0.6878227285969991 0.6450285524982406 -0.6307631957352212 -0.3385708206010911 -0.6905493665179234 0.6209598969556357 0.26632066023554246 -0.9510763602413275 -0.8653016025809563 0.8114654821450914 0.3267678846397253 -0.8400797309829569 0.24169736493052862 0.5913741051710204 0.17104787285859013 -0.30838074731420495 -0.45934126738836467 -0.5306343547450321 0.3954374249178185 7.92312728476352E-4 0.8564731604703341 -0.6186141644534842 -0.9591646876245326 0.10368751109412866 -0.9828454279071507 0.8732491816474506 -0.5118976875468833 0.2140988354030675 -0.752958308559338 -0.00878366941561659 0.2495491294335147 -0.687783081339526 -0.35668184236625966 0.8633834913873217 0.7452168066254549 -0.15366727175835915 0.34531851442720574 -0.6161520984105289 0.18781577398071325 0.7983905808375622 0.7986025544122238 -0.42055120047540684 0.8791478779475853 -0.3226463953427977 0.1771297109449086 -0.6465649999175139 -0.8070527539745137 0.0852959431795568 0.011153661571421614 -0.4459394373284983 -0.8943731345709859 -0.016606327518948194 0.6266572444950512 -0.8643823321709163 -0.41942520526014104 -0.3187536555649203 -0.5678859653319928 -0.5240864176553247 -0.6715554446299207 0.5052915464861968 -0.01517908675549462 0.33319290162391424 -0.7077572520202315 0.551923313371923 -0.7264035795375675 -0.9031179717646055 0.6507234945979564 0.48911087521770813 -0.29423943233281535 0.7745457245638329 -0.37268424599443717 -0.012967785386152508 0.869354332386961 -0.08926905178891509 -0.9629222300438854 -0.40694137467076197 -0.46125354827964404 -0.5650645057596992 0.32540419722002345 -0.8617041983263157 0.43221544269446266 -0.6468358320212918 0.04569709045743853 0.6001255205818001 0.5397598452806014 -0.4678198692602836 -0.09288570246921912 0.6354938325207772 0.09113346363021413 0.3637544127400564 0.9878687095018066 0.24012923132432762 -0.6023502892361433 -0.6415254601814113 -0.33371928186580235 -0.4641111636331542 -0.6067476687691394 0.20987164655548662 0.654677104708867 -0.9921515745346575 0.034185625845076784 0.3290261552336632 -0.9640586274147066 -0.5702380934333499 -0.8473334725774738 0.5010458718725195 0.8765980180748473 -0.33430627796090107 0.5554910841328766 -0.8841151503638489 0.22316528726555296 0.8109144275273988 -0.6824004165241241 0.31927094686783786 0.6514298532820213 0.13986942682831494 -0.6557447052769275 -0.4082092874849722 -0.9755535359859415 0.8258748141289209 0.4115123745270274 0.35657637679668863 0.3894822453266792 -0.2417621748593023 0.38778576074081283 -0.3659425228061106 0.593727673189397 -0.7608179291478568 -0.9188082410648232 -0.11423575077835801 -0.017831959377765494 -0.7638947021880947 -0.16362195292536896 -0.36754438414552393 -0.3607799538595452 -0.1054990201478887 0.3561591678775211 0.2935288992332594 0.9011212961051662 0.4929077602127667 -0.7203570246147761 0.807753750600174 0.07303591668135045 -0.8875439659818136 -0.6112222094297538 0.7772470774448158 0.3796909388785684 -0.721719634346074 0.3153458147997601 -0.8209770296878339 -0.47074640140948165 -0.6540452798155507 -0.29677410525944414 0.6475468721824332 -0.0828641559519192 0.7002546287284829 0.6659758562000899 -0.7819967996207304 0.40138472346763987 0.012403059803130168 0.3340435092320899 0.4883336777439332 0.8780737777540173 0.08133330777218983 0.3726790799593239 -0.10222310427023928 0.12931614878717068 0.7395992922181843 -0.3187520741707076 0.2042722949572774 -0.16428650225091102 0.1199521017510412 0.46435034868994574 -0.0193101867899913 -0.6113501689733906 -0.7017756697958552 -0.5509470225521736 -0.2672061833217724 -0.47287472296690214 0.10534400843827496 -0.03840390635176372 0.9969049243099163 0.6019661436759588 -0.7512691411760251 -0.3309836554569545 -0.08648284965026087 0.8522823926039129 -0.07691909778353156 0.13094198305148408 0.440169674918938 -0.19811297279425422 0.804064883868334 0.535977456076432 -0.30745532654586727 -0.7441679808911096 -0.20342586132802132 0.554074514758358 0.25132316615023687 0.3299173526609849 -0.39796276519335094 0.6064387168714315 -0.5075881144990797 0.08153097457660752 0.136573940006808 0.8200694638297763 0.6727644406842821 0.15289450214379674 -0.00770506543038052 0.8240805777554692 -0.7994581518044852 0.08400827314992287 0.5162153343283081 -0.5145260049445272 0.03854872887636751 -0.27952271606242085 -0.9272750303894589 -0.15410895251125567 -0.18012537763445857 0.22099261174072815 0.6534158872412023 0.37777354314090383 0.014973762830173265 -0.7275426471766897 -0.9412435753944192 -0.7550711289699623 -0.6150871291798913 -0.8686297710007161 -0.6345614320479156 -0.6578114314544455 -0.7745366866221332 0.33377747930206747 0.6364088324673834 -0.6379712211579951 0.27474499090323523 0.33041410530913207 -0.23780916407392305 0.1499101192552431 0.081250898100656 -0.19200702610276044 0.7360686126489665 -0.13120409638802943 0.551677165122086 0.12325330460042039 0.46533859682258816 0.49779763232501806 -0.004188431350923949 0.5965137002386095 0.6688569947446336 0.4880263924937911 0.41992628813949984 0.55112647523687 0.3795719520518229 0.8352261186307461 0.9861849600690401 0.031316027455068896 -0.20891342618030695 0.7952291216052909 0.3333962475720399 0.3421912242716859 -0.4996329246872593 -0.8468159434847974 0.9582783140031405 -0.38708459238363724 0.8046861765528913 -0.40378629950870637 -0.31512041944252855 0.8396369952533592 0.4193465820126653 0.8638873192572969 0.735933658592502 0.5932418967354608 0.4626061954452162 -0.959252011577922 -0.6189021453360076 0.2245756582839643 -0.4161516295525556 -0.5139113946434484 -0.8750122130216913 0.8346627489626225 -0.1718999252779697 -0.6089219194511007 0.9488136690301829 -0.9603388272167357 -0.01842898399024151 -0.9680738257874146 -0.9962496727563644 0.11174711528520298 -0.6645904313731714 -0.783357611533951 0.1268176814631624 0.051615217920983 0.7541714229164139 0.7655687823796417 -0.3997307885308221 -0.3985297157181591 -0.28323493646678544 0.7326009439814226 0.17691467531549898 0.8668134474465987 0.29544816314852285 -0.6279207671251658 0.7544489092654945 -0.2695941818675126 -0.6032555738650065 0.0398395491307163 -0.60589744815603 0.4338124996190931 0.66025190849296 0.5368315723011708 -0.9304677905195389 -0.1859442238551159 0.20991686529603515 -0.842102287472969 -0.48804124045853714 0.6301752514434094 0.5995222609338722 0.4914821516375949 0.4326506955312527 -0.9661792413716381 0.27133144479488547 0.9698089155760069 -0.11618115536695417 -0.46182206488677324 0.2448577962449 -0.7680918446908451 0.42809583694588305 0.2512130589515926 -0.47820810841470474 -0.4808704889594051 0.47365207788153185 0.764959347074589 -0.6072158504541699 0.8566914668888548 -0.3203435074943981 -0.04323229344360857 -0.11900684025720853 0.5144731796761374 -0.1873902646235983 0.25739922314219754 -0.5156071658394645 0.811639924824409 0.13981489366965094 -0.7072922622259022 0.0714770788865482 -0.5943443191668423 0.16804137808872932 -0.49951099725220804 -0.2597189526653271 -0.24349814029284944 0.7937881105465587 0.5737719276265604 -0.9750019371546144 0.9980943537102467 0.23134526421004475 0.7701850772883093 0.49373097661948606 -0.7055559144317588 0.1653473846906548 0.05971417289041547 0.3502718524096906 -0.731604195074007 0.6593392452306404 -0.7622889804224542 -0.43317572403829396 -0.07697254826242228 0.3990428579953865 -0.09416426868319516 -0.3727860469625015 0.8341039172030291 -0.19909141161248345 0.1920020133503777 -0.44530402114248313 0.2773279320554364 -0.45009306041096453 0.23451302940699248 -0.7023438017180904 0.4143699998176572 -0.09349237373772024 0.4604610432686642 0.12238913239513538 -0.9584839520350908 -0.9630954336851494 0.13103530289047138 0.6461640438151643 0.59584532398984 -0.9473372943848803 0.2654230374849995 0.8767798508579798 -0.19537977409651197 -0.9896562980431739 -0.9288324722952402 0.8069582767136086 -0.7106140957378152 -0.08305654048575617 -0.7452998936631714 0.05280016992262526 -0.3706348584818083 neuralnet.OutputLayer@3432f7a10.3079138852704554 0.7374306855245607 -0.8293678563289171 0.6878227285969991 0.6450285524982406 -0.6307631957352212 -0.3385708206010911 -0.6905493665179234 0.6209598969556357 0.26632066023554246 -0.9510763602413275 -0.8653016025809563 0.8114654821450914 0.3267678846397253 -0.8400797309829569 0.24169736493052862 0.5913741051710204 0.17104787285859013 -0.30838074731420495 -0.45934126738836467 -0.5306343547450321 0.3954374249178185 7.92312728476352E-4 0.8564731604703341 -0.6186141644534842 -0.9591646876245326 0.10368751109412866 -0.9828454279071507 0.8732491816474506 -0.5118976875468833 0.2140988354030675 -0.752958308559338 -0.00878366941561659 0.2495491294335147 -0.687783081339526 -0.35668184236625966 0.8633834913873217 0.7452168066254549 -0.15366727175835915 0.34531851442720574 -0.6161520984105289 0.18781577398071325 0.7983905808375622 0.7986025544122238 -0.42055120047540684 0.8791478779475853 -0.3226463953427977 0.1771297109449086 -0.6465649999175139 -0.8070527539745137 0.0852959431795568 0.011153661571421614 -0.4459394373284983 -0.8943731345709859 -0.016606327518948194 0.6266572444950512 -0.8643823321709163 -0.41942520526014104 -0.3187536555649203 -0.5678859653319928 -0.5240864176553247 -0.6715554446299207 0.5052915464861968 -0.01517908675549462 0.33319290162391424 -0.7077572520202315 0.551923313371923 -0.7264035795375675 -0.9031179717646055 0.6507234945979564 0.48911087521770813 -0.29423943233281535 0.7745457245638329 -0.37268424599443717 -0.012967785386152508 0.869354332386961 -0.08926905178891509 -0.9629222300438854 -0.40694137467076197 -0.46125354827964404 -0.5650645057596992 0.32540419722002345 -0.8617041983263157 0.43221544269446266 -0.6468358320212918 0.04569709045743853 0.6001255205818001 0.5397598452806014 -0.4678198692602836 -0.09288570246921912 0.6354938325207772 0.09113346363021413 0.3637544127400564 0.9878687095018066 0.24012923132432762 -0.6023502892361433 -0.6415254601814113 -0.33371928186580235 -0.4641111636331542 -0.6067476687691394 0.20987164655548662 0.654677104708867 -0.9921515745346575 0.034185625845076784 0.3290261552336632 -0.9640586274147066 -0.5702380934333499 -0.8473334725774738 0.5010458718725195 0.8765980180748473 -0.33430627796090107 0.5554910841328766 -0.8841151503638489 0.22316528726555296 0.8109144275273988 -0.6824004165241241 0.31927094686783786 0.6514298532820213 0.13986942682831494 -0.6557447052769275 -0.4082092874849722 -0.9755535359859415 0.8258748141289209 0.4115123745270274 0.35657637679668863 0.3894822453266792 -0.2417621748593023 0.38778576074081283 -0.3659425228061106 0.593727673189397 -0.7608179291478568 -0.9188082410648232 -0.11423575077835801 -0.017831959377765494 -0.7638947021880947 -0.16362195292536896 -0.36754438414552393 -0.3607799538595452 -0.1054990201478887 0.3561591678775211 0.2935288992332594 0.9011212961051662 0.4929077602127667 -0.7203570246147761 0.807753750600174 0.07303591668135045 -0.8875439659818136 -0.6112222094297538 0.7772470774448158 0.3796909388785684 -0.721719634346074 0.3153458147997601 -0.8209770296878339 -0.47074640140948165 -0.6540452798155507 -0.29677410525944414 0.6475468721824332 -0.0828641559519192 0.7002546287284829 0.6659758562000899 -0.7819967996207304 0.40138472346763987 0.012403059803130168 0.3340435092320899 0.4883336777439332 0.8780737777540173 0.08133330777218983 0.3726790799593239 -0.10222310427023928 0.12931614878717068 0.7395992922181843 -0.3187520741707076 0.2042722949572774 -0.16428650225091102 0.1199521017510412 0.46435034868994574 -0.0193101867899913 -0.6113501689733906 -0.7017756697958552 -0.5509470225521736 -0.2672061833217724 -0.47287472296690214 0.10534400843827496 -0.03840390635176372 0.9969049243099163 0.6019661436759588 -0.7512691411760251 -0.3309836554569545 -0.08648284965026087 0.8522823926039129 -0.07691909778353156 0.13094198305148408 0.440169674918938 -0.19811297279425422 0.804064883868334 0.535977456076432 -0.30745532654586727 -0.7441679808911096 -0.20342586132802132 0.554074514758358 0.25132316615023687 0.3299173526609849 -0.39796276519335094 0.6064387168714315 -0.5075881144990797 0.08153097457660752 0.136573940006808 0.8200694638297763 0.6727644406842821 0.15289450214379674 -0.00770506543038052 0.8240805777554692 -0.7994581518044852 0.08400827314992287 0.5162153343283081 -0.5145260049445272 0.03854872887636751 -0.27952271606242085 -0.9272750303894589 -0.15410895251125567 -0.18012537763445857 0.22099261174072815 0.6534158872412023 0.37777354314090383 0.014973762830173265 -0.7275426471766897 -0.9412435753944192 -0.7550711289699623 -0.6150871291798913 -0.8686297710007161 -0.6345614320479156 -0.6578114314544455 -0.7745366866221332 0.33377747930206747 0.6364088324673834 -0.6379712211579951 0.27474499090323523 0.33041410530913207 -0.23780916407392305 0.1499101192552431 0.081250898100656 -0.19200702610276044 0.7360686126489665 -0.13120409638802943 0.551677165122086 0.12325330460042039 0.46533859682258816 0.49779763232501806 -0.004188431350923949 0.5965137002386095 0.6688569947446336 0.4880263924937911 0.41992628813949984 0.55112647523687 0.3795719520518229 0.8352261186307461 0.9861849600690401 0.031316027455068896 -0.20891342618030695 0.7952291216052909 0.3333962475720399 0.3421912242716859 -0.4996329246872593 -0.8468159434847974 0.9582783140031405 -0.38708459238363724 0.8046861765528913 -0.40378629950870637 -0.31512041944252855 0.8396369952533592 0.4193465820126653 0.8638873192572969 0.735933658592502 0.5932418967354608 0.4626061954452162 -0.959252011577922 -0.6189021453360076 0.2245756582839643 -0.4161516295525556 -0.5139113946434484 -0.8750122130216913 0.8346627489626225 -0.1718999252779697 -0.6089219194511007 0.9488136690301829 -0.9603388272167357 -0.01842898399024151 -0.9680738257874146 -0.9962496727563644 0.11174711528520298 -0.6645904313731714 -0.783357611533951 0.1268176814631624 0.051615217920983 0.7541714229164139 0.7655687823796417 -0.3997307885308221 -0.3985297157181591 -0.28323493646678544 0.7326009439814226 0.17691467531549898 0.8668134474465987 0.29544816314852285 -0.6279207671251658 0.7544489092654945 -0.2695941818675126 -0.6032555738650065 0.0398395491307163 -0.60589744815603 0.4338124996190931 0.66025190849296 0.5368315723011708 -0.9304677905195389 -0.1859442238551159 0.20991686529603515 -0.842102287472969 -0.48804124045853714 0.6301752514434094 0.5995222609338722 0.4914821516375949 0.4326506955312527 -0.9661792413716381 0.27133144479488547 0.9698089155760069 -0.11618115536695417 -0.46182206488677324 0.2448577962449 -0.7680918446908451 0.42809583694588305 0.2512130589515926 -0.47820810841470474 -0.4808704889594051 0.47365207788153185 0.764959347074589 -0.6072158504541699 0.8566914668888548 -0.3203435074943981 -0.04323229344360857 -0.11900684025720853 0.5144731796761374 -0.1873902646235983 0.25739922314219754 -0.5156071658394645 0.811639924824409 0.13981489366965094 -0.7072922622259022 0.0714770788865482 -0.5943443191668423 0.16804137808872932 -0.49951099725220804 -0.2597189526653271 -0.24349814029284944 0.7937881105465587 0.5737719276265604 -0.9750019371546144 0.9980943537102467 0.23134526421004475 0.7701850772883093 0.49373097661948606 -0.7055559144317588 0.1653473846906548 0.05971417289041547 0.3502718524096906 -0.731604195074007 0.6593392452306404 -0.7622889804224542 -0.43317572403829396 -0.07697254826242228 0.3990428579953865 -0.09416426868319516 -0.3727860469625015 0.8341039172030291 -0.19909141161248345 0.1920020133503777 -0.44530402114248313 0.2773279320554364 -0.45009306041096453 0.23451302940699248 -0.7023438017180904 0.4143699998176572 -0.09349237373772024 0.4604610432686642 0.12238913239513538 -0.9584839520350908 -0.9630954336851494 0.13103530289047138 0.6461640438151643 0.59584532398984 -0.9473372943848803 0.2654230374849995 0.8767798508579798 -0.19537977409651197 -0.9896562980431739 -0.9288324722952402 0.8069582767136086 -0.7106140957378152 -0.08305654048575617 -0.7452998936631714 0.05280016992262526 -0.3706348584818083 neuralnet.OutputLayer@6ea440130.3079138852704554 0.7374306855245607 -0.8293678563289171 0.6878227285969991 0.6450285524982406 -0.6307631957352212 -0.3385708206010911 -0.6905493665179234 0.6209598969556357 0.26632066023554246 -0.9510763602413275 -0.8653016025809563 0.8114654821450914 0.3267678846397253 -0.8400797309829569 0.24169736493052862 0.5913741051710204 0.17104787285859013 -0.30838074731420495 -0.45934126738836467 -0.5306343547450321 0.3954374249178185 7.92312728476352E-4 0.8564731604703341 -0.6186141644534842 -0.9591646876245326 0.10368751109412866 -0.9828454279071507 0.8732491816474506 -0.5118976875468833 0.2140988354030675 -0.752958308559338 -0.00878366941561659 0.2495491294335147 -0.687783081339526 -0.35668184236625966 0.8633834913873217 0.7452168066254549 -0.15366727175835915 0.34531851442720574 -0.6161520984105289 0.18781577398071325 0.7983905808375622 0.7986025544122238 -0.42055120047540684 0.8791478779475853 -0.3226463953427977 0.1771297109449086 -0.6465649999175139 -0.8070527539745137 0.0852959431795568 0.011153661571421614 -0.4459394373284983 -0.8943731345709859 -0.016606327518948194 0.6266572444950512 -0.8643823321709163 -0.41942520526014104 -0.3187536555649203 -0.5678859653319928 -0.5240864176553247 -0.6715554446299207 0.5052915464861968 -0.01517908675549462 0.33319290162391424 -0.7077572520202315 0.551923313371923 -0.7264035795375675 -0.9031179717646055 0.6507234945979564 0.48911087521770813 -0.29423943233281535 0.7745457245638329 -0.37268424599443717 -0.012967785386152508 0.869354332386961 -0.08926905178891509 -0.9629222300438854 -0.40694137467076197 -0.46125354827964404 -0.5650645057596992 0.32540419722002345 -0.8617041983263157 0.43221544269446266 -0.6468358320212918 0.04569709045743853 0.6001255205818001 0.5397598452806014 -0.4678198692602836 -0.09288570246921912 0.6354938325207772 0.09113346363021413 0.3637544127400564 0.9878687095018066 0.24012923132432762 -0.6023502892361433 -0.6415254601814113 -0.33371928186580235 -0.4641111636331542 -0.6067476687691394 0.20987164655548662 0.654677104708867 -0.9921515745346575 0.034185625845076784 0.3290261552336632 -0.9640586274147066 -0.5702380934333499 -0.8473334725774738 0.5010458718725195 0.8765980180748473 -0.33430627796090107 0.5554910841328766 -0.8841151503638489 0.22316528726555296 0.8109144275273988 -0.6824004165241241 0.31927094686783786 0.6514298532820213 0.13986942682831494 -0.6557447052769275 -0.4082092874849722 -0.9755535359859415 0.8258748141289209 0.4115123745270274 0.35657637679668863 0.3894822453266792 -0.2417621748593023 0.38778576074081283 -0.3659425228061106 0.593727673189397 -0.7608179291478568 -0.9188082410648232 -0.11423575077835801 -0.017831959377765494 -0.7638947021880947 -0.16362195292536896 -0.36754438414552393 -0.3607799538595452 -0.1054990201478887 0.3561591678775211 0.2935288992332594 0.9011212961051662 0.4929077602127667 -0.7203570246147761 0.807753750600174 0.07303591668135045 -0.8875439659818136 -0.6112222094297538 0.7772470774448158 0.3796909388785684 -0.721719634346074 0.3153458147997601 -0.8209770296878339 -0.47074640140948165 -0.6540452798155507 -0.29677410525944414 0.6475468721824332 -0.0828641559519192 0.7002546287284829 0.6659758562000899 -0.7819967996207304 0.40138472346763987 0.012403059803130168 0.3340435092320899 0.4883336777439332 0.8780737777540173 0.08133330777218983 0.3726790799593239 -0.10222310427023928 0.12931614878717068 0.7395992922181843 -0.3187520741707076 0.2042722949572774 -0.16428650225091102 0.1199521017510412 0.46435034868994574 -0.0193101867899913 -0.6113501689733906 -0.7017756697958552 -0.5509470225521736 -0.2672061833217724 -0.47287472296690214 0.10534400843827496 -0.03840390635176372 0.9969049243099163 0.6019661436759588 -0.7512691411760251 -0.3309836554569545 -0.08648284965026087 0.8522823926039129 -0.07691909778353156 0.13094198305148408 0.440169674918938 -0.19811297279425422 0.804064883868334 0.535977456076432 -0.30745532654586727 -0.7441679808911096 -0.20342586132802132 0.554074514758358 0.25132316615023687 0.3299173526609849 -0.39796276519335094 0.6064387168714315 -0.5075881144990797 0.08153097457660752 0.136573940006808 0.8200694638297763 0.6727644406842821 0.15289450214379674 -0.00770506543038052 0.8240805777554692 -0.7994581518044852 0.08400827314992287 0.5162153343283081 -0.5145260049445272 0.03854872887636751 -0.27952271606242085 -0.9272750303894589 -0.15410895251125567 -0.18012537763445857 0.22099261174072815 0.6534158872412023 0.37777354314090383 0.014973762830173265 -0.7275426471766897 -0.9412435753944192 -0.7550711289699623 -0.6150871291798913 -0.8686297710007161 -0.6345614320479156 -0.6578114314544455 -0.7745366866221332 0.33377747930206747 0.6364088324673834 -0.6379712211579951 0.27474499090323523 0.33041410530913207 -0.23780916407392305 0.1499101192552431 0.081250898100656 -0.19200702610276044 0.7360686126489665 -0.13120409638802943 0.551677165122086 0.12325330460042039 0.46533859682258816 0.49779763232501806 -0.004188431350923949 0.5965137002386095 0.6688569947446336 0.4880263924937911 0.41992628813949984 0.55112647523687 0.3795719520518229 0.8352261186307461 0.9861849600690401 0.031316027455068896 -0.20891342618030695 0.7952291216052909 0.3333962475720399 0.3421912242716859 -0.4996329246872593 -0.8468159434847974 0.9582783140031405 -0.38708459238363724 0.8046861765528913 -0.40378629950870637 -0.31512041944252855 0.8396369952533592 0.4193465820126653 0.8638873192572969 0.735933658592502 0.5932418967354608 0.4626061954452162 -0.959252011577922 -0.6189021453360076 0.2245756582839643 -0.4161516295525556 -0.5139113946434484 -0.8750122130216913 0.8346627489626225 -0.1718999252779697 -0.6089219194511007 0.9488136690301829 -0.9603388272167357 -0.01842898399024151 -0.9680738257874146 -0.9962496727563644 0.11174711528520298 -0.6645904313731714 -0.783357611533951 0.1268176814631624 0.051615217920983 0.7541714229164139 0.7655687823796417 -0.3997307885308221 -0.3985297157181591 -0.28323493646678544 0.7326009439814226 0.17691467531549898 0.8668134474465987 0.29544816314852285 -0.6279207671251658 0.7544489092654945 -0.2695941818675126 -0.6032555738650065 0.0398395491307163 -0.60589744815603 0.4338124996190931 0.66025190849296 0.5368315723011708 -0.9304677905195389 -0.1859442238551159 0.20991686529603515 -0.842102287472969 -0.48804124045853714 0.6301752514434094 0.5995222609338722 0.4914821516375949 0.4326506955312527 -0.9661792413716381 0.27133144479488547 0.9698089155760069 -0.11618115536695417 -0.46182206488677324 0.2448577962449 -0.7680918446908451 0.42809583694588305 0.2512130589515926 -0.47820810841470474 -0.4808704889594051 0.47365207788153185 0.764959347074589 -0.6072158504541699 0.8566914668888548 -0.3203435074943981 -0.04323229344360857 -0.11900684025720853 0.5144731796761374 -0.1873902646235983 0.25739922314219754 -0.5156071658394645 0.811639924824409 0.13981489366965094 -0.7072922622259022 0.0714770788865482 -0.5943443191668423 0.16804137808872932 -0.49951099725220804 -0.2597189526653271 -0.24349814029284944 0.7937881105465587 0.5737719276265604 -0.9750019371546144 0.9980943537102467 0.23134526421004475 0.7701850772883093 0.49373097661948606 -0.7055559144317588 0.1653473846906548 0.05971417289041547 0.3502718524096906 -0.731604195074007 0.6593392452306404 -0.7622889804224542 -0.43317572403829396 -0.07697254826242228 0.3990428579953865 -0.09416426868319516 -0.3727860469625015 0.8341039172030291 -0.19909141161248345 0.1920020133503777 -0.44530402114248313 0.2773279320554364 -0.45009306041096453 0.23451302940699248 -0.7023438017180904 0.4143699998176572 -0.09349237373772024 0.4604610432686642 0.12238913239513538 -0.9584839520350908 -0.9630954336851494 0.13103530289047138 0.6461640438151643 0.59584532398984 -0.9473372943848803 0.2654230374849995 0.8767798508579798 -0.19537977409651197 -0.9896562980431739 -0.9288324722952402 0.8069582767136086 -0.7106140957378152 -0.08305654048575617 -0.7452998936631714 0.05280016992262526 -0.3706348584818083 neuralnet.OutputLayer@26590190.3079138852704554 0.7374306855245607 -0.8293678563289171 0.6878227285969991 0.6450285524982406 -0.6307631957352212 -0.3385708206010911 -0.6905493665179234 0.6209598969556357 0.26632066023554246 -0.9510763602413275 -0.8653016025809563 0.8114654821450914 0.3267678846397253 -0.8400797309829569 0.24169736493052862 0.5913741051710204 0.17104787285859013 -0.30838074731420495 -0.45934126738836467 -0.5306343547450321 0.3954374249178185 7.92312728476352E-4 0.8564731604703341 -0.6186141644534842 -0.9591646876245326 0.10368751109412866 -0.9828454279071507 0.8732491816474506 -0.5118976875468833 0.2140988354030675 -0.752958308559338 -0.00878366941561659 0.2495491294335147 -0.687783081339526 -0.35668184236625966 0.8633834913873217 0.7452168066254549 -0.15366727175835915 0.34531851442720574 -0.6161520984105289 0.18781577398071325 0.7983905808375622 0.7986025544122238 -0.42055120047540684 0.8791478779475853 -0.3226463953427977 0.1771297109449086 -0.6465649999175139 -0.8070527539745137 0.0852959431795568 0.011153661571421614 -0.4459394373284983 -0.8943731345709859 -0.016606327518948194 0.6266572444950512 -0.8643823321709163 -0.41942520526014104 -0.3187536555649203 -0.5678859653319928 -0.5240864176553247 -0.6715554446299207 0.5052915464861968 -0.01517908675549462 0.33319290162391424 -0.7077572520202315 0.551923313371923 -0.7264035795375675 -0.9031179717646055 0.6507234945979564 0.48911087521770813 -0.29423943233281535 0.7745457245638329 -0.37268424599443717 -0.012967785386152508 0.869354332386961 -0.08926905178891509 -0.9629222300438854 -0.40694137467076197 -0.46125354827964404 -0.5650645057596992 0.32540419722002345 -0.8617041983263157 0.43221544269446266 -0.6468358320212918 0.04569709045743853 0.6001255205818001 0.5397598452806014 -0.4678198692602836 -0.09288570246921912 0.6354938325207772 0.09113346363021413 0.3637544127400564 0.9878687095018066 0.24012923132432762 -0.6023502892361433 -0.6415254601814113 -0.33371928186580235 -0.4641111636331542 -0.6067476687691394 0.20987164655548662 0.654677104708867 -0.9921515745346575 0.034185625845076784 0.3290261552336632 -0.9640586274147066 -0.5702380934333499 -0.8473334725774738 0.5010458718725195 0.8765980180748473 -0.33430627796090107 0.5554910841328766 -0.8841151503638489 0.22316528726555296 0.8109144275273988 -0.6824004165241241 0.31927094686783786 0.6514298532820213 0.13986942682831494 -0.6557447052769275 -0.4082092874849722 -0.9755535359859415 0.8258748141289209 0.4115123745270274 0.35657637679668863 0.3894822453266792 -0.2417621748593023 0.38778576074081283 -0.3659425228061106 0.593727673189397 -0.7608179291478568 -0.9188082410648232 -0.11423575077835801 -0.017831959377765494 -0.7638947021880947 -0.16362195292536896 -0.36754438414552393 -0.3607799538595452 -0.1054990201478887 0.3561591678775211 0.2935288992332594 0.9011212961051662 0.4929077602127667 -0.7203570246147761 0.807753750600174 0.07303591668135045 -0.8875439659818136 -0.6112222094297538 0.7772470774448158 0.3796909388785684 -0.721719634346074 0.3153458147997601 -0.8209770296878339 -0.47074640140948165 -0.6540452798155507 -0.29677410525944414 0.6475468721824332 -0.0828641559519192 0.7002546287284829 0.6659758562000899 -0.7819967996207304 0.40138472346763987 0.012403059803130168 0.3340435092320899 0.4883336777439332 0.8780737777540173 0.08133330777218983 0.3726790799593239 -0.10222310427023928 0.12931614878717068 0.7395992922181843 -0.3187520741707076 0.2042722949572774 -0.16428650225091102 0.1199521017510412 0.46435034868994574 -0.0193101867899913 -0.6113501689733906 -0.7017756697958552 -0.5509470225521736 -0.2672061833217724 -0.47287472296690214 0.10534400843827496 -0.03840390635176372 0.9969049243099163 0.6019661436759588 -0.7512691411760251 -0.3309836554569545 -0.08648284965026087 0.8522823926039129 -0.07691909778353156 0.13094198305148408 0.440169674918938 -0.19811297279425422 0.804064883868334 0.535977456076432 -0.30745532654586727 -0.7441679808911096 -0.20342586132802132 0.554074514758358 0.25132316615023687 0.3299173526609849 -0.39796276519335094 0.6064387168714315 -0.5075881144990797 0.08153097457660752 0.136573940006808 0.8200694638297763 0.6727644406842821 0.15289450214379674 -0.00770506543038052 0.8240805777554692 -0.7994581518044852 0.08400827314992287 0.5162153343283081 -0.5145260049445272 0.03854872887636751 -0.27952271606242085 -0.9272750303894589 -0.15410895251125567 -0.18012537763445857 0.22099261174072815 0.6534158872412023 0.37777354314090383 0.014973762830173265 -0.7275426471766897 -0.9412435753944192 -0.7550711289699623 -0.6150871291798913 -0.8686297710007161 -0.6345614320479156 -0.6578114314544455 -0.7745366866221332 0.33377747930206747 0.6364088324673834 -0.6379712211579951 0.27474499090323523 0.33041410530913207 -0.23780916407392305 0.1499101192552431 0.081250898100656 -0.19200702610276044 0.7360686126489665 -0.13120409638802943 0.551677165122086 0.12325330460042039 0.46533859682258816 0.49779763232501806 -0.004188431350923949 0.5965137002386095 0.6688569947446336 0.4880263924937911 0.41992628813949984 0.55112647523687 0.3795719520518229 0.8352261186307461 0.9861849600690401 0.031316027455068896 -0.20891342618030695 0.7952291216052909 0.3333962475720399 0.3421912242716859 -0.4996329246872593 -0.8468159434847974 0.9582783140031405 -0.38708459238363724 0.8046861765528913 -0.40378629950870637 -0.31512041944252855 0.8396369952533592 0.4193465820126653 0.8638873192572969 0.735933658592502 0.5932418967354608 0.4626061954452162 -0.959252011577922 -0.6189021453360076 0.2245756582839643 -0.4161516295525556 -0.5139113946434484 -0.8750122130216913 0.8346627489626225 -0.1718999252779697 -0.6089219194511007 0.9488136690301829 -0.9603388272167357 -0.01842898399024151 -0.9680738257874146 -0.9962496727563644 0.11174711528520298 -0.6645904313731714 -0.783357611533951 0.1268176814631624 0.051615217920983 0.7541714229164139 0.7655687823796417 -0.3997307885308221 -0.3985297157181591 -0.28323493646678544 0.7326009439814226 0.17691467531549898 0.8668134474465987 0.29544816314852285 -0.6279207671251658 0.7544489092654945 -0.2695941818675126 -0.6032555738650065 0.0398395491307163 -0.60589744815603 0.4338124996190931 0.66025190849296 0.5368315723011708 -0.9304677905195389 -0.1859442238551159 0.20991686529603515 -0.842102287472969 -0.48804124045853714 0.6301752514434094 0.5995222609338722 0.4914821516375949 0.4326506955312527 -0.9661792413716381 0.27133144479488547 0.9698089155760069 -0.11618115536695417 -0.46182206488677324 0.2448577962449 -0.7680918446908451 0.42809583694588305 0.2512130589515926 -0.47820810841470474 -0.4808704889594051 0.47365207788153185 0.764959347074589 -0.6072158504541699 0.8566914668888548 -0.3203435074943981 -0.04323229344360857 -0.11900684025720853 0.5144731796761374 -0.1873902646235983 0.25739922314219754 -0.5156071658394645 0.811639924824409 0.13981489366965094 -0.7072922622259022 0.0714770788865482 -0.5943443191668423 0.16804137808872932 -0.49951099725220804 -0.2597189526653271 -0.24349814029284944 0.7937881105465587 0.5737719276265604 -0.9750019371546144 0.9980943537102467 0.23134526421004475 0.7701850772883093 0.49373097661948606 -0.7055559144317588 0.1653473846906548 0.05971417289041547 0.3502718524096906 -0.731604195074007 0.6593392452306404 -0.7622889804224542 -0.43317572403829396 -0.07697254826242228 0.3990428579953865 -0.09416426868319516 -0.3727860469625015 0.8341039172030291 -0.19909141161248345 0.1920020133503777 -0.44530402114248313 0.2773279320554364 -0.45009306041096453 0.23451302940699248 -0.7023438017180904 0.4143699998176572 -0.09349237373772024 0.4604610432686642 0.12238913239513538 -0.9584839520350908 -0.9630954336851494 0.13103530289047138 0.6461640438151643 0.59584532398984 -0.9473372943848803 0.2654230374849995 0.8767798508579798 -0.19537977409651197 -0.9896562980431739 -0.9288324722952402 0.8069582767136086 -0.7106140957378152 -0.08305654048575617 -0.7452998936631714 0.05280016992262526 -0.3706348584818083 neuralnet.OutputLayer@1744a2b70.3079138852704554 0.7374306855245607 -0.8293678563289171 0.6878227285969991 0.6450285524982406 -0.6307631957352212 -0.3385708206010911 -0.6905493665179234 0.6209598969556357 0.26632066023554246 -0.9510763602413275 -0.8653016025809563 0.8114654821450914 0.3267678846397253 -0.8400797309829569 0.24169736493052862 0.5913741051710204 0.17104787285859013 -0.30838074731420495 -0.45934126738836467 -0.5306343547450321 0.3954374249178185 7.92312728476352E-4 0.8564731604703341 -0.6186141644534842 -0.9591646876245326 0.10368751109412866 -0.9828454279071507 0.8732491816474506 -0.5118976875468833 0.2140988354030675 -0.752958308559338 -0.00878366941561659 0.2495491294335147 -0.687783081339526 -0.35668184236625966 0.8633834913873217 0.7452168066254549 -0.15366727175835915 0.34531851442720574 -0.6161520984105289 0.18781577398071325 0.7983905808375622 0.7986025544122238 -0.42055120047540684 0.8791478779475853 -0.3226463953427977 0.1771297109449086 -0.6465649999175139 -0.8070527539745137 0.0852959431795568 0.011153661571421614 -0.4459394373284983 -0.8943731345709859 -0.016606327518948194 0.6266572444950512 -0.8643823321709163 -0.41942520526014104 -0.3187536555649203 -0.5678859653319928 -0.5240864176553247 -0.6715554446299207 0.5052915464861968 -0.01517908675549462 0.33319290162391424 -0.7077572520202315 0.551923313371923 -0.7264035795375675 -0.9031179717646055 0.6507234945979564 0.48911087521770813 -0.29423943233281535 0.7745457245638329 -0.37268424599443717 -0.012967785386152508 0.869354332386961 -0.08926905178891509 -0.9629222300438854 -0.40694137467076197 -0.46125354827964404 -0.5650645057596992 0.32540419722002345 -0.8617041983263157 0.43221544269446266 -0.6468358320212918 0.04569709045743853 0.6001255205818001 0.5397598452806014 -0.4678198692602836 -0.09288570246921912 0.6354938325207772 0.09113346363021413 0.3637544127400564 0.9878687095018066 0.24012923132432762 -0.6023502892361433 -0.6415254601814113 -0.33371928186580235 -0.4641111636331542 -0.6067476687691394 0.20987164655548662 0.654677104708867 -0.9921515745346575 0.034185625845076784 0.3290261552336632 -0.9640586274147066 -0.5702380934333499 -0.8473334725774738 0.5010458718725195 0.8765980180748473 -0.33430627796090107 0.5554910841328766 -0.8841151503638489 0.22316528726555296 0.8109144275273988 -0.6824004165241241 0.31927094686783786 0.6514298532820213 0.13986942682831494 -0.6557447052769275 -0.4082092874849722 -0.9755535359859415 0.8258748141289209 0.4115123745270274 0.35657637679668863 0.3894822453266792 -0.2417621748593023 0.38778576074081283 -0.3659425228061106 0.593727673189397 -0.7608179291478568 -0.9188082410648232 -0.11423575077835801 -0.017831959377765494 -0.7638947021880947 -0.16362195292536896 -0.36754438414552393 -0.3607799538595452 -0.1054990201478887 0.3561591678775211 0.2935288992332594 0.9011212961051662 0.4929077602127667 -0.7203570246147761 0.807753750600174 0.07303591668135045 -0.8875439659818136 -0.6112222094297538 0.7772470774448158 0.3796909388785684 -0.721719634346074 0.3153458147997601 -0.8209770296878339 -0.47074640140948165 -0.6540452798155507 -0.29677410525944414 0.6475468721824332 -0.0828641559519192 0.7002546287284829 0.6659758562000899 -0.7819967996207304 0.40138472346763987 0.012403059803130168 0.3340435092320899 0.4883336777439332 0.8780737777540173 0.08133330777218983 0.3726790799593239 -0.10222310427023928 0.12931614878717068 0.7395992922181843 -0.3187520741707076 0.2042722949572774 -0.16428650225091102 0.1199521017510412 0.46435034868994574 -0.0193101867899913 -0.6113501689733906 -0.7017756697958552 -0.5509470225521736 -0.2672061833217724 -0.47287472296690214 0.10534400843827496 -0.03840390635176372 0.9969049243099163 0.6019661436759588 -0.7512691411760251 -0.3309836554569545 -0.08648284965026087 0.8522823926039129 -0.07691909778353156 0.13094198305148408 0.440169674918938 -0.19811297279425422 0.804064883868334 0.535977456076432 -0.30745532654586727 -0.7441679808911096 -0.20342586132802132 0.554074514758358 0.25132316615023687 0.3299173526609849 -0.39796276519335094 0.6064387168714315 -0.5075881144990797 0.08153097457660752 0.136573940006808 0.8200694638297763 0.6727644406842821 0.15289450214379674 -0.00770506543038052 0.8240805777554692 -0.7994581518044852 0.08400827314992287 0.5162153343283081 -0.5145260049445272 0.03854872887636751 -0.27952271606242085 -0.9272750303894589 -0.15410895251125567 -0.18012537763445857 0.22099261174072815 0.6534158872412023 0.37777354314090383 0.014973762830173265 -0.7275426471766897 -0.9412435753944192 -0.7550711289699623 -0.6150871291798913 -0.8686297710007161 -0.6345614320479156 -0.6578114314544455 -0.7745366866221332 0.33377747930206747 0.6364088324673834 -0.6379712211579951 0.27474499090323523 0.33041410530913207 -0.23780916407392305 0.1499101192552431 0.081250898100656 -0.19200702610276044 0.7360686126489665 -0.13120409638802943 0.551677165122086 0.12325330460042039 0.46533859682258816 0.49779763232501806 -0.004188431350923949 0.5965137002386095 0.6688569947446336 0.4880263924937911 0.41992628813949984 0.55112647523687 0.3795719520518229 0.8352261186307461 0.9861849600690401 0.031316027455068896 -0.20891342618030695 0.7952291216052909 0.3333962475720399 0.3421912242716859 -0.4996329246872593 -0.8468159434847974 0.9582783140031405 -0.38708459238363724 0.8046861765528913 -0.40378629950870637 -0.31512041944252855 0.8396369952533592 0.4193465820126653 0.8638873192572969 0.735933658592502 0.5932418967354608 0.4626061954452162 -0.959252011577922 -0.6189021453360076 0.2245756582839643 -0.4161516295525556 -0.5139113946434484 -0.8750122130216913 0.8346627489626225 -0.1718999252779697 -0.6089219194511007 0.9488136690301829 -0.9603388272167357 -0.01842898399024151 -0.9680738257874146 -0.9962496727563644 0.11174711528520298 -0.6645904313731714 -0.783357611533951 0.1268176814631624 0.051615217920983 0.7541714229164139 0.7655687823796417 -0.3997307885308221 -0.3985297157181591 -0.28323493646678544 0.7326009439814226 0.17691467531549898 0.8668134474465987 0.29544816314852285 -0.6279207671251658 0.7544489092654945 -0.2695941818675126 -0.6032555738650065 0.0398395491307163 -0.60589744815603 0.4338124996190931 0.66025190849296 0.5368315723011708 -0.9304677905195389 -0.1859442238551159 0.20991686529603515 -0.842102287472969 -0.48804124045853714 0.6301752514434094 0.5995222609338722 0.4914821516375949 0.4326506955312527 -0.9661792413716381 0.27133144479488547 0.9698089155760069 -0.11618115536695417 -0.46182206488677324 0.2448577962449 -0.7680918446908451 0.42809583694588305 0.2512130589515926 -0.47820810841470474 -0.4808704889594051 0.47365207788153185 0.764959347074589 -0.6072158504541699 0.8566914668888548 -0.3203435074943981 -0.04323229344360857 -0.11900684025720853 0.5144731796761374 -0.1873902646235983 0.25739922314219754 -0.5156071658394645 0.811639924824409 0.13981489366965094 -0.7072922622259022 0.0714770788865482 -0.5943443191668423 0.16804137808872932 -0.49951099725220804 -0.2597189526653271 -0.24349814029284944 0.7937881105465587 0.5737719276265604 -0.9750019371546144 0.9980943537102467 0.23134526421004475 0.7701850772883093 0.49373097661948606 -0.7055559144317588 0.1653473846906548 0.05971417289041547 0.3502718524096906 -0.731604195074007 0.6593392452306404 -0.7622889804224542 -0.43317572403829396 -0.07697254826242228 0.3990428579953865 -0.09416426868319516 -0.3727860469625015 0.8341039172030291 -0.19909141161248345 0.1920020133503777 -0.44530402114248313 0.2773279320554364 -0.45009306041096453 0.23451302940699248 -0.7023438017180904 0.4143699998176572 -0.09349237373772024 0.4604610432686642 0.12238913239513538 -0.9584839520350908 -0.9630954336851494 0.13103530289047138 0.6461640438151643 0.59584532398984 -0.9473372943848803 0.2654230374849995 0.8767798508579798 -0.19537977409651197 -0.9896562980431739 -0.9288324722952402 0.8069582767136086 -0.7106140957378152 -0.08305654048575617 -0.7452998936631714 0.05280016992262526 -0.3706348584818083 neuralnet.OutputLayer@34e8d001-0.767960763297979 0.4543322033688786 -0.8673133972462846 0.23653500919355608 0.4201568762926876 -0.7527106055623868 0.6597697745131303 -0.6808031518696714 0.8910187978499078 -0.8928177395607677 0.48130455041004416 -0.046156611880717624 0.3760900655904683 0.9763263979371187 0.5688430150625627 0.5376676154482498 0.3788598115013808 -0.48694348510524665 -0.5178079082733092 -0.6372335403818212 0.9818699182309395 0.5397054705301277 0.8433412022922552 -0.3681493465594343 0.56966257100796 -0.8040904523443723 -0.32366711302290774 0.27266404494517005 -0.13899154684514226 -0.08850170757987286 -0.20149185614386889 0.20394001402693018 0.3796360323443516 -0.5392772265181247 -0.6321406948896539 -0.6001828889662825 0.5653950178363072 -0.5850306893668573 -0.3724488270954297 0.31344678289704675 0.05629676465738176 -0.3965016215689863 0.40941227211721065 0.6503390687892459 -0.7154966570574253 -0.1528828113786891 0.8651078366456144 0.24597336245873302 0.8137804287455315 -0.5791088873354012 -0.5270816034614199 -0.3096120684443675 0.7992555590904683 0.8987493311509478 -0.3599303170358501 0.06677124234167175 -0.5710190954833905 0.25174700715734755 -0.8097244116764138 -0.3847055216846226 -0.8233943179527702 0.126284607832996 -0.0671794368618086 0.6032166575159489 0.48061559470379656 0.9791076504449743 -0.9232418354022038 -0.8448016667014466 0.002664112954733344 -0.6503563469210534 0.939642319158095 -0.8268099653921274 -0.30055169296654394 0.7112773085169317 0.6470231459748529 -0.17549061882366634 0.47269187541273583 -0.43750041926195726 -0.9965144945340259 -0.10705271729560528 0.40278343082942125 0.24433923842245164 -0.400580191662525 0.7359898654886246 0.3955510206275281 -0.7531734893607341 -0.6045010365510013 -0.24157820092389415 -0.7900215586701449 -0.11395302549201791 -0.6211256410902558 0.4574779947223838 0.12820612863614367 -0.6169026625022946 0.525656210375737 -0.10200194888648995 0.17810428274373813 -0.207694947244615 0.8319426251802422 -0.7097490115642523 0.632628748568707 0.4406460377772826 0.9235132675133979 -0.5573508161610048 -0.8419838788202199 0.6324928947452848 -0.9603066076790711 -0.3072479405564136 0.24296520246566888 -0.7803761799451625 0.561576579103986 0.3509322578252976 0.5509795908841904 0.1586742807416488 -0.2450944593612221 0.261881921848368 -0.65491446550268 -0.4033571674759806 -0.20604392850085462 -0.7383129305531295 -0.2553690944027458 0.10627483412485772 -0.8203674300701035 -0.28371730735487843 0.003639398086404677 6.149789357821067E-4 -0.6480771214775709 0.02638495957304876 0.3244314619566564 -0.1999022401781959 -0.9024918307428871 0.7020180431580973 -0.3764977354727356 -0.18654271265566724 -0.5243129514041469 0.9959267951098647 0.6929106118772986 -0.1204121299842641 0.6222370331068228 0.9607801673361887 -0.9969963294826915 0.8522497311526109 -0.6318441964090992 0.403289761048531 0.98387352967654 0.6910432921787009 -0.9604648006738912 -0.5357691036079549 0.6255861528015061 -0.3549048623700909 -0.2683720334318215 0.2937750353185392 -0.8676172705513332 0.12201229328586571 0.4043547741734067 -0.47468937342108186 0.744552443342799 0.36234507210247147 0.19232593942667608 0.4087094373072854 0.6537063287759916 0.9744027525072787 -0.2914521172529453 -0.35167473509158986 -0.2576848436612784 -0.9919804780692015 0.9303614230630096 0.22630596366913636 0.09555718389579848 -0.6121298270672961 -0.4438045603049371 -0.02565168486463154 -0.6089280151503532 -0.18683764037326112 -0.1858232054117397 0.0049894556038745375 0.25783118484030343 -0.6661602191941246 -0.6253538381771434 0.6169512120710118 -0.993913310997533 0.7035385515990842 0.7886989897327058 -0.8401543724730871 0.1226848430058668 0.8030566255238346 -0.7511181155605711 0.9655021523945428 0.06576395604539886 0.2384932109726685 -0.8146112982714769 0.6319527484584716 0.005176238831616442 -0.9941527419030068 0.49514551982455524 -0.8407501662490452 -0.32553544014385893 -0.464043204802873 -0.9899379666104182 -0.9167928669392508 -0.2791753594963521 0.6943153244943275 -0.9131618972244295 -0.59486470452728 0.26451414709121457 -0.5895059021245321 0.12080789877629527 -0.23414492304188816 0.5713285865112407 0.599482693827158 -0.9884879650414136 0.6257514702689151 0.17311781157255945 -0.7430399148740855 -0.46648039628079274 -0.22370444316809146 -0.3266861491088824 0.9539263128578911 -0.4276425786667054 0.08109667293122735 0.18789975185502816 0.11173811775638998 0.8865038707344607 -0.893180835269356 0.5973659504530497 -0.858249165387468 0.5508995234168416 0.10874502480869375 0.8315451084899258 0.8167015973405384 0.35832660361364876 -0.5431989133874079 0.44573486044108135 -0.317224710699905 0.019694527542891693 0.9717828921357919 0.05152945788824059 0.2979528846937357 0.06449936211120799 -0.8435334532860683 -0.623018082986685 0.016601824245589425 0.4346324672017814 -0.007662618215315331 -0.9048213892466636 -0.34794145544689425 -0.8411937185250655 -0.20830050611832018 -0.8155277400434141 -0.09522699509457677 -0.5539747895758642 -0.31925040244085656 -0.31669046983150007 -0.993086914782411 0.5340162965346672 -0.8025337555190845 0.8529983869174407 0.715513874452228 -0.3540214546465653 -0.5535787183787388 0.1474609617818624 -0.007472007416349458 0.1544206862329639 0.4102782544087883 -0.9460460603784541 -0.6044066183071158 0.21661752980589322 0.6960908842166817 -0.033769945846936045 -0.8810432605572756 -0.34091832170852965 -0.06328171907948688 -0.705641182656453 -0.4323707244964716 -0.8404457070928203 -0.311229108704114 0.12548918393931607 0.4142305516634842 -0.050127195946821024 0.3054075162315819 0.9086701829176874 -0.08130052550031919 0.47155816368530035 0.4238054635572741 0.9352649411683995 -0.6754064140693614 0.02233703271442522 0.323891421706449 0.27469646295690764 -0.1325878228196926 -0.7152919287124081 -0.9105166101489534 -0.6371808381971926 0.1224907429241956 -0.689915677047979 -0.24022574621078807 -0.4539357761335967 -0.5883745074931052 -0.38862234264155826 0.1943684616704735 0.5869794071950947 -0.0953254213589203 0.2948952440930055 0.307033744949858 0.8235707988944176 -0.9322026955291922 0.9252236434992559 -0.5580144376423386 0.3430246047647476 0.6934628291296417 -0.9151074568701858 -0.31620125953840594 -0.9636118769904068 0.9154841584088792 -0.6310815642098025 0.6917274651758394 0.7104387739428989 -0.8214088099644867 0.08208853429635987 -0.46302548995365744 -0.12853370409980425 0.9567979714444437 0.907688366456471 0.9748240419100245 -0.7023958837916604 -0.7447292614792128 -0.2516897325196079 0.5019516857279783 0.8756178659723365 -0.7093323114244606 0.24478904208486962 0.5039417170073929 -0.70198776378026 0.7259731883179268 0.8349512396168685 -0.7177635438954522 0.35964712549226663 0.9855424161209125 0.7808696737923596 0.9284581260797083 0.6318301194311817 -0.6608690770152051 -0.7328075938460552 -0.025808763750251096 -0.04247892936510578 -0.9882883799448661 -0.6662512011986153 0.7446830849094692 0.3446654668412782 -0.2626462755635537 -0.832718744316181 -0.9338230958906109 0.6359615853818181 -0.8342929492544076 -0.26155636947869065 -0.228726423559506 -0.3878665014749768 -0.11907316842770765 -0.7358468033123722 0.589238164739166 -0.3890284728681469 -0.41571020988148355 -0.18063377168518846 -0.055182481407516804 0.09433563602961781 0.09927047878755468 -0.831876184594189 -0.21192309503429707 0.00768987517904407 -0.7956844465670131 -0.432580744753001 -0.6209634563414144 -0.0013824371747347408 -0.8962961072717186 -0.3104224871899096 -0.5835917701478524 -0.8013961550527997 0.3773095228290937 -0.33570481690116927 -0.3367139718531964 0.04198285810876823 -0.9307283936111663 0.5495213729339139 -0.6601033935902192 0.5725292584762255 0.7938722093246219 0.7746023987405206 0.7520060044084371 0.5562952601934747 0.2615536043042258 -0.5324296950045048 0.5527205599580294 0.022902349366753616 0.9130755593074232 -0.726487493581365 0.5165035196836436 -0.7500885438190372 0.646295103802153 0.719373415066378 -0.019583941417184336 neuralnet.OutputLayer@7880aa570.5759290066496313 0.3973947916769569 0.46002689223635307 0.9767520984602118 0.9261090212942119 0.08462883166154644 0.16407652373753923 -0.5171619852931364 -0.019712037818360728 -0.7736978588409273 0.3551885024768028 0.16706521817095188 -0.2877784783121483 -0.23279857499703438 0.6674923383490672 -0.8790095765956932 0.24001097387760495 0.8655294472256998 -0.25064545839163777 0.7204476512812081 -0.3255969447470788 -0.5622280219380765 0.30024447524953923 0.9268197173228144 -0.24918972275977314 -0.37085749621593045 -0.5878834153893907 -0.7685129441911972 0.10831141295113911 -0.5112768227505594 -0.2557337038949208 0.2813254273474346 0.5104908110470984 -0.35769041156619596 -0.5152617949474376 0.2274608446444918 -0.783064941358335 -0.4853318302343129 0.47396191797955023 -0.9948566944238668 -0.9861545519752781 0.1574054169776431 -0.03588193723740407 0.5727343530008601 -0.6397575580270553 -0.4632227689791959 -0.5780696310351298 -0.22254469253420206 0.5747020247312107 0.07226462828982816 0.44864418458624467 -0.938370937483506 0.7079197399750408 -0.3167940950223166 0.16877304360014178 0.9344550580543504 0.5594664891072118 -0.21431406848713974 -0.5569716561835113 0.6915514336453777 -0.5969230849473879 0.8205891643767957 -0.41067325173559854 0.6201170582886814 -0.8067356770210001 0.5184521958077799 0.2819042740869748 -0.8439752606510857 0.005934455248456372 0.2966051405384438 -0.7402648364253283 0.6067435719401166 -0.004709051450464186 0.8150463241791196 0.9634191642900087 0.9888677615007405 0.3663859439627718 -0.28759855963127656 0.27059221572473025 -0.20875966995669726 -0.4857618876396773 0.12190596889621597 -0.11575725611669474 -0.47388411204213987 -0.8270353092259597 0.49621551120589735 -0.5990396696415896 0.4052987226812581 0.8676729048892136 -0.8875249881289496 -0.363635839671237 0.43138151140493497 0.24312522304980944 -0.004189966702466963 -0.11361226819041081 0.35363803216001255 -0.35899769096373413 -0.20252691001696677 0.6637413881771088 0.9532024706033846 0.15588341353165358 0.8473834695830114 0.2611186883131238 0.8141888217519104 -0.027835063294222473 0.42071925809424315 0.6833142217180115 0.34952847298616074 0.08274162716784128 -0.4875957937662979 -0.029488800223137823 -0.7024255672274736 0.13744906501818077 0.6965091711423294 0.3500861605577541 0.024847440045325575 -0.35354157987944146 -0.8986429788039767 -0.365753217496561 0.7704743271000907 0.6618439062117469 -0.9060400587328448 -0.3100734555346303 0.879554869633972 0.329604659086273 0.9246783322331057 -0.00576263438817981 0.19842955025544673 0.9040890145036222 0.6169001210902195 -0.6635605667668834 0.16902113206503078 -0.6340187471215342 0.6261967776567031 -0.2967951678710177 0.9583773735731891 -0.7879057618750064 0.8647974327842063 -0.41030911699972006 0.8114130517546584 -0.822143847112468 0.2631843573850672 0.20072848992972403 -0.9903217210612404 -0.8913390232716693 0.0908793297872077 -0.2352184681024857 0.5686778138771308 0.2706112554599708 0.29966209927085696 -0.01687321464352287 0.4946254704661609 0.5504424831126724 0.498017398111793 -0.7828028077852092 0.8541985800250318 0.06377238865491763 -0.8241060454110695 0.6018594614630149 -0.43459661968231145 -0.8951601829198954 -0.8688910114714158 0.8195649932656951 0.09348306247036309 0.4235289697404502 0.9070411468840575 -0.27779341138891056 -0.295811671989906 0.91003688431637 0.4366048312747588 -0.4791121748846475 -0.41915240938689735 -0.33326802718690185 -0.9522615031912068 0.5398015023107622 0.6165608638539778 -0.477363723746167 0.865494416536575 -0.055474095001877166 -0.36458917054432627 -0.4700077548282434 -0.6631066166411865 -0.2128350882257003 0.9356264356174164 -0.7846342712019353 0.7954757544032356 -0.2248614417334458 0.56381318904781 -0.9601163233259006 0.40829648729860035 0.4657075906732021 0.4752165385096998 0.9640821339174096 -0.45880007393344757 0.9474955589798495 0.4849288441088585 0.38138888247616787 0.11767372445377633 -0.6892604388180863 -0.38472962394683996 0.25880823966945365 -0.6916054127764084 0.38151193117147675 0.4634396231452581 0.7416074012868002 -0.704403700124241 -0.16215610718992746 0.590972475176495 -0.012204790428209322 0.6283351938985846 0.20805623378583948 -0.3655088558692565 0.7043796819938313 -0.9117936345908673 0.6285436505061378 0.9894491332700953 0.9766116193808854 -0.9164535084964701 0.09902659807487935 0.08075289971723731 0.08886264740729422 0.4940035910639907 -0.7084893496794591 0.633802287801211 0.3160172317987947 -0.9962192915204672 -0.5471147462835555 0.1460565422743597 0.1612255919102895 -0.7550221519127689 0.28263524570306886 -0.746013092931623 0.3828883352085829 -0.7267666564644157 -0.20671329267488248 -0.3636133076729706 0.9035178151503251 0.8141619747910595 0.4830964494049803 0.9075136976993656 -0.5522814504113184 0.4456212382352328 -0.1863695079646157 0.9693516768010823 -0.502607404288672 0.059217506731301106 0.11914214432759296 0.020186267634419774 -0.029773033156249462 0.013161738148805058 -0.9556852688904703 0.7873621526642114 0.37275418314793474 0.8329555838546154 -0.7393905551337369 -0.8319425695815674 0.11136378237413436 -0.08134416183609305 0.13216159245380266 -0.15240261314003933 0.0825282650597311 0.806734253694283 0.7572854979464606 -0.683482680418162 -0.3644893748341368 0.23679223612642664 0.20293184265557362 -0.8565592664262214 -0.10536166864021712 -0.23853771979485583 -0.9369705568409155 0.17090093199411538 -0.7590685339587299 -0.6185466523190781 -0.27195976704505553 -0.8025826784774666 -0.6590963751082347 0.7034786404127531 -0.04285366716769379 -0.4247691945932849 0.43953673149030936 -0.779781734030111 0.7355291817560661 -0.7052317734706317 -0.9700430308800103 -0.6411334966622879 0.7008245737071769 0.52168582730174 -0.5912177390691212 -0.9045780212175735 -0.9069464653603285 0.09964739690748259 0.8174140408611423 0.8897985365797701 0.6635182231839625 -0.6968854129879609 -0.2409683179150517 -0.03695629437750925 -0.052925797431647714 -0.38747087096351474 -0.06859255172277956 0.06030031767581978 -0.08002382287455356 -0.3456121169825873 -0.10103128795470917 0.6663619847508863 0.22765417065535942 -0.21223517613709353 -0.12476691859791755 -0.4436424509438557 0.7531903732215123 -0.6143883189172716 -0.3603455966874115 0.7607275774447877 0.42219545199634123 -0.6656697474393334 -0.12876192052494528 -0.26341877644403655 0.4018557513256025 -0.9888019373850542 -0.14541911839508592 0.29896970299624626 -0.41584914679469864 0.2706555516085658 -0.7287872409345738 -0.24531515615107924 0.7630044443578167 0.22351905599808775 -0.5914175958496649 0.573864934209078 -0.22581013915347548 -0.30396833426305303 0.738432090222906 -0.24618395479514787 -0.8987022295931764 -0.25165642252576903 0.18272117944596755 0.9947623124330254 -0.1685067471099405 -0.023561098040056128 0.10512434926857706 0.685324844496065 0.12602916772812467 0.15148567153692105 0.8552739216608818 0.049872361954508726 0.5417960823314267 0.12174451675491116 0.6265284561854427 -0.7491611133768223 -0.9247879689544812 -0.45793241141771324 -0.8492974599599026 -0.3261085574751178 0.9064946782006021 0.5540679638649955 -0.1111670249536163 -0.49344401572379404 0.693196413555629 0.8375285592802083 0.5390004292683656 0.30254724452536785 -0.6764223751645182 0.7337138967309201 -0.11682604156916354 -0.19754731516527768 0.20407919972469346 -0.6810135892514029 0.8570633982872746 -0.5486849138443357 -0.9336632294196563 0.21942473894226155 -0.26849958328593415 -0.04335296226351382 -0.4322577415543266 -0.3872142844607813 0.03174251481799495 -0.1950309408280927 -0.5102403065036074 0.6938058185752211 0.24249988433030423 -0.11355747722194642 -0.5413263747010856 -0.014957148535775566 0.010993232883047876 0.5477956926881595 -0.0928006284874281 0.28262849599251605 0.8869090891601329 0.3326196054603463 -0.47020279362578365 -0.06927531332964965 -0.8449563111552882 -0.998788040205033 0.061363465165224396 -0.8616831468548628 -0.08858293825240138 0.822329642703725 0.614356635749966 -0.5227254711242663 neuralnet.OutputLayer@56cb08060.5638598841056047 -0.2567234438593805 -0.8409982723632142 0.6184859704722918 0.5784689181987401 0.4050252386249614 0.5194150629748727 -0.507663120039156 -0.40351877298944616 0.717825281125211 0.7309232179056159 -0.9001649102359669 -0.4347152661935224 0.7126158680586379 0.10575149962777541 -0.886472565822752 -0.4448944833998407 0.0903355418966526 -0.08827011877205615 0.8059306394311452 -0.6312385808073051 0.12535537057509227 -0.07511466777365894 -0.09786759518290433 -0.8264633825800165 -0.9961973026937323 -0.21648363998064146 0.26502145727167215 0.6408758730297145 0.2579525232038512 0.2726690155205522 0.9992598136277737 0.9898022459835377 0.6934026321679704 -0.32069466982070727 -0.2995955780696177 0.5706745194112791 -0.7997411069000117 -0.5687105443836117 0.7780728004979143 0.8113734367172462 0.27370426260259995 -0.9321923301064773 0.7820815962591116 0.5768777894545566 -0.20435299314175137 0.49455937109788617 -0.509705056581863 0.0984643436205267 0.42205496826995725 0.6229482042733303 0.7556001135656997 0.4278271109158398 -0.2736262958855443 -0.8431102091600343 -0.8670379000275272 0.9160166479500211 0.43625705456930164 0.11142797465239429 0.5387431556958099 0.043382278193012436 0.7087542365799152 0.871186889687404 0.3531389692103607 -0.694831974585864 -0.6199936568148064 -0.6697748191736739 -0.2707220419144267 -0.9570518562800803 -0.3668005177871426 0.1139235319131594 0.48273304370681225 0.5939497281706804 -0.891335355296273 0.6433214869660012 0.9132574807189611 0.88212884619691 -0.6398541378944311 -0.9526057342271794 0.6637025966467809 -0.6953467602305754 -0.10921042011086812 0.7030719790744288 -0.7965898445493663 0.16757908604526617 -0.8973669262069855 0.6396702129949708 -0.5141305909857774 0.9217517445959282 -0.8925528329714131 -0.30347966695217676 0.5709418320924371 0.455441757246982 -0.11023810287377378 0.29202766741641206 0.6152109384151934 0.8594570441148311 -0.8783162913597465 -0.06940635871545697 0.26161298599838945 0.5233314546839923 0.5124911951540713 -0.7683670887846022 -0.46007921276499375 -0.48806192980160756 0.8646352372086566 0.7624939268664542 -0.5917565830032806 0.7591441760364703 -0.39579130986805 0.35402249705979694 0.8046902711929407 -0.7180774092951616 0.9826044608115131 -0.2072636520293648 0.8668351395362892 0.9320433626162358 -0.8967616987505039 0.845427038382828 0.9405782308618691 -0.035151506904258945 -0.46896337837983915 0.8681667610005834 0.3122943657278353 0.20179300273337086 -0.7170783831392867 0.779243627932872 0.7284999103819898 0.8159272544147751 -0.8133230716092809 -0.20907546677742894 -0.2677287706584123 -0.2178212632652693 -0.18286098867872258 -0.03602965305185801 0.4587798968070518 -0.9535736413811001 -0.22170544048280982 0.6966983820070474 0.6539260475505457 0.2025783209562828 -0.024888225318618118 -0.3783263311948588 -0.5326214085359169 -0.6168261438036414 -0.39079107092159915 0.8517572039903352 0.7284692363531972 0.6088128920553183 -0.9909465726157749 -0.0034320865613353124 0.44131501106990056 0.6817326995906222 0.5614561236241544 -0.8768807228064893 -0.3178884153876824 -0.9897688674956308 0.11171484537901077 -0.26745684373432965 -0.2085265458706962 0.4088884776518791 0.3317843507939031 -0.40014298673609916 -0.8803997101607148 -0.18545165376719042 0.9780944303126347 -0.18351386547870419 -0.20960475625191477 0.1040388670361152 0.35376978306895035 -0.2140833283664726 0.2378053818464212 0.3952831751165232 0.006561265111425296 0.06099651783855087 -0.8341791533562168 -0.3082310678456611 0.008194456724716415 0.4459658792328902 -0.8281398368748495 0.8087045682118069 0.5193654012569293 0.4956088060039635 0.42766206552032415 0.7493415498017483 0.6154306210410715 -0.4343364623675543 -0.5448515352845384 0.11802242954502151 0.07098636719418372 -0.3501128238711161 -0.6132525287070124 -0.4669726641826182 0.43892665569777956 -0.013618949456419949 0.9269704957843663 -0.907874730839586 -0.05500264371500663 -0.4552300616670787 -0.9019010415230129 -0.2638559843214847 0.5079919911097284 0.09178491233945585 0.3680080627440714 0.324488402791401 -0.6839008776071712 0.2602960768904191 -0.17033920220633314 0.589370687280134 0.49092899467924633 0.45982510426359047 0.1837491581306241 0.06494738400185973 0.2737041580426479 -0.7816437179625163 -0.38068294012298387 0.020346993119696122 -0.8838373468179247 -0.35144479430614495 -0.4101792701190229 0.2728504287113944 0.9669284329521703 -0.19163314525232966 0.5386971835545166 0.16476335409620801 0.7493692597832639 -0.7421560370636737 -0.01928195491524798 0.5846749568111926 -0.4619256174539518 0.6917737621943051 -0.0683168063360794 -0.43490659387099817 -0.31129238575693596 0.10142021442121785 -0.5152928807358009 0.04251319949652721 0.2626654485793124 -0.9519481475915824 0.6386969331524401 -0.09418522880503633 0.5381075311921191 0.7348262757744758 0.12271723096660148 0.5519020709414909 0.4088189742870335 0.1703713392551801 -0.44524115403245323 0.1154103143534232 -0.3398280243726548 -0.2852625278865175 0.4978277108801764 -0.8717068805834984 0.7672210617758437 0.1833624678697351 -0.2000255248658579 0.11563659938156401 0.1956009070049508 -0.1862616974712975 0.5444943310798187 0.05102847673099975 0.5851930964008533 -0.7615837803610104 0.3055189425668291 0.4174920548902279 -0.5348538166719111 0.9820289565824456 -0.43705212953909833 -0.9279909240682186 -0.23568313552860964 0.34371747175875256 0.7363529555651649 -0.8489872537985315 0.742958876338932 0.13366783134534876 0.5542376067584258 -0.1766883521262913 -0.34918899639650236 -0.9932859399083616 -0.6161806652824883 -0.027531831189673173 0.4067913944972782 -0.1601602825345494 0.7551812624383707 0.5338315995401114 0.5613287308045297 -0.8940163589707834 -0.033068461805192406 0.6177262065632597 -0.669131324901691 0.7352708891696768 0.2500216522926463 -0.9004011179481227 -0.6559270965584006 -0.13253205234642162 -0.8194187819793028 0.6644999822475834 -0.9086557716397206 0.8862961397989576 0.6068800772568206 0.45573411922509555 -0.22389856533686603 0.4968014794371304 -0.6779455203089579 -0.6711136584877199 -0.8978913497502117 -0.46978493341889227 0.6521345505801874 0.07008351218914866 -0.5575778358244425 0.9149698513928287 -0.5858380355690841 -0.14695041848152068 0.19031883238827696 0.4754577567160684 -0.24535883708271233 0.21938984528631278 0.9309532954667901 0.15879082550195622 -0.076049365107686 0.24110042588910785 -0.6436309222216349 0.05071319326524526 -0.6557450291580335 -0.4815712976382712 -0.29034803850127844 0.34071843950179426 -0.5496195643826178 -0.23083514904396585 0.5421256735124091 -0.19144390398430466 0.8353964390985696 0.9508584111021873 -0.07191046352515451 -0.38577068045766727 0.6225119613414429 0.8333331354194108 0.1540986166242755 -0.7747589853542117 0.666448266611845 -0.6023973511428907 -0.39451994231058685 0.3615568014536005 0.9116660715126138 -0.694375575318898 0.8548256781271898 -0.6067851313597801 0.7995566762785443 0.3744056640440624 0.23064302872776032 -0.19020211770771756 -0.8833198078614285 0.64329782632095 -0.25390446169863634 0.1765328666514404 0.7529500696911009 -0.6252309894048976 -0.293389753394923 -0.5105759641285262 0.9308000681312423 0.540786109236232 0.5217381397398305 0.4917443505099799 0.05917721936560605 0.8678006253339849 -0.1764387982371345 -0.6240132347172747 -0.7580900888977485 -0.07377671457514767 -0.5344377651274869 0.28794873837060175 0.9577062222103667 0.6225761584326652 0.038499448687983384 0.20131431086210982 -0.34528224777132577 0.585982963581345 -0.6883785126003736 -0.5703954287747679 -0.860885671517762 0.6214331357245192 -0.7214419599186362 0.2847560796251164 -0.845822793273805 -0.34916032276294706 0.9693419736190759 0.03430674192068994 0.46063792246937174 -0.6158107014647188 0.767049160755128 0.3180371563008809 -0.14615942135885862 -0.40368984620784376 0.9451456988424711 -0.11486930992484401 0.7491411708958982 -0.9464039347679334 0.49734956652806517 -0.16095558446391223 0.3910024145922627 neuralnet.OutputLayer@64a84972-0.6767252556366727 0.0976005616187674 0.0894088432695389 -0.05056020974366637 0.6503729151947943 0.7424068206238964 -0.9653531043795334 0.8193747138771834 0.5316141968384849 0.4449918908700776 -0.11572398641605686 0.9573919178252089 0.17771931767887972 0.03995574474760699 -0.8272262605511278 -0.18913725010391558 -0.6565853032954998 0.7070052982177298 -0.9507809971567114 0.2933271226655836 0.7212167783349223 0.36526946098547697 0.5287569077310587 -0.6080220178740021 0.6528338170042297 0.29630273927664597 -0.480204268589822 -0.4656593705113016 -0.27043648076691373 0.49511472838963466 0.20687701226547728 -0.3754505327971194 0.16497370538357303 -0.4639281001143192 -0.9938896190700491 -0.8763810325981468 0.6223054560240872 -0.8433698915343614 0.9113113236958673 -0.013110149176806751 0.6031300196674046 0.22941884620453323 -0.3493473417731362 0.2254496467722359 0.29989045389933877 -0.46805818901986995 0.4462491153548962 0.7886888529278461 -0.41048481987541474 0.49968165321266156 -0.9324799218832208 -0.9939484933840498 -0.6858798281381557 0.5261777526286804 -0.7173224473846092 0.033135233880213666 -0.7668833126467485 0.9630355215483156 -0.7851032151097199 -0.6518706878329656 0.7233830009045188 0.6810513614083303 -0.2913470829112337 0.9885656428027928 -0.005515546268998084 0.3347992958297954 -0.200266578310223 0.7267834145913732 -0.07244054132216182 0.57810099545525 0.18631822271252363 0.998540767110155 0.6521235703533923 0.7046427636693031 -0.870608024201702 0.03788161513459409 0.26674907907167 0.131334446676036 0.11412256801350218 0.16960026600895628 0.16880175321193136 -0.056567772088010115 -0.49040924146015186 -0.4227730631804284 -0.12402401451204015 -0.6815573600404211 -0.7633564586934153 -0.4699501464329281 -0.05153631167556583 -0.9742581910413681 0.4413042043874502 -0.8801683210712616 0.2147878438545251 -0.357089768057386 0.45710920949932443 0.05098539188938622 0.3855771934924599 -0.5329035139944633 0.9913431242290736 0.14333449568651602 -0.16382927579897477 -0.043734822842315335 -0.21083887644366062 0.5623603792098808 0.7386190409621358 0.583802231031605 -0.1978392745565366 -0.32192584983599093 0.323460423775783 -0.7996269963965101 0.6345958546494093 0.08225466701032136 0.20804084445947324 -0.11424261372452849 -0.7339992311059208 -0.951440383049808 0.906938424180084 0.1540962975826513 0.49276689905126536 0.406604165947988 0.6664386042371433 0.6089286831531066 0.4168237048288618 -0.10294660106861209 -0.9264414298105587 -0.6131969133558812 0.5950252312249895 -0.02049768338945057 -0.22521804600025352 -0.8157856277805826 -0.9094821312623513 -0.6502890548883996 -0.4962417974250226 0.33312264829755933 0.8140209027707057 0.08078639838603674 -0.7765577950265954 -0.6767941850249269 0.8697221438809263 0.9991960088539313 -0.09143447811522998 0.7090108253063854 -0.47711550072317876 -0.7720276670934691 -0.4396090187212991 -0.6211017503857453 -0.7358423205429736 0.5349180599024925 0.7982227491436761 0.38860113296553034 -0.12674831384997254 -0.6062956777071015 -0.4886758615034389 -0.2893098780902791 0.48068593945858307 0.35301459154315495 -0.10969787682389742 0.35448223358554865 -0.7762098063454077 -0.8122638596408766 -0.14240172295255138 0.9480497998499579 -0.9906187110032872 -0.6770721901616422 -0.23919984535530558 0.4209560578838437 0.18233299831123562 -0.4559365265359556 -0.1822496767008992 0.3060174742863525 -0.907274343878817 0.07590139739817303 0.45595271306286933 -0.8895049996930547 -0.07508227123222189 0.689177289006333 0.4770030279736224 -0.5417513973825444 0.9546044420410331 -0.28704993867559236 -0.8844779820196966 -0.6619688690310526 0.12397677867096757 0.2465105785402305 -0.8734574927277152 0.9195953602869192 -0.5558981113293492 0.7058307795601733 0.21006386135695132 -0.5741264180395657 0.9556186593073318 -0.7449979712849748 0.4104862794318681 -0.5697394847875321 -0.5038345926302312 0.9842714228008813 0.765191490995551 0.4339651157882203 -0.7376142391939716 -0.35369842728385203 -0.06665646448153206 -0.5326520136888623 -0.47297205199784154 -0.23381102448635038 -0.06488974670505676 0.8458524629225705 -0.9769303009744147 -0.6645053045643677 -0.5455981748871483 0.7371729448959841 0.5668483083380648 -0.40514413523284243 0.49570514708081104 0.30015948452363506 0.825109915053907 -0.4656762507578992 0.9878573507560189 0.3229836934494307 -0.41465049737436044 -0.7020498784140566 -0.7457790748077281 0.30051572764862255 0.04779741399006632 0.1937361141122801 0.03863874063375483 0.07778636902391489 -0.9116947920211287 -0.8218491973784198 -0.9819176153630663 0.6738074605590456 -0.054049903216341066 -0.3758094621935746 -0.16624270325379653 -0.13924717373609174 -0.3464547559205716 0.6834172852114807 0.6296602644154701 0.9772823597405482 0.773921899504613 0.3275045677305568 -0.24235097086585367 -0.6817691107907067 0.6347209443060389 0.08731761531054494 0.6567960801873629 0.07945253380592843 0.5087529266489206 -0.0968720956500243 -0.7326431050568623 0.10666531138998525 0.7893917243106005 0.33574699062800084 -0.36934322493612504 -0.24209452047172986 0.6189635880814898 -0.4354227236149715 0.34953465522910165 -0.255223137174573 -0.9149356574075517 -0.8138948705291487 -0.7570018052542841 -0.630954317002892 0.6819403815171481 -0.6816290635443893 0.08613622521192121 -0.33386379118127996 -0.5973630973701246 0.07847643265309712 0.6541739704829856 -0.5495454002057644 -0.5219431521648267 0.21815167507840316 -0.880712825466862 -0.47919220538365404 0.2912697033437518 -0.16441498029287172 -0.978765676105328 -0.48403012764896514 -0.5163817807556051 0.3107894056983337 0.7482183713886958 0.34602851572421256 0.33202548326043513 -0.7107283320561503 -0.4677830472057035 0.2967495359616996 0.4474138853821621 -0.06089484315923577 -0.9477260256434826 -0.1090750882974395 0.03969208098339483 -0.7240323527622459 -0.3717594698937864 0.26850048314144115 -0.032893455373633196 0.957461191473986 -0.18611093002167556 0.1390614037397605 -0.42697981379225447 0.13211591133264566 0.709268109241264 -0.5142853147017353 -0.3181169179959432 -0.8481883018371538 -0.8859349743085216 0.9251515823967313 -0.16681966607411824 0.8527173695074659 0.4524167085293914 0.51817073186268 0.8667366322444875 -0.2650879328805017 -0.7097463572161753 -0.5114468528046308 0.808562367745861 -0.5478436466981624 0.923446267847187 -0.34687748737920776 0.851445225004198 0.21023454742183623 0.4826934691859547 -0.15379327355421657 -0.7288884271873352 0.7861857014390495 0.932569668313462 -0.5114896593551972 0.793757529604551 0.16474090420595955 -0.7498749851350772 0.001467213792958444 0.14521624500601038 0.1574286932455602 0.5749825708213044 0.5981948601956726 0.9114913979366634 0.661013564657025 -0.29055578910617685 -0.7671841385981948 -0.9452692135780572 0.43398163659378597 0.6045203520559226 0.09962675747783989 -0.6778036448789803 0.8533486989599581 0.3462361610123852 0.027730261141798662 0.7070399695995886 -0.8383225306947708 0.2156069984269583 -0.30246895401956286 0.1517265504314529 -0.7497342101232355 0.05426405166491688 -0.3579717750668914 -0.10486064601686484 0.2452970693287907 0.9541681742776189 -0.8859028006500806 0.5545158813997663 -0.312509515854966 0.09187126642323207 0.7737909055112931 -0.010472470910128928 0.2124917296043316 -0.15756062455716935 -0.2531686842533639 -0.2614578239814638 -0.43918174706284985 0.49188704167610386 -0.5564906446147303 0.8512763351660272 -0.14359302360179038 -0.6143930463314894 0.9196406891988199 -0.9930867486829057 0.1973687315243735 0.029009011818714847 -0.13161198632578086 0.1259651757299921 0.17897410331728725 0.9299784427538148 0.21088436736080685 -0.7842980526887592 -0.5834083456720526 0.13476914276021434 0.9087773096332038 -0.12476396959148417 0.0265624406474384 0.8628857105789157 -0.9459615433608607 0.9041036334146764 0.34898695805929913 0.15507173969894028 0.5484971383283838 0.4685462346216325 -0.37683753377929496 -0.6162171365445662 0.11228793744654808 -0.32181579366177027 -0.5591464053699451 neuralnet.OutputLayer@16b2f53e0.3079138852704554 0.7374306855245607 -0.8293678563289171 0.6878227285969991 0.6450285524982406 -0.6307631957352212 -0.3385708206010911 -0.6905493665179234 0.6209598969556357 0.26632066023554246 -0.9510763602413275 -0.8653016025809563 0.8114654821450914 0.3267678846397253 -0.8400797309829569 0.24169736493052862 0.5913741051710204 0.17104787285859013 -0.30838074731420495 -0.45934126738836467 -0.5306343547450321 0.3954374249178185 7.92312728476352E-4 0.8564731604703341 -0.6186141644534842 -0.9591646876245326 0.10368751109412866 -0.9828454279071507 0.8732491816474506 -0.5118976875468833 0.2140988354030675 -0.752958308559338 -0.00878366941561659 0.2495491294335147 -0.687783081339526 -0.35668184236625966 0.8633834913873217 0.7452168066254549 -0.15366727175835915 0.34531851442720574 -0.6161520984105289 0.18781577398071325 0.7983905808375622 0.7986025544122238 -0.42055120047540684 0.8791478779475853 -0.3226463953427977 0.1771297109449086 -0.6465649999175139 -0.8070527539745137 0.0852959431795568 0.011153661571421614 -0.4459394373284983 -0.8943731345709859 -0.016606327518948194 0.6266572444950512 -0.8643823321709163 -0.41942520526014104 -0.3187536555649203 -0.5678859653319928 -0.5240864176553247 -0.6715554446299207 0.5052915464861968 -0.01517908675549462 0.33319290162391424 -0.7077572520202315 0.551923313371923 -0.7264035795375675 -0.9031179717646055 0.6507234945979564 0.48911087521770813 -0.29423943233281535 0.7745457245638329 -0.37268424599443717 -0.012967785386152508 0.869354332386961 -0.08926905178891509 -0.9629222300438854 -0.40694137467076197 -0.46125354827964404 -0.5650645057596992 0.32540419722002345 -0.8617041983263157 0.43221544269446266 -0.6468358320212918 0.04569709045743853 0.6001255205818001 0.5397598452806014 -0.4678198692602836 -0.09288570246921912 0.6354938325207772 0.09113346363021413 0.3637544127400564 0.9878687095018066 0.24012923132432762 -0.6023502892361433 -0.6415254601814113 -0.33371928186580235 -0.4641111636331542 -0.6067476687691394 0.20987164655548662 0.654677104708867 -0.9921515745346575 0.034185625845076784 0.3290261552336632 -0.9640586274147066 -0.5702380934333499 -0.8473334725774738 0.5010458718725195 0.8765980180748473 -0.33430627796090107 0.5554910841328766 -0.8841151503638489 0.22316528726555296 0.8109144275273988 -0.6824004165241241 0.31927094686783786 0.6514298532820213 0.13986942682831494 -0.6557447052769275 -0.4082092874849722 -0.9755535359859415 0.8258748141289209 0.4115123745270274 0.35657637679668863 0.3894822453266792 -0.2417621748593023 0.38778576074081283 -0.3659425228061106 0.593727673189397 -0.7608179291478568 -0.9188082410648232 -0.11423575077835801 -0.017831959377765494 -0.7638947021880947 -0.16362195292536896 -0.36754438414552393 -0.3607799538595452 -0.1054990201478887 0.3561591678775211 0.2935288992332594 0.9011212961051662 0.4929077602127667 -0.7203570246147761 0.807753750600174 0.07303591668135045 -0.8875439659818136 -0.6112222094297538 0.7772470774448158 0.3796909388785684 -0.721719634346074 0.3153458147997601 -0.8209770296878339 -0.47074640140948165 -0.6540452798155507 -0.29677410525944414 0.6475468721824332 -0.0828641559519192 0.7002546287284829 0.6659758562000899 -0.7819967996207304 0.40138472346763987 0.012403059803130168 0.3340435092320899 0.4883336777439332 0.8780737777540173 0.08133330777218983 0.3726790799593239 -0.10222310427023928 0.12931614878717068 0.7395992922181843 -0.3187520741707076 0.2042722949572774 -0.16428650225091102 0.1199521017510412 0.46435034868994574 -0.0193101867899913 -0.6113501689733906 -0.7017756697958552 -0.5509470225521736 -0.2672061833217724 -0.47287472296690214 0.10534400843827496 -0.03840390635176372 0.9969049243099163 0.6019661436759588 -0.7512691411760251 -0.3309836554569545 -0.08648284965026087 0.8522823926039129 -0.07691909778353156 0.13094198305148408 0.440169674918938 -0.19811297279425422 0.804064883868334 0.535977456076432 -0.30745532654586727 -0.7441679808911096 -0.20342586132802132 0.554074514758358 0.25132316615023687 0.3299173526609849 -0.39796276519335094 0.6064387168714315 -0.5075881144990797 0.08153097457660752 0.136573940006808 0.8200694638297763 0.6727644406842821 0.15289450214379674 -0.00770506543038052 0.8240805777554692 -0.7994581518044852 0.08400827314992287 0.5162153343283081 -0.5145260049445272 0.03854872887636751 -0.27952271606242085 -0.9272750303894589 -0.15410895251125567 -0.18012537763445857 0.22099261174072815 0.6534158872412023 0.37777354314090383 0.014973762830173265 -0.7275426471766897 -0.9412435753944192 -0.7550711289699623 -0.6150871291798913 -0.8686297710007161 -0.6345614320479156 -0.6578114314544455 -0.7745366866221332 0.33377747930206747 0.6364088324673834 -0.6379712211579951 0.27474499090323523 0.33041410530913207 -0.23780916407392305 0.1499101192552431 0.081250898100656 -0.19200702610276044 0.7360686126489665 