-0.8393072949889367 -0.2679686493558894 0.22836134728976165 -0.517205692024342 -0.5257372950263548 0.9220869992106199 0.4732482215202143 0.33488036678914357 0.5563213591029944 -0.7833773943440042 0.5544314208055954 -0.7498421859077816 0.04155424833551924 -0.6403034540248586 -0.7078173707025917 0.9410811585993156 0.06987613251166458 -0.24050167091921615 -0.31005484592300714 -0.5134315190055818 0.11706418374012584 0.22674522752085913 0.9782213631902232 -0.6546410615001015 0.19102261602704784 -0.7726692062290446 0.13434960246251226 0.8167574932193652 0.012160014350440784 -0.5142843892569989 -0.6313752718907298 0.9815176757135371 0.005928886858436289 -0.5074810432584336 -0.04819670940783627 0.7696459581773414 0.2825349561096633 0.7418540616446674 0.5568894201341602 0.9051407062356238 0.6078986289218719 -0.2533455233237697 0.5861359617551128 -0.6984491225285736 0.572744318436785 -0.5665487633255378 -0.48879375539214875 0.36757257633597396 0.43168088550977524 -0.9839657659654519 -0.7489113199845578 0.3288945624115017 0.14667128812861652 -0.011198013640424498 -0.09882167680037057 -0.609277669745937 -0.9384035140834884 -0.7016219823932227 0.482351456185768 -0.47619527754470314 0.9358004461386898 0.8636328025756472 -0.2528509214997592 -0.8663274041835568 -0.8494639903400458 0.47135589369393294 0.8295171340388268 -0.4941243088901961 -0.8040328051860282 -0.7863952809206107 -0.30503376470228283 -0.04366178695589429 -0.2324526246097749 0.3237247039488994 0.9014222700554633 0.1619938092959049 -0.7842104849849294 0.7660704051434276 -0.7487659631254114 0.4184244254857009 -0.23385404473879057 -0.2711814390931736 -0.9425530234990969 0.1435128745964035 0.966278207766098 -0.7664161310966928 0.19008277961739128 -0.9963063169328009 0.6336436137317164 -0.882166499487693 0.9601970975617428 0.6261982348298436 0.12116006814784053 0.35873231805728 -0.43778849764940786 -0.8699428796818334 -0.256292408056385 -0.983208063657859 -0.028405886400245106 0.17324139048458498 0.5112386726259542 -0.6043209525039214 0.3004357065585941 -0.004734917022847673 -0.009976351366355884 -0.5137325490356731 -0.015250611226094501 -0.9847212432553236 0.8036550304357405 -0.4816223596134167 0.323198954267953 0.015978429118366222 -0.5716472600379855 -0.15310356020248161 0.7381009248371639 0.2537326646639484 0.018200857863287734 -0.701263055047771 0.28848384012977213 0.0447606801310213 -0.20256634065831491 -0.9136023859603608 0.9561427780390389 0.4049235685155398 0.4078751529385696 -0.9799122463628426 -0.2547161497549385 -0.8049615397330518 0.6260988766932265 0.8252663966553886 0.8026780231247767 -0.667713000476053 -0.7603352587470663 0.18212121534821624 -0.6317251199400259 -0.03166431982088125 0.06463458761897456 0.668506246050281 -0.8821212176348836 -0.03733953613875163 -0.8859324323775863 -0.8869594914906408 0.24355107952004063 0.46109471073501895 -0.39717032463778257 0.1897041229076808 0.7395374295687231 -0.750011394100214 -0.3418325068667636 -0.8670131733034219 0.7992669376241638 0.7301556415264464 0.4553233624062327 0.6814529896494229 -0.11825479459841748 0.6359281604522952 -0.2828919959240417 0.20987093205489138 -0.05524669085810685 0.9164722215799413 0.6067740141803242 0.16256911760017445 -0.939163945098825 0.7617164570159826 -0.4473991104956476 0.5145629360727725 -0.704847491908249 0.4659016683111423 0.3150369805750488 -0.04225227178040647 -0.5812156132822854 0.4093003179098601 0.03464592384783394 -0.2830381377854234 0.01584321835704572 0.7439122245296679 0.26995236602480366 -0.5407544380061884 -0.5016517657589958 -0.40789490262421013 -0.6160740949715475 0.26778765405612415 -0.1780964135663683 0.5178112550091472 0.5985083036121759 0.44287399249873016 0.5720995606358305 -0.623043779006104 0.6873806843908246 0.2830088294154771 -0.9874137224648404 -0.8243963834365412 0.494059184491049 0.5420325205584776 0.5190858718759024 -0.6014514104043412 0.1682529946610679 -0.011361516415898554 -0.8907431398342603 0.16484854029029117 0.42794219537940725 -0.8162934286358519 -0.021781364317012497 0.12649175987695094 -0.9555620489900144 -0.006797638758386904 -0.3025271490873336 -0.03210949956381193 0.676250010182234 -0.5406999792551738 0.08658527802424953 -0.23765803689906217 0.7552567998855331 -0.06649731601957454 0.4498573953917576 -0.018402268523702747 0.2626808682374685 -0.9591328238650942 -0.466266333631179 0.18016456664308822 -0.6231849724059554 -0.7136281564078572 -0.973851623644555 0.9402497927779582 0.38030221854153046 0.3597550564723687 0.9295790233010925 0.5790534594406953 0.1798940043466084 -0.6450694817582119 0.610279936187505 0.009473285862549918 0.9107271446348807 -0.16013831634721432 -0.40606502182412063 0.4896668430510155 -0.4881363981791851 -0.3775655056791277 -0.7484196507349675 0.38713265180629 0.8086179766294684 -0.978338719124728 -0.17022792088896266 -0.5307785908533594 -0.4946065302639895 -0.17988414958947851 0.9281463153460366 -0.8261590097662664 -0.13740562520963961 -0.07415685722150334 -0.4598412982421569 -0.7694800899358611 0.5317789406944449 -0.8225067376040119 0.3451808414780486 -0.5787366089935206 0.6805383077998403 -0.013144155351783926 -0.3095595271651307 0.0804698470073133 0.8254866391184492 -0.5855525540012354 0.9195577911521654 -0.36935679553977563 -0.32204830478203117 0.3368436597813854 -0.39743353883485144 -0.6078159783627693 0.30906426307322976 -0.9060724710511511 0.18410340894308985 -0.44301036173202946 -0.6275631906750215 -0.8605922807715376 -0.6024284751329729 0.4021360524820069 0.34384782283864024 -0.017525250612524523 -0.02893885651842998 0.9761223732524387 0.4055335996915762 -0.9396803621680961 -0.9249241396653068 -0.09002268319976259 -0.07806124864889541 -0.9371800014323644 0.2039330221672293 0.09227754839336699 0.42506207838599996 -0.18123950823009294 -0.26473554483570994 0.4635041444773357 0.6987124361542804 -0.19136793513946104 0.9403671576286855 -0.4967636821708209 -0.7332177682736304 -0.9121465213754589 0.30916068402649766 -0.6651026145263083 0.24265842814044458 0.2660639924808199 -0.5340122385423304 0.09794576141270417 0.773597294621299 0.80720399349701 -0.13289022183770605 0.03673844620213551 0.9506424088546793 -0.6099352263637113 0.7400402919056355 -0.061640670379203955 -0.9163085180673203 0.232855915866662 -0.8767605500065787 0.287439865948635 -0.7582819155521918 -0.04450546056316573 0.3384512313256476 0.07273190716902644 0.3059058581866889 -0.2184816928120792 -0.854733346300157 0.21561025013470603 -0.09859287341731804 -0.7960987621147882 0.22837835858207867 -0.6581374594896968 0.18132147068320936 0.9261124835417335 -0.48562900240119333 0.1915068565615211 -0.19909641795220068 -0.8036127997465787 0.24055410080201456 0.5727853709596319 0.6044318816977631 0.06863370326140716 0.2589565755547324 -0.008888293731334485 -0.3380510174414594 -0.37868549161610887 0.9817007981413928 0.10616750977687583 0.7454520747658455 -0.5459818379774919 0.8089761296477614 -0.9655002542384762 0.07816278360190732 -0.4473317620901197 0.14902383579029788 -0.6258199463561958 -0.022775885367090076 -0.20484934628606755 -0.015907531626499938 0.19505087345335992 0.6374021452925328 0.37071698760505567 0.7722644583794536 0.23486659910242202 0.8658445478497132 0.35434353357929405 -0.36069620851872375 0.1496898167954227 0.7172642469629874 -0.2588198637890834 -0.18397873882533355 -0.022959062141058584 0.13355228483206594 0.7705633765239442 -0.9542383583459525 0.43272132171896927 0.3471331217960836 0.2024324554664374 0.8260255551789815 -0.6634958720402832 -0.2544202928278607 0.934376542512946 0.3823605433285666 0.26696032968723793 -0.5547878467209233 -0.46765422657849387 0.8977825196197059 0.5098781416018361 0.10958432391093453 0.6940306201854626 -0.14471838059051512 0.875740168940061 -0.2522276001189786 -0.3428112489006656 -0.8155334448776419 -0.9833881714112743 -0.19305853939729611 -0.8737165030684914 -0.0519776908442634 -0.6719859597651826 0.8503863743692098 -0.5754244257235535 0.44318566827645567 -0.657277751534722 neuralnet.OutputLayer@6e0af424-0.8393072949889367 -0.2679686493558894 0.22836134728976165 -0.517205692024342 -0.5257372950263548 0.9220869992106199 0.4732482215202143 0.33488036678914357 0.5563213591029944 -0.7833773943440042 0.5544314208055954 -0.7498421859077816 0.04155424833551924 -0.6403034540248586 -0.7078173707025917 0.9410811585993156 0.06987613251166458 -0.24050167091921615 -0.31005484592300714 -0.5134315190055818 0.11706418374012584 0.22674522752085913 0.9782213631902232 -0.6546410615001015 0.19102261602704784 -0.7726692062290446 0.13434960246251226 0.8167574932193652 0.012160014350440784 -0.5142843892569989 -0.6313752718907298 0.9815176757135371 0.005928886858436289 -0.5074810432584336 -0.04819670940783627 0.7696459581773414 0.2825349561096633 0.7418540616446674 0.5568894201341602 0.9051407062356238 0.6078986289218719 -0.2533455233237697 0.5861359617551128 -0.6984491225285736 0.572744318436785 -0.5665487633255378 -0.48879375539214875 0.36757257633597396 0.43168088550977524 -0.9839657659654519 -0.7489113199845578 0.3288945624115017 0.14667128812861652 -0.011198013640424498 -0.09882167680037057 -0.609277669745937 -0.9384035140834884 -0.7016219823932227 0.482351456185768 -0.47619527754470314 0.9358004461386898 0.8636328025756472 -0.2528509214997592 -0.8663274041835568 -0.8494639903400458 0.47135589369393294 0.8295171340388268 -0.4941243088901961 -0.8040328051860282 -0.7863952809206107 -0.30503376470228283 -0.04366178695589429 -0.2324526246097749 0.3237247039488994 0.9014222700554633 0.1619938092959049 -0.7842104849849294 0.7660704051434276 -0.7487659631254114 0.4184244254857009 -0.23385404473879057 -0.2711814390931736 -0.9425530234990969 0.1435128745964035 0.966278207766098 -0.7664161310966928 0.19008277961739128 -0.9963063169328009 0.6336436137317164 -0.882166499487693 0.9601970975617428 0.6261982348298436 0.12116006814784053 0.35873231805728 -0.43778849764940786 -0.8699428796818334 -0.256292408056385 -0.983208063657859 -0.028405886400245106 0.17324139048458498 0.5112386726259542 -0.6043209525039214 0.3004357065585941 -0.004734917022847673 -0.009976351366355884 -0.5137325490356731 -0.015250611226094501 -0.9847212432553236 0.8036550304357405 -0.4816223596134167 0.323198954267953 0.015978429118366222 -0.5716472600379855 -0.15310356020248161 0.7381009248371639 0.2537326646639484 0.018200857863287734 -0.701263055047771 0.28848384012977213 0.0447606801310213 -0.20256634065831491 -0.9136023859603608 0.9561427780390389 0.4049235685155398 0.4078751529385696 -0.9799122463628426 -0.2547161497549385 -0.8049615397330518 0.6260988766932265 0.8252663966553886 0.8026780231247767 -0.667713000476053 -0.7603352587470663 0.18212121534821624 -0.6317251199400259 -0.03166431982088125 0.06463458761897456 0.668506246050281 -0.8821212176348836 -0.03733953613875163 -0.8859324323775863 -0.8869594914906408 0.24355107952004063 0.46109471073501895 -0.39717032463778257 0.1897041229076808 0.7395374295687231 -0.750011394100214 -0.3418325068667636 -0.8670131733034219 0.7992669376241638 0.7301556415264464 0.4553233624062327 0.6814529896494229 -0.11825479459841748 0.6359281604522952 -0.2828919959240417 0.20987093205489138 -0.05524669085810685 0.9164722215799413 0.6067740141803242 0.16256911760017445 -0.939163945098825 0.7617164570159826 -0.4473991104956476 0.5145629360727725 -0.704847491908249 0.4659016683111423 0.3150369805750488 -0.04225227178040647 -0.5812156132822854 0.4093003179098601 0.03464592384783394 -0.2830381377854234 0.01584321835704572 0.7439122245296679 0.26995236602480366 -0.5407544380061884 -0.5016517657589958 -0.40789490262421013 -0.6160740949715475 0.26778765405612415 -0.1780964135663683 0.5178112550091472 0.5985083036121759 0.44287399249873016 0.5720995606358305 -0.623043779006104 0.6873806843908246 0.2830088294154771 -0.9874137224648404 -0.8243963834365412 0.494059184491049 0.5420325205584776 0.5190858718759024 -0.6014514104043412 0.1682529946610679 -0.011361516415898554 -0.8907431398342603 0.16484854029029117 0.42794219537940725 -0.8162934286358519 -0.021781364317012497 0.12649175987695094 -0.9555620489900144 -0.006797638758386904 -0.3025271490873336 -0.03210949956381193 0.676250010182234 -0.5406999792551738 0.08658527802424953 -0.23765803689906217 0.7552567998855331 -0.06649731601957454 0.4498573953917576 -0.018402268523702747 0.2626808682374685 -0.9591328238650942 -0.466266333631179 0.18016456664308822 -0.6231849724059554 -0.7136281564078572 -0.973851623644555 0.9402497927779582 0.38030221854153046 0.3597550564723687 0.9295790233010925 0.5790534594406953 0.1798940043466084 -0.6450694817582119 0.610279936187505 0.009473285862549918 0.9107271446348807 -0.16013831634721432 -0.40606502182412063 0.4896668430510155 -0.4881363981791851 -0.3775655056791277 -0.7484196507349675 0.38713265180629 0.8086179766294684 -0.978338719124728 -0.17022792088896266 -0.5307785908533594 -0.4946065302639895 -0.17988414958947851 0.9281463153460366 -0.8261590097662664 -0.13740562520963961 -0.07415685722150334 -0.4598412982421569 -0.7694800899358611 0.5317789406944449 -0.8225067376040119 0.3451808414780486 -0.5787366089935206 0.6805383077998403 -0.013144155351783926 -0.3095595271651307 0.0804698470073133 0.8254866391184492 -0.5855525540012354 0.9195577911521654 -0.36935679553977563 -0.32204830478203117 0.3368436597813854 -0.39743353883485144 -0.6078159783627693 0.30906426307322976 -0.9060724710511511 0.18410340894308985 -0.44301036173202946 -0.6275631906750215 -0.8605922807715376 -0.6024284751329729 0.4021360524820069 0.34384782283864024 -0.017525250612524523 -0.02893885651842998 0.9761223732524387 0.4055335996915762 -0.9396803621680961 -0.9249241396653068 -0.09002268319976259 -0.07806124864889541 -0.9371800014323644 0.2039330221672293 0.09227754839336699 0.42506207838599996 -0.18123950823009294 -0.26473554483570994 0.4635041444773357 0.6987124361542804 -0.19136793513946104 0.9403671576286855 -0.4967636821708209 -0.7332177682736304 -0.9121465213754589 0.30916068402649766 -0.6651026145263083 0.24265842814044458 0.2660639924808199 -0.5340122385423304 0.09794576141270417 0.773597294621299 0.80720399349701 -0.13289022183770605 0.03673844620213551 0.9506424088546793 -0.6099352263637113 0.7400402919056355 -0.061640670379203955 -0.9163085180673203 0.232855915866662 -0.8767605500065787 0.287439865948635 -0.7582819155521918 -0.04450546056316573 0.3384512313256476 0.07273190716902644 0.3059058581866889 -0.2184816928120792 -0.854733346300157 0.21561025013470603 -0.09859287341731804 -0.7960987621147882 0.22837835858207867 -0.6581374594896968 0.18132147068320936 0.9261124835417335 -0.48562900240119333 0.1915068565615211 -0.19909641795220068 -0.8036127997465787 0.24055410080201456 0.5727853709596319 0.6044318816977631 0.06863370326140716 0.2589565755547324 -0.008888293731334485 -0.3380510174414594 -0.37868549161610887 0.9817007981413928 0.10616750977687583 0.7454520747658455 -0.5459818379774919 0.8089761296477614 -0.9655002542384762 0.07816278360190732 -0.4473317620901197 0.14902383579029788 -0.6258199463561958 -0.022775885367090076 -0.20484934628606755 -0.015907531626499938 0.19505087345335992 0.6374021452925328 0.37071698760505567 0.7722644583794536 0.23486659910242202 0.8658445478497132 0.35434353357929405 -0.36069620851872375 0.1496898167954227 0.7172642469629874 -0.2588198637890834 -0.18397873882533355 -0.022959062141058584 0.13355228483206594 0.7705633765239442 -0.9542383583459525 0.43272132171896927 0.3471331217960836 0.2024324554664374 0.8260255551789815 -0.6634958720402832 -0.2544202928278607 0.934376542512946 0.3823605433285666 0.26696032968723793 -0.5547878467209233 -0.46765422657849387 0.8977825196197059 0.5098781416018361 0.10958432391093453 0.6940306201854626 -0.14471838059051512 0.875740168940061 -0.2522276001189786 -0.3428112489006656 -0.8155334448776419 -0.9833881714112743 -0.19305853939729611 -0.8737165030684914 -0.0519776908442634 -0.6719859597651826 0.8503863743692098 -0.5754244257235535 0.44318566827645567 -0.657277751534722 neuralnet.OutputLayer@7762d596-0.8393072949889367 -0.2679686493558894 0.22836134728976165 -0.517205692024342 -0.5257372950263548 0.9220869992106199 0.4732482215202143 0.33488036678914357 0.5563213591029944 -0.7833773943440042 0.5544314208055954 -0.7498421859077816 0.04155424833551924 -0.6403034540248586 -0.7078173707025917 0.9410811585993156 0.06987613251166458 -0.24050167091921615 -0.31005484592300714 -0.5134315190055818 0.11706418374012584 0.22674522752085913 0.9782213631902232 -0.6546410615001015 0.19102261602704784 -0.7726692062290446 0.13434960246251226 0.8167574932193652 0.012160014350440784 -0.5142843892569989 -0.6313752718907298 0.9815176757135371 0.005928886858436289 -0.5074810432584336 -0.04819670940783627 0.7696459581773414 0.2825349561096633 0.7418540616446674 0.5568894201341602 0.9051407062356238 0.6078986289218719 -0.2533455233237697 0.5861359617551128 -0.6984491225285736 0.572744318436785 -0.5665487633255378 -0.48879375539214875 0.36757257633597396 0.43168088550977524 -0.9839657659654519 -0.7489113199845578 0.3288945624115017 0.14667128812861652 -0.011198013640424498 -0.09882167680037057 -0.609277669745937 -0.9384035140834884 -0.7016219823932227 0.482351456185768 -0.47619527754470314 0.9358004461386898 0.8636328025756472 -0.2528509214997592 -0.8663274041835568 -0.8494639903400458 0.47135589369393294 0.8295171340388268 -0.4941243088901961 -0.8040328051860282 -0.7863952809206107 -0.30503376470228283 -0.04366178695589429 -0.2324526246097749 0.3237247039488994 0.9014222700554633 0.1619938092959049 -0.7842104849849294 0.7660704051434276 -0.7487659631254114 0.4184244254857009 -0.23385404473879057 -0.2711814390931736 -0.9425530234990969 0.1435128745964035 0.966278207766098 -0.7664161310966928 0.19008277961739128 -0.9963063169328009 0.6336436137317164 -0.882166499487693 0.9601970975617428 0.6261982348298436 0.12116006814784053 0.35873231805728 -0.43778849764940786 -0.8699428796818334 -0.256292408056385 -0.983208063657859 -0.028405886400245106 0.17324139048458498 0.5112386726259542 -0.6043209525039214 0.3004357065585941 -0.004734917022847673 -0.009976351366355884 -0.5137325490356731 -0.015250611226094501 -0.9847212432553236 0.8036550304357405 -0.4816223596134167 0.323198954267953 0.015978429118366222 -0.5716472600379855 -0.15310356020248161 0.7381009248371639 0.2537326646639484 0.018200857863287734 -0.701263055047771 0.28848384012977213 0.0447606801310213 -0.20256634065831491 -0.9136023859603608 0.9561427780390389 0.4049235685155398 0.4078751529385696 -0.9799122463628426 -0.2547161497549385 -0.8049615397330518 0.6260988766932265 0.8252663966553886 0.8026780231247767 -0.667713000476053 -0.7603352587470663 0.18212121534821624 -0.6317251199400259 -0.03166431982088125 0.06463458761897456 0.668506246050281 -0.8821212176348836 -0.03733953613875163 -0.8859324323775863 -0.8869594914906408 0.24355107952004063 0.46109471073501895 -0.39717032463778257 0.1897041229076808 0.7395374295687231 -0.750011394100214 -0.3418325068667636 -0.8670131733034219 0.7992669376241638 0.7301556415264464 0.4553233624062327 0.6814529896494229 -0.11825479459841748 0.6359281604522952 -0.2828919959240417 0.20987093205489138 -0.05524669085810685 0.9164722215799413 0.6067740141803242 0.16256911760017445 -0.939163945098825 0.7617164570159826 -0.4473991104956476 0.5145629360727725 -0.704847491908249 0.4659016683111423 0.3150369805750488 -0.04225227178040647 -0.5812156132822854 0.4093003179098601 0.03464592384783394 -0.2830381377854234 0.01584321835704572 0.7439122245296679 0.26995236602480366 -0.5407544380061884 -0.5016517657589958 -0.40789490262421013 -0.6160740949715475 0.26778765405612415 -0.1780964135663683 0.5178112550091472 0.5985083036121759 0.44287399249873016 0.5720995606358305 -0.623043779006104 0.6873806843908246 0.2830088294154771 -0.9874137224648404 -0.8243963834365412 0.494059184491049 0.5420325205584776 0.5190858718759024 -0.6014514104043412 0.1682529946610679 -0.011361516415898554 -0.8907431398342603 0.16484854029029117 0.42794219537940725 -0.8162934286358519 -0.021781364317012497 0.12649175987695094 -0.9555620489900144 -0.006797638758386904 -0.3025271490873336 -0.03210949956381193 0.676250010182234 -0.5406999792551738 0.08658527802424953 -0.23765803689906217 0.7552567998855331 -0.06649731601957454 0.4498573953917576 -0.018402268523702747 0.2626808682374685 -0.9591328238650942 -0.466266333631179 0.18016456664308822 -0.6231849724059554 -0.7136281564078572 -0.973851623644555 0.9402497927779582 0.38030221854153046 0.3597550564723687 0.9295790233010925 0.5790534594406953 0.1798940043466084 -0.6450694817582119 0.610279936187505 0.009473285862549918 0.9107271446348807 -0.16013831634721432 -0.40606502182412063 0.4896668430510155 -0.4881363981791851 -0.3775655056791277 -0.7484196507349675 0.38713265180629 0.8086179766294684 -0.978338719124728 -0.17022792088896266 -0.5307785908533594 -0.4946065302639895 -0.17988414958947851 0.9281463153460366 -0.8261590097662664 -0.13740562520963961 -0.07415685722150334 -0.4598412982421569 -0.7694800899358611 0.5317789406944449 -0.8225067376040119 0.3451808414780486 -0.5787366089935206 0.6805383077998403 -0.013144155351783926 -0.3095595271651307 0.0804698470073133 0.8254866391184492 -0.5855525540012354 0.9195577911521654 -0.36935679553977563 -0.32204830478203117 0.3368436597813854 -0.39743353883485144 -0.6078159783627693 0.30906426307322976 -0.9060724710511511 0.18410340894308985 -0.44301036173202946 -0.6275631906750215 -0.8605922807715376 -0.6024284751329729 0.4021360524820069 0.34384782283864024 -0.017525250612524523 -0.02893885651842998 0.9761223732524387 0.4055335996915762 -0.9396803621680961 -0.9249241396653068 -0.09002268319976259 -0.07806124864889541 -0.9371800014323644 0.2039330221672293 0.09227754839336699 0.42506207838599996 -0.18123950823009294 -0.26473554483570994 0.4635041444773357 0.6987124361542804 -0.19136793513946104 0.9403671576286855 -0.4967636821708209 -0.7332177682736304 -0.9121465213754589 0.30916068402649766 -0.6651026145263083 0.24265842814044458 0.2660639924808199 -0.5340122385423304 0.09794576141270417 0.773597294621299 0.80720399349701 -0.13289022183770605 0.03673844620213551 0.9506424088546793 -0.6099352263637113 0.7400402919056355 -0.061640670379203955 -0.9163085180673203 0.232855915866662 -0.8767605500065787 0.287439865948635 -0.7582819155521918 -0.04450546056316573 0.3384512313256476 0.07273190716902644 0.3059058581866889 -0.2184816928120792 -0.854733346300157 0.21561025013470603 -0.09859287341731804 -0.7960987621147882 0.22837835858207867 -0.6581374594896968 0.18132147068320936 0.9261124835417335 -0.48562900240119333 0.1915068565615211 -0.19909641795220068 -0.8036127997465787 0.24055410080201456 0.5727853709596319 0.6044318816977631 0.06863370326140716 0.2589565755547324 -0.008888293731334485 -0.3380510174414594 -0.37868549161610887 0.9817007981413928 0.10616750977687583 0.7454520747658455 -0.5459818379774919 0.8089761296477614 -0.9655002542384762 0.07816278360190732 -0.4473317620901197 0.14902383579029788 -0.6258199463561958 -0.022775885367090076 -0.20484934628606755 -0.015907531626499938 0.19505087345335992 0.6374021452925328 0.37071698760505567 0.7722644583794536 0.23486659910242202 0.8658445478497132 0.35434353357929405 -0.36069620851872375 0.1496898167954227 0.7172642469629874 -0.2588198637890834 -0.18397873882533355 -0.022959062141058584 0.13355228483206594 0.7705633765239442 -0.9542383583459525 0.43272132171896927 0.3471331217960836 0.2024324554664374 0.8260255551789815 -0.6634958720402832 -0.2544202928278607 0.934376542512946 0.3823605433285666 0.26696032968723793 -0.5547878467209233 -0.46765422657849387 0.8977825196197059 0.5098781416018361 0.10958432391093453 0.6940306201854626 -0.14471838059051512 0.875740168940061 -0.2522276001189786 -0.3428112489006656 -0.8155334448776419 -0.9833881714112743 -0.19305853939729611 -0.8737165030684914 -0.0519776908442634 -0.6719859597651826 0.8503863743692098 -0.5754244257235535 0.44318566827645567 -0.657277751534722 neuralnet.OutputLayer@122051a7-0.8393072949889367 -0.2679686493558894 0.22836134728976165 -0.517205692024342 -0.5257372950263548 0.9220869992106199 0.4732482215202143 0.33488036678914357 0.5563213591029944 -0.7833773943440042 0.5544314208055954 -0.7498421859077816 0.04155424833551924 -0.6403034540248586 -0.7078173707025917 0.9410811585993156 0.06987613251166458 -0.24050167091921615 -0.31005484592300714 -0.5134315190055818 0.11706418374012584 0.22674522752085913 0.9782213631902232 -0.6546410615001015 0.19102261602704784 -0.7726692062290446 0.13434960246251226 0.8167574932193652 0.012160014350440784 -0.5142843892569989 -0.6313752718907298 0.9815176757135371 0.005928886858436289 -0.5074810432584336 -0.04819670940783627 0.7696459581773414 0.2825349561096633 0.7418540616446674 0.5568894201341602 0.9051407062356238 0.6078986289218719 -0.2533455233237697 0.5861359617551128 -0.6984491225285736 0.572744318436785 -0.5665487633255378 -0.48879375539214875 0.36757257633597396 0.43168088550977524 -0.9839657659654519 -0.7489113199845578 0.3288945624115017 0.14667128812861652 -0.011198013640424498 -0.09882167680037057 -0.609277669745937 -0.9384035140834884 -0.7016219823932227 0.482351456185768 -0.47619527754470314 0.9358004461386898 0.8636328025756472 -0.2528509214997592 -0.8663274041835568 -0.8494639903400458 0.47135589369393294 0.8295171340388268 -0.4941243088901961 -0.8040328051860282 -0.7863952809206107 -0.30503376470228283 -0.04366178695589429 -0.2324526246097749 0.3237247039488994 0.9014222700554633 0.1619938092959049 -0.7842104849849294 0.7660704051434276 -0.7487659631254114 0.4184244254857009 -0.23385404473879057 -0.2711814390931736 -0.9425530234990969 0.1435128745964035 0.966278207766098 -0.7664161310966928 0.19008277961739128 -0.9963063169328009 0.6336436137317164 -0.882166499487693 0.9601970975617428 0.6261982348298436 0.12116006814784053 0.35873231805728 -0.43778849764940786 -0.8699428796818334 -0.256292408056385 -0.983208063657859 -0.028405886400245106 0.17324139048458498 0.5112386726259542 -0.6043209525039214 0.3004357065585941 -0.004734917022847673 -0.009976351366355884 -0.5137325490356731 -0.015250611226094501 -0.9847212432553236 0.8036550304357405 -0.4816223596134167 0.323198954267953 0.015978429118366222 -0.5716472600379855 -0.15310356020248161 0.7381009248371639 0.2537326646639484 0.018200857863287734 -0.701263055047771 0.28848384012977213 0.0447606801310213 -0.20256634065831491 -0.9136023859603608 0.9561427780390389 0.4049235685155398 0.4078751529385696 -0.9799122463628426 -0.2547161497549385 -0.8049615397330518 0.6260988766932265 0.8252663966553886 0.8026780231247767 -0.667713000476053 -0.7603352587470663 0.18212121534821624 -0.6317251199400259 -0.03166431982088125 0.06463458761897456 0.668506246050281 -0.8821212176348836 -0.03733953613875163 -0.8859324323775863 -0.8869594914906408 0.24355107952004063 0.46109471073501895 -0.39717032463778257 0.1897041229076808 0.7395374295687231 -0.750011394100214 -0.3418325068667636 -0.8670131733034219 0.7992669376241638 0.7301556415264464 0.4553233624062327 0.6814529896494229 -0.11825479459841748 0.6359281604522952 -0.2828919959240417 0.20987093205489138 -0.05524669085810685 0.9164722215799413 0.6067740141803242 0.16256911760017445 -0.939163945098825 0.7617164570159826 -0.4473991104956476 0.5145629360727725 -0.704847491908249 0.4659016683111423 0.3150369805750488 -0.04225227178040647 -0.5812156132822854 0.4093003179098601 0.03464592384783394 -0.2830381377854234 0.01584321835704572 0.7439122245296679 0.26995236602480366 -0.5407544380061884 -0.5016517657589958 -0.40789490262421013 -0.6160740949715475 0.26778765405612415 -0.1780964135663683 0.5178112550091472 0.5985083036121759 0.44287399249873016 0.5720995606358305 -0.623043779006104 0.6873806843908246 0.2830088294154771 -0.9874137224648404 -0.8243963834365412 0.494059184491049 0.5420325205584776 0.5190858718759024 -0.6014514104043412 0.1682529946610679 -0.011361516415898554 -0.8907431398342603 0.16484854029029117 0.42794219537940725 -0.8162934286358519 -0.021781364317012497 0.12649175987695094 -0.9555620489900144 -0.006797638758386904 -0.3025271490873336 -0.03210949956381193 0.676250010182234 -0.5406999792551738 0.08658527802424953 -0.23765803689906217 0.7552567998855331 -0.06649731601957454 0.4498573953917576 -0.018402268523702747 0.2626808682374685 -0.9591328238650942 -0.466266333631179 0.18016456664308822 -0.6231849724059554 -0.7136281564078572 -0.973851623644555 0.9402497927779582 0.38030221854153046 0.3597550564723687 0.9295790233010925 0.5790534594406953 0.1798940043466084 -0.6450694817582119 0.610279936187505 0.009473285862549918 0.9107271446348807 -0.16013831634721432 -0.40606502182412063 0.4896668430510155 -0.4881363981791851 -0.3775655056791277 -0.7484196507349675 0.38713265180629 0.8086179766294684 -0.978338719124728 -0.17022792088896266 -0.5307785908533594 -0.4946065302639895 -0.17988414958947851 0.9281463153460366 -0.8261590097662664 -0.13740562520963961 -0.07415685722150334 -0.4598412982421569 -0.7694800899358611 0.5317789406944449 -0.8225067376040119 0.3451808414780486 -0.5787366089935206 0.6805383077998403 -0.013144155351783926 -0.3095595271651307 0.0804698470073133 0.8254866391184492 -0.5855525540012354 0.9195577911521654 -0.36935679553977563 -0.32204830478203117 0.3368436597813854 -0.39743353883485144 -0.6078159783627693 0.30906426307322976 -0.9060724710511511 0.18410340894308985 -0.44301036173202946 -0.6275631906750215 -0.8605922807715376 -0.6024284751329729 0.4021360524820069 0.34384782283864024 -0.017525250612524523 -0.02893885651842998 0.9761223732524387 0.4055335996915762 -0.9396803621680961 -0.9249241396653068 -0.09002268319976259 -0.07806124864889541 -0.9371800014323644 0.2039330221672293 0.09227754839336699 0.42506207838599996 -0.18123950823009294 -0.26473554483570994 0.4635041444773357 0.6987124361542804 -0.19136793513946104 0.9403671576286855 -0.4967636821708209 -0.7332177682736304 -0.9121465213754589 0.30916068402649766 -0.6651026145263083 0.24265842814044458 0.2660639924808199 -0.5340122385423304 0.09794576141270417 0.773597294621299 0.80720399349701 -0.13289022183770605 0.03673844620213551 0.9506424088546793 -0.6099352263637113 0.7400402919056355 -0.061640670379203955 -0.9163085180673203 0.232855915866662 -0.8767605500065787 0.287439865948635 -0.7582819155521918 -0.04450546056316573 0.3384512313256476 0.07273190716902644 0.3059058581866889 -0.2184816928120792 -0.854733346300157 0.21561025013470603 -0.09859287341731804 -0.7960987621147882 0.22837835858207867 -0.6581374594896968 0.18132147068320936 0.9261124835417335 -0.48562900240119333 0.1915068565615211 -0.19909641795220068 -0.8036127997465787 0.24055410080201456 0.5727853709596319 0.6044318816977631 0.06863370326140716 0.2589565755547324 -0.008888293731334485 -0.3380510174414594 -0.37868549161610887 0.9817007981413928 0.10616750977687583 0.7454520747658455 -0.5459818379774919 0.8089761296477614 -0.9655002542384762 0.07816278360190732 -0.4473317620901197 0.14902383579029788 -0.6258199463561958 -0.022775885367090076 -0.20484934628606755 -0.015907531626499938 0.19505087345335992 0.6374021452925328 0.37071698760505567 0.7722644583794536 0.23486659910242202 0.8658445478497132 0.35434353357929405 -0.36069620851872375 0.1496898167954227 0.7172642469629874 -0.2588198637890834 -0.18397873882533355 -0.022959062141058584 0.13355228483206594 0.7705633765239442 -0.9542383583459525 0.43272132171896927 0.3471331217960836 0.2024324554664374 0.8260255551789815 -0.6634958720402832 -0.2544202928278607 0.934376542512946 0.3823605433285666 0.26696032968723793 -0.5547878467209233 -0.46765422657849387 0.8977825196197059 0.5098781416018361 0.10958432391093453 0.6940306201854626 -0.14471838059051512 0.875740168940061 -0.2522276001189786 -0.3428112489006656 -0.8155334448776419 -0.9833881714112743 -0.19305853939729611 -0.8737165030684914 -0.0519776908442634 -0.6719859597651826 0.8503863743692098 -0.5754244257235535 0.44318566827645567 -0.657277751534722 neuralnet.OutputLayer@237563e-0.8393072949889367 -0.2679686493558894 0.22836134728976165 -0.517205692024342 -0.5257372950263548 0.9220869992106199 0.4732482215202143 0.33488036678914357 0.5563213591029944 -0.7833773943440042 0.5544314208055954 -0.7498421859077816 0.04155424833551924 -0.6403034540248586 -0.7078173707025917 0.9410811585993156 0.06987613251166458 -0.24050167091921615 -0.31005484592300714 -0.5134315190055818 0.11706418374012584 0.22674522752085913 0.9782213631902232 -0.6546410615001015 0.19102261602704784 -0.7726692062290446 0.13434960246251226 0.8167574932193652 0.012160014350440784 -0.5142843892569989 -0.6313752718907298 0.9815176757135371 0.005928886858436289 -0.5074810432584336 -0.04819670940783627 0.7696459581773414 0.2825349561096633 0.7418540616446674 0.5568894201341602 0.9051407062356238 0.6078986289218719 -0.2533455233237697 0.5861359617551128 -0.6984491225285736 0.572744318436785 -0.5665487633255378 -0.48879375539214875 0.36757257633597396 0.43168088550977524 -0.9839657659654519 -0.7489113199845578 0.3288945624115017 0.14667128812861652 -0.011198013640424498 -0.09882167680037057 -0.609277669745937 -0.9384035140834884 -0.7016219823932227 0.482351456185768 -0.47619527754470314 0.9358004461386898 0.8636328025756472 -0.2528509214997592 -0.8663274041835568 -0.8494639903400458 0.47135589369393294 0.8295171340388268 -0.4941243088901961 -0.8040328051860282 -0.7863952809206107 -0.30503376470228283 -0.04366178695589429 -0.2324526246097749 0.3237247039488994 0.9014222700554633 0.1619938092959049 -0.7842104849849294 0.7660704051434276 -0.7487659631254114 0.4184244254857009 -0.23385404473879057 -0.2711814390931736 -0.9425530234990969 0.1435128745964035 0.966278207766098 -0.7664161310966928 0.19008277961739128 -0.9963063169328009 0.6336436137317164 -0.882166499487693 0.9601970975617428 0.6261982348298436 0.12116006814784053 0.35873231805728 -0.43778849764940786 -0.8699428796818334 -0.256292408056385 -0.983208063657859 -0.028405886400245106 0.17324139048458498 0.5112386726259542 -0.6043209525039214 0.3004357065585941 -0.004734917022847673 -0.009976351366355884 -0.5137325490356731 -0.015250611226094501 -0.9847212432553236 0.8036550304357405 -0.4816223596134167 0.323198954267953 0.015978429118366222 -0.5716472600379855 -0.15310356020248161 0.7381009248371639 0.2537326646639484 0.018200857863287734 -0.701263055047771 0.28848384012977213 0.0447606801310213 -0.20256634065831491 -0.9136023859603608 0.9561427780390389 0.4049235685155398 0.4078751529385696 -0.9799122463628426 -0.2547161497549385 -0.8049615397330518 0.6260988766932265 0.8252663966553886 0.8026780231247767 -0.667713000476053 -0.7603352587470663 0.18212121534821624 -0.6317251199400259 -0.03166431982088125 0.06463458761897456 0.668506246050281 -0.8821212176348836 -0.03733953613875163 -0.8859324323775863 -0.8869594914906408 0.24355107952004063 0.46109471073501895 -0.39717032463778257 0.1897041229076808 0.7395374295687231 -0.750011394100214 -0.3418325068667636 -0.8670131733034219 0.7992669376241638 0.7301556415264464 0.4553233624062327 0.6814529896494229 -0.11825479459841748 0.6359281604522952 -0.2828919959240417 0.20987093205489138 -0.05524669085810685 0.9164722215799413 0.6067740141803242 0.16256911760017445 -0.939163945098825 0.7617164570159826 -0.4473991104956476 0.5145629360727725 -0.704847491908249 0.4659016683111423 0.3150369805750488 -0.04225227178040647 -0.5812156132822854 0.4093003179098601 0.03464592384783394 -0.2830381377854234 0.01584321835704572 0.7439122245296679 0.26995236602480366 -0.5407544380061884 -0.5016517657589958 -0.40789490262421013 -0.6160740949715475 0.26778765405612415 -0.1780964135663683 0.5178112550091472 0.5985083036121759 0.44287399249873016 0.5720995606358305 -0.623043779006104 0.6873806843908246 0.2830088294154771 -0.9874137224648404 -0.8243963834365412 0.494059184491049 0.5420325205584776 0.5190858718759024 -0.6014514104043412 0.1682529946610679 -0.011361516415898554 -0.8907431398342603 0.16484854029029117 0.42794219537940725 -0.8162934286358519 -0.021781364317012497 0.12649175987695094 -0.9555620489900144 -0.006797638758386904 -0.3025271490873336 -0.03210949956381193 0.676250010182234 -0.5406999792551738 0.08658527802424953 -0.23765803689906217 0.7552567998855331 -0.06649731601957454 0.4498573953917576 -0.018402268523702747 0.2626808682374685 -0.9591328238650942 -0.466266333631179 0.18016456664308822 -0.6231849724059554 -0.7136281564078572 -0.973851623644555 0.9402497927779582 0.38030221854153046 0.3597550564723687 0.9295790233010925 0.5790534594406953 0.1798940043466084 -0.6450694817582119 0.610279936187505 0.009473285862549918 0.9107271446348807 -0.16013831634721432 -0.40606502182412063 0.4896668430510155 -0.4881363981791851 -0.3775655056791277 -0.7484196507349675 0.38713265180629 0.8086179766294684 -0.978338719124728 -0.17022792088896266 -0.5307785908533594 -0.4946065302639895 -0.17988414958947851 0.9281463153460366 -0.8261590097662664 -0.13740562520963961 -0.07415685722150334 -0.4598412982421569 -0.7694800899358611 0.5317789406944449 -0.8225067376040119 0.3451808414780486 -0.5787366089935206 0.6805383077998403 -0.013144155351783926 -0.3095595271651307 0.0804698470073133 0.8254866391184492 -0.5855525540012354 0.9195577911521654 -0.36935679553977563 -0.32204830478203117 0.3368436597813854 -0.39743353883485144 -0.6078159783627693 0.30906426307322976 -0.9060724710511511 0.18410340894308985 -0.44301036173202946 -0.6275631906750215 -0.8605922807715376 -0.6024284751329729 0.4021360524820069 0.34384782283864024 -0.017525250612524523 -0.02893885651842998 0.9761223732524387 0.4055335996915762 -0.9396803621680961 -0.9249241396653068 -0.09002268319976259 -0.07806124864889541 -0.9371800014323644 0.2039330221672293 0.09227754839336699 0.42506207838599996 -0.18123950823009294 -0.26473554483570994 0.4635041444773357 0.6987124361542804 -0.19136793513946104 0.9403671576286855 -0.4967636821708209 -0.7332177682736304 -0.9121465213754589 0.30916068402649766 -0.6651026145263083 0.24265842814044458 0.2660639924808199 -0.5340122385423304 0.09794576141270417 0.773597294621299 0.80720399349701 -0.13289022183770605 0.03673844620213551 0.9506424088546793 -0.6099352263637113 0.7400402919056355 -0.061640670379203955 -0.9163085180673203 0.232855915866662 -0.8767605500065787 0.287439865948635 -0.7582819155521918 -0.04450546056316573 0.3384512313256476 0.07273190716902644 0.3059058581866889 -0.2184816928120792 -0.854733346300157 0.21561025013470603 -0.09859287341731804 -0.7960987621147882 0.22837835858207867 -0.6581374594896968 0.18132147068320936 0.9261124835417335 -0.48562900240119333 0.1915068565615211 -0.19909641795220068 -0.8036127997465787 0.24055410080201456 0.5727853709596319 0.6044318816977631 0.06863370326140716 0.2589565755547324 -0.008888293731334485 -0.3380510174414594 -0.37868549161610887 0.9817007981413928 0.10616750977687583 0.7454520747658455 -0.5459818379774919 0.8089761296477614 -0.9655002542384762 0.07816278360190732 -0.4473317620901197 0.14902383579029788 -0.6258199463561958 -0.022775885367090076 -0.20484934628606755 -0.015907531626499938 0.19505087345335992 0.6374021452925328 0.37071698760505567 0.7722644583794536 0.23486659910242202 0.8658445478497132 0.35434353357929405 -0.36069620851872375 0.1496898167954227 0.7172642469629874 -0.2588198637890834 -0.18397873882533355 -0.022959062141058584 0.13355228483206594 0.7705633765239442 -0.9542383583459525 0.43272132171896927 0.3471331217960836 0.2024324554664374 0.8260255551789815 -0.6634958720402832 -0.2544202928278607 0.934376542512946 0.3823605433285666 0.26696032968723793 -0.5547878467209233 -0.46765422657849387 0.8977825196197059 0.5098781416018361 0.10958432391093453 0.6940306201854626 -0.14471838059051512 0.875740168940061 -0.2522276001189786 -0.3428112489006656 -0.8155334448776419 -0.9833881714112743 -0.19305853939729611 -0.8737165030684914 -0.0519776908442634 -0.6719859597651826 0.8503863743692098 -0.5754244257235535 0.44318566827645567 -0.657277751534722 neuralnet.OutputLayer@3b2529880.38663864976198425 -0.882826351572873 0.1956061848043632 0.36688944496801457 -0.47877165492563833 -0.9544208434875403 -0.6004379413454128 -0.8839405177470152 -0.9945187265631192 -0.9182677403162935 0.5999728757053049 -0.03320778393734647 0.7962863771170409 0.41930174830354405 -0.8064380888655154 -0.20991117914139878 0.7741497626668785 0.8626450156012693 0.8772290188829039 0.32263126392147246 -0.23754904773079388 -0.7087461028431787 0.12087516387346442 0.502001679147111 0.2885625274167183 0.8924335640580786 0.07380133297663682 0.998274821358294 0.48612551384555835 0.8138333624178138 -0.6877301142244074 -0.44210120432705957 -0.13309049760143699 -0.31629864375806804 0.2584271869934158 -0.29018088123041197 0.6464698487732075 -0.6462333597167752 -0.988137755863948 0.9173897995475919 0.719347515834327 0.30484695199514544 0.9309048210202496 0.9210717964067067 0.8728170569623118 -0.279607992710622 -0.8004866815047689 0.6939406640362306 -0.9239749826198015 0.06433911228438671 -0.8926948478857017 -0.37831970836458273 -0.3464978580869311 -0.38261851453991935 0.06685697268230417 0.5774745687073327 0.36508019907529277 -0.665080215126383 0.8776343457792427 -0.04415661097381962 0.1816731494154905 0.32983462189471346 -0.7745318812493287 -0.716800019695141 -0.7714539860987439 0.4774212764136483 -0.6420854167830856 -0.8286984852291568 0.6218183145394925 0.04637143511684361 -0.3014672043731115 -0.5832283982051222 -0.045865600028111686 -0.17904598926232607 0.42837549265724695 -0.6211894487141586 0.9926578884719787 0.07229774214927998 -0.23601764794690427 0.15077394841980118 -0.2153387726049084 0.62204216343592 -0.537073961953686 0.8515598318403337 -0.8322873536205033 -0.48488908485602555 -0.4225938139033041 -0.1688513773213971 -0.4555873922746547 0.8598538717978081 0.41230345389203926 0.05200450748220742 -0.6057247179255062 0.8175599212301267 0.2071587914617714 -0.9254295798274729 0.09304187012443599 -0.3720058512704164 0.10427163409525864 0.250339341333254 -0.7753244870957868 0.7761685902200368 0.26192829244224647 0.07890954114942039 0.2826262635920994 -0.24460231656329934 0.4689684305020563 -0.5056511558273417 0.8406428565163792 0.41457610248195265 -0.3173645171719828 -0.2511998051369414 -0.6476992273796965 -0.8703196474099536 0.5859779694750946 0.8046271773985867 0.4322358739323454 -0.7187553973768209 0.505883799848311 0.8369686479496248 -0.9525740132281658 -0.9941226922307693 -0.018069692706450424 0.8021678817536734 -0.43277964544545344 0.4100284331543882 -0.5147176224328647 0.6193566862431522 -0.8034640004502452 -0.6381831493233001 0.483407471327545 0.5270826831676473 0.35494302787398235 -0.6802043333450364 0.3798155154699796 -0.34179095993301833 -0.9806492012931128 -0.8915510365678426 0.1496616074495455 0.9777151205992938 0.6706617300099793 0.03573675924600772 0.4850337891941402 0.9621764601187492 -0.9270722159821116 0.6792680093966946 0.37312732172225826 -0.11132642855709718 0.7619562940122371 0.1901919611692804 -0.4068062577113385 0.32611872192620117 0.47056481168142816 0.20753924052172634 -0.8570629932098394 0.474315424390115 0.20825963210713294 -0.19522720948606032 0.022574228212553726 -0.17432550756217036 0.8293572555056917 -0.8466408402668657 -0.28237551113852855 -0.7090275309750627 -0.5522887259556897 0.36824955780811053 0.6540489890671464 0.3527984576839994 0.3173502685666164 0.8646501188169358 -0.4520713250042412 0.016714636790718607 -0.07754921323268127 -0.6938784142934816 -0.9454024719457077 0.7083479120081347 -0.8199839337805539 0.147009813471623 0.22908585707443518 -0.1882918463542671 0.3241316905555762 -0.1120180823450565 -0.24721337288720302 0.11643487241395012 0.22832595839369307 0.4769065527329093 -0.4557743580738872 -0.9947693557168634 0.44585122223824714 -0.962265734878545 0.5603572115406859 0.0926418765052166 -0.03302464619958523 -0.9789683721178124 0.28646179715844156 0.15716481272508476 0.7648550885698396 0.39941457388722623 0.5069027937366447 0.38433260171584904 -0.6686410218201974 0.12169048819733719 0.5169965233822814 0.06229926093929283 0.0922900070451389 0.3678154440847812 0.4712270345365972 0.2061715470809563 0.3856830185106389 -0.6260655505296195 0.2300324313194232 -0.9949768960729034 -0.5680581923687035 0.6183064809845809 -0.046680480181895634 -0.782400662286918 0.8121395585924923 0.8547052101705584 0.05251387149959319 0.5300090596987221 0.5893102017764202 0.9641894062117522 -0.36500918889232603 -0.3686064058338272 0.5923579838115663 0.4675847397121313 -0.3923050433792922 -0.8287629752635922 -0.9344646608020082 -0.8673782319054392 0.4250586123310799 0.5035774145105246 0.9473870058340736 0.7388133719121837 0.5162591488423179 0.9772186078908996 -0.6423938975286577 0.281588487693219 -0.42342029565593864 0.6348212817338479 -0.6387499466271084 -0.25894065169229674 0.6971908714109624 -0.7154599195415421 -0.03305678396801426 0.780595846499259 0.19897227669175854 0.6121157885270476 -0.6343442751768474 -0.8690070600090396 -0.3371729988296496 0.024850000600481148 0.19286494813131916 -0.05329225637727808 -0.93302374147604 -0.6631232362177304 -0.29026564619670314 -0.43496062354642084 0.8784920572357784 -0.09782541349991503 -0.8443930120497205 0.06523946722350615 0.05125000233328292 0.9217759748187677 0.5787102477724421 -0.995245646013285 -0.023152313612542885 0.047952455088592694 -0.5445177032178038 0.1308693899595581 0.7620034685390696 -0.9065257843784784 0.6592090133933731 -0.3609132396084951 -0.3194359682872896 0.250437914709727 0.4304302741595166 -0.6798755075365408 -0.8925802216760133 -0.7879340338295278 0.07643768934778106 -0.6646369768776366 0.6941461036734122 0.5631295990981491 0.12361980140278539 0.2501408164715906 -0.5772819346022484 -0.28957217139660607 -0.4502352393113883 0.6841484443933871 -0.42327416103571847 0.023639407874818108 -0.18406678442948654 -0.4087048219580077 0.6235629165652224 0.16779564391729263 -0.4717333655361404 -0.17478932515833623 -0.2976432801061727 -0.6400756570837909 -0.6849261623617598 0.582750074034986 0.4791263509808551 -0.6382218506828871 0.5765951602379653 -0.6673690253930542 -0.14717572530942358 0.9250615411876468 0.12370259298711805 0.450148678415627 0.5854607654523047 0.4916475359107022 0.8840611555730561 -0.5033206279031028 0.7702124424092296 0.6847549903730883 -0.8665759650114266 -0.35635761423451073 0.9489417087119784 0.3331306503299313 -0.5338834357833566 -0.631610175872722 -0.8775576330386475 -0.11648050563847578 0.6096059122137077 0.20212857888999536 0.26239250957821225 -0.6289433682434109 0.41745857062211555 -0.07015795036172234 0.8047268769382269 -0.9640036033051471 0.9439302602484368 -0.5939784220921602 0.9731022797792972 0.9611003487711048 0.45976605768438616 -0.28102302637677434 0.31335999607380605 -0.8708877710792087 0.9572385357113092 -0.7939248706843307 0.10230255443040648 -0.7045068520076184 0.004619944006878263 0.17234300608966657 0.0854881909596642 0.37879988054297764 -0.565353036672565 -0.29027996788799637 -0.5202323739030675 -0.6100440499436349 0.02344640912265472 0.8524905288924811 -0.8005142822608453 0.5617596888319293 0.06807239281465294 -0.7309240831338771 -0.3949438075284871 -0.5297583372416639 0.1813617703364344 -0.4011973732145139 -0.3247163586709976 0.8382455565967609 -0.9317765285200053 -0.5537588183173044 0.7385132198202746 -0.9834423912771064 -0.049413077589827714 0.48137016044464864 -0.19752139573325345 0.09611892842665826 -0.6112248977290173 -0.6683390423565322 -0.9394975555650071 0.3227707883014449 0.7716378805898181 0.24708954318541 0.4562733963757566 -0.8205787793046266 -0.22014076106838742 0.3603178628582221 -0.1835585907601175 -0.2553181194705435 0.7767885238774204 0.7254821092332869 0.23727886253505415 -0.08352625146861403 0.7561683296855763 0.9081855498329562 0.2880628839852615 -0.15221313207770104 0.13034016693880635 0.4088042579725646 0.4909324056834171 0.6330208802004273 0.026882377160177384 -0.4421691955245599 0.19792754440618499 -0.580172466891388 neuralnet.OutputLayer@5a8a951f-0.8393072949889367 -0.2679686493558894 0.22836134728976165 -0.517205692024342 -0.5257372950263548 0.9220869992106199 0.4732482215202143 0.33488036678914357 0.5563213591029944 -0.7833773943440042 0.5544314208055954 -0.7498421859077816 0.04155424833551924 -0.6403034540248586 -0.7078173707025917 0.9410811585993156 0.06987613251166458 -0.24050167091921615 -0.31005484592300714 -0.5134315190055818 0.11706418374012584 0.22674522752085913 0.9782213631902232 -0.6546410615001015 0.19102261602704784 -0.7726692062290446 0.13434960246251226 0.8167574932193652 0.012160014350440784 -0.5142843892569989 -0.6313752718907298 0.9815176757135371 0.005928886858436289 -0.5074810432584336 -0.04819670940783627 0.7696459581773414 0.2825349561096633 0.7418540616446674 0.5568894201341602 0.9051407062356238 0.6078986289218719 -0.2533455233237697 0.5861359617551128 -0.6984491225285736 0.572744318436785 -0.5665487633255378 -0.48879375539214875 0.36757257633597396 0.43168088550977524 -0.9839657659654519 -0.7489113199845578 0.3288945624115017 0.14667128812861652 -0.011198013640424498 -0.09882167680037057 -0.609277669745937 -0.9384035140834884 -0.7016219823932227 0.482351456185768 -0.47619527754470314 0.9358004461386898 0.8636328025756472 -0.2528509214997592 -0.8663274041835568 -0.8494639903400458 0.47135589369393294 0.8295171340388268 -0.4941243088901961 -0.8040328051860282 -0.7863952809206107 -0.30503376470228283 -0.04366178695589429 -0.2324526246097749 0.3237247039488994 0.9014222700554633 0.1619938092959049 -0.7842104849849294 0.7660704051434276 -0.7487659631254114 0.4184244254857009 -0.23385404473879057 -0.2711814390931736 -0.9425530234990969 0.1435128745964035 0.966278207766098 -0.7664161310966928 0.19008277961739128 -0.9963063169328009 0.6336436137317164 -0.882166499487693 0.9601970975617428 0.6261982348298436 0.12116006814784053 0.35873231805728 -0.43778849764940786 -0.8699428796818334 -0.256292408056385 -0.983208063657859 -0.028405886400245106 0.17324139048458498 0.5112386726259542 -0.6043209525039214 0.3004357065585941 -0.004734917022847673 -0.009976351366355884 -0.5137325490356731 -0.015250611226094501 -0.9847212432553236 0.8036550304357405 -0.4816223596134167 0.323198954267953 0.015978429118366222 -0.5716472600379855 -0.15310356020248161 0.7381009248371639 0.2537326646639484 0.018200857863287734 -0.701263055047771 0.28848384012977213 0.0447606801310213 -0.20256634065831491 -0.9136023859603608 0.9561427780390389 0.4049235685155398 0.4078751529385696 -0.9799122463628426 -0.2547161497549385 -0.8049615397330518 0.6260988766932265 0.8252663966553886 0.8026780231247767 -0.667713000476053 -0.7603352587470663 0.18212121534821624 -0.6317251199400259 -0.03166431982088125 0.06463458761897456 0.668506246050281 -0.8821212176348836 -0.03733953613875163 -0.8859324323775863 -0.8869594914906408 0.24355107952004063 0.46109471073501895 -0.39717032463778257 0.1897041229076808 0.7395374295687231 -0.750011394100214 -0.3418325068667636 -0.8670131733034219 0.7992669376241638 0.7301556415264464 0.4553233624062327 0.6814529896494229 -0.11825479459841748 0.6359281604522952 -0.2828919959240417 0.20987093205489138 -0.05524669085810685 0.9164722215799413 0.6067740141803242 0.16256911760017445 -0.939163945098825 0.7617164570159826 -0.4473991104956476 0.5145629360727725 -0.704847491908249 0.4659016683111423 0.3150369805750488 -0.04225227178040647 -0.5812156132822854 0.4093003179098601 0.03464592384783394 -0.2830381377854234 0.01584321835704572 0.7439122245296679 0.26995236602480366 -0.5407544380061884 -0.5016517657589958 -0.40789490262421013 -0.6160740949715475 0.26778765405612415 -0.1780964135663683 0.5178112550091472 0.5985083036121759 0.44287399249873016 0.5720995606358305 -0.623043779006104 0.6873806843908246 0.2830088294154771 -0.9874137224648404 -0.8243963834365412 0.494059184491049 0.5420325205584776 0.5190858718759024 -0.6014514104043412 0.1682529946610679 -0.011361516415898554 -0.8907431398342603 0.16484854029029117 0.42794219537940725 -0.8162934286358519 -0.021781364317012497 0.12649175987695094 -0.9555620489900144 -0.006797638758386904 -0.3025271490873336 -0.03210949956381193 0.676250010182234 -0.5406999792551738 0.08658527802424953 -0.23765803689906217 0.7552567998855331 -0.06649731601957454 0.4498573953917576 -0.018402268523702747 0.2626808682374685 -0.9591328238650942 -0.466266333631179 0.18016456664308822 -0.6231849724059554 -0.7136281564078572 -0.973851623644555 0.9402497927779582 0.38030221854153046 0.3597550564723687 0.9295790233010925 0.5790534594406953 0.1798940043466084 -0.6450694817582119 0.610279936187505 0.009473285862549918 0.9107271446348807 -0.16013831634721432 -0.40606502182412063 0.4896668430510155 -0.4881363981791851 -0.3775655056791277 -0.7484196507349675 0.38713265180629 0.8086179766294684 -0.978338719124728 -0.17022792088896266 -0.5307785908533594 -0.4946065302639895 -0.17988414958947851 0.9281463153460366 -0.8261590097662664 -0.13740562520963961 -0.07415685722150334 -0.4598412982421569 -0.7694800899358611 0.5317789406944449 -0.8225067376040119 0.3451808414780486 -0.5787366089935206 0.6805383077998403 -0.013144155351783926 -0.3095595271651307 0.0804698470073133 0.8254866391184492 -0.5855525540012354 0.9195577911521654 -0.36935679553977563 -0.32204830478203117 0.3368436597813854 -0.39743353883485144 -0.6078159783627693 0.30906426307322976 -0.9060724710511511 0.18410340894308985 -0.44301036173202946 -0.6275631906750215 -0.8605922807715376 -0.6024284751329729 0.4021360524820069 0.34384782283864024 -0.017525250612524523 -0.02893885651842998 0.9761223732524387 0.4055335996915762 -0.9396803621680961 -0.9249241396653068 -0.09002268319976259 -0.07806124864889541 -0.9371800014323644 0.2039330221672293 0.09227754839336699 0.42506207838599996 -0.18123950823009294 -0.26473554483570994 0.4635041444773357 0.6987124361542804 -0.19136793513946104 0.9403671576286855 -0.4967636821708209 -0.7332177682736304 -0.9121465213754589 0.30916068402649766 -0.6651026145263083 0.24265842814044458 0.2660639924808199 -0.5340122385423304 0.09794576141270417 0.773597294621299 0.80720399349701 -0.13289022183770605 0.03673844620213551 0.9506424088546793 -0.6099352263637113 0.7400402919056355 -0.061640670379203955 -0.9163085180673203 0.232855915866662 -0.8767605500065787 0.287439865948635 -0.7582819155521918 -0.04450546056316573 0.3384512313256476 0.07273190716902644 0.3059058581866889 -0.2184816928120792 -0.854733346300157 0.21561025013470603 -0.09859287341731804 -0.7960987621147882 0.22837835858207867 -0.6581374594896968 0.18132147068320936 0.9261124835417335 -0.48562900240119333 0.1915068565615211 -0.19909641795220068 -0.8036127997465787 0.24055410080201456 0.5727853709596319 0.6044318816977631 0.06863370326140716 0.2589565755547324 -0.008888293731334485 -0.3380510174414594 -0.37868549161610887 0.9817007981413928 0.10616750977687583 0.7454520747658455 -0.5459818379774919 0.8089761296477614 -0.9655002542384762 0.07816278360190732 -0.4473317620901197 0.14902383579029788 -0.6258199463561958 -0.022775885367090076 -0.20484934628606755 -0.015907531626499938 0.19505087345335992 0.6374021452925328 0.37071698760505567 0.7722644583794536 0.23486659910242202 0.8658445478497132 0.35434353357929405 -0.36069620851872375 0.1496898167954227 0.7172642469629874 -0.2588198637890834 -0.18397873882533355 -0.022959062141058584 0.13355228483206594 0.7705633765239442 -0.9542383583459525 0.43272132171896927 0.3471331217960836 0.2024324554664374 0.8260255551789815 -0.6634958720402832 -0.2544202928278607 0.934376542512946 0.3823605433285666 0.26696032968723793 -0.5547878467209233 -0.46765422657849387 0.8977825196197059 0.5098781416018361 0.10958432391093453 0.6940306201854626 -0.14471838059051512 0.875740168940061 -0.2522276001189786 -0.3428112489006656 -0.8155334448776419 -0.9833881714112743 -0.19305853939729611 -0.8737165030684914 -0.0519776908442634 -0.6719859597651826 0.8503863743692098 -0.5754244257235535 0.44318566827645567 -0.657277751534722 neuralnet.OutputLayer@4ab74a80-0.8393072949889367 -0.2679686493558894 0.22836134728976165 -0.517205692024342 -0.5257372950263548 0.9220869992106199 0.4732482215202143 0.33488036678914357 0.5563213591029944 -0.7833773943440042 0.5544314208055954 -0.7498421859077816 0.04155424833551924 -0.6403034540248586 -0.7078173707025917 0.9410811585993156 0.06987613251166458 -0.24050167091921615 -0.31005484592300714 -0.5134315190055818 0.11706418374012584 0.22674522752085913 0.9782213631902232 -0.6546410615001015 0.19102261602704784 -0.7726692062290446 0.13434960246251226 0.8167574932193652 0.012160014350440784 -0.5142843892569989 -0.6313752718907298 0.9815176757135371 0.005928886858436289 -0.5074810432584336 -0.04819670940783627 0.7696459581773414 0.2825349561096633 0.7418540616446674 0.5568894201341602 0.9051407062356238 0.6078986289218719 -0.2533455233237697 0.5861359617551128 -0.6984491225285736 0.572744318436785 -0.5665487633255378 -0.48879375539214875 0.36757257633597396 0.43168088550977524 -0.9839657659654519 -0.7489113199845578 0.3288945624115017 0.14667128812861652 -0.011198013640424498 -0.09882167680037057 -0.609277669745937 -0.9384035140834884 -0.7016219823932227 0.482351456185768 -0.47619527754470314 0.9358004461386898 0.8636328025756472 -0.2528509214997592 -0.8663274041835568 -0.8494639903400458 0.47135589369393294 0.8295171340388268 -0.4941243088901961 -0.8040328051860282 -0.7863952809206107 -0.30503376470228283 -0.04366178695589429 -0.2324526246097749 0.3237247039488994 0.9014222700554633 0.1619938092959049 -0.7842104849849294 0.7660704051434276 -0.7487659631254114 0.4184244254857009 -0.23385404473879057 -0.2711814390931736 -0.9425530234990969 0.1435128745964035 0.966278207766098 -0.7664161310966928 0.19008277961739128 -0.9963063169328009 0.6336436137317164 -0.882166499487693 0.9601970975617428 0.6261982348298436 0.12116006814784053 0.35873231805728 -0.43778849764940786 -0.8699428796818334 -0.256292408056385 -0.983208063657859 -0.028405886400245106 0.17324139048458498 0.5112386726259542 -0.6043209525039214 0.3004357065585941 -0.004734917022847673 -0.009976351366355884 -0.5137325490356731 -0.015250611226094501 -0.9847212432553236 0.8036550304357405 -0.4816223596134167 0.323198954267953 0.015978429118366222 -0.5716472600379855 -0.15310356020248161 0.7381009248371639 0.2537326646639484 0.018200857863287734 -0.701263055047771 0.28848384012977213 0.0447606801310213 -0.20256634065831491 -0.9136023859603608 0.9561427780390389 0.4049235685155398 0.4078751529385696 -0.9799122463628426 -0.2547161497549385 -0.8049615397330518 0.6260988766932265 0.8252663966553886 0.8026780231247767 -0.667713000476053 -0.7603352587470663 0.18212121534821624 -0.6317251199400259 -0.03166431982088125 0.06463458761897456 0.668506246050281 -0.8821212176348836 -0.03733953613875163 -0.8859324323775863 -0.8869594914906408 0.24355107952004063 0.46109471073501895 -0.39717032463778257 0.1897041229076808 0.7395374295687231 -0.750011394100214 -0.3418325068667636 -0.8670131733034219 0.7992669376241638 0.7301556415264464 0.4553233624062327 0.6814529896494229 -0.11825479459841748 0.6359281604522952 -0.2828919959240417 0.20987093205489138 -0.05524669085810685 0.9164722215799413 0.6067740141803242 0.16256911760017445 -0.939163945098825 0.7617164570159826 -0.4473991104956476 0.5145629360727725 -0.704847491908249 0.4659016683111423 0.3150369805750488 -0.04225227178040647 -0.5812156132822854 0.4093003179098601 0.03464592384783394 -0.2830381377854234 0.01584321835704572 0.7439122245296679 0.26995236602480366 -0.5407544380061884 -0.5016517657589958 -0.40789490262421013 -0.6160740949715475 0.26778765405612415 -0.1780964135663683 0.5178112550091472 0.5985083036121759 0.44287399249873016 0.5720995606358305 -0.623043779006104 0.6873806843908246 0.2830088294154771 -0.9874137224648404 -0.8243963834365412 0.494059184491049 0.5420325205584776 0.5190858718759024 -0.6014514104043412 0.1682529946610679 -0.011361516415898554 -0.8907431398342603 0.16484854029029117 0.42794219537940725 -0.8162934286358519 -0.021781364317012497 0.12649175987695094 -0.9555620489900144 -0.006797638758386904 -0.3025271490873336 -0.03210949956381193 0.676250010182234 -0.5406999792551738 0.08658527802424953 -0.23765803689906217 0.7552567998855331 -0.06649731601957454 0.4498573953917576 -0.018402268523702747 0.2626808682374685 -0.9591328238650942 -0.466266333631179 0.18016456664308822 -0.6231849724059554 -0.7136281564078572 -0.973851623644555 0.9402497927779582 0.38030221854153046 0.3597550564723687 0.9295790233010925 0.5790534594406953 0.1798940043466084 -0.6450694817582119 0.610279936187505 0.009473285862549918 0.9107271446348807 -0.16013831634721432 -0.40606502182412063 0.4896668430510155 -0.4881363981791851 -0.3775655056791277 -0.7484196507349675 0.38713265180629 0.8086179766294684 -0.978338719124728 -0.17022792088896266 -0.5307785908533594 -0.4946065302639895 -0.17988414958947851 0.9281463153460366 -0.8261590097662664 -0.13740562520963961 -0.07415685722150334 -0.4598412982421569 -0.7694800899358611 0.5317789406944449 -0.8225067376040119 0.3451808414780486 -0.5787366089935206 0.6805383077998403 -0.013144155351783926 -0.3095595271651307 0.0804698470073133 0.8254866391184492 -0.5855525540012354 0.9195577911521654 -0.36935679553977563 -0.32204830478203117 0.3368436597813854 -0.39743353883485144 -0.6078159783627693 0.30906426307322976 -0.9060724710511511 0.18410340894308985 -0.44301036173202946 -0.6275631906750215 -0.8605922807715376 -0.6024284751329729 0.4021360524820069 0.34384782283864024 -0.017525250612524523 -0.02893885651842998 0.9761223732524387 0.4055335996915762 -0.9396803621680961 -0.9249241396653068 -0.09002268319976259 -0.07806124864889541 -0.9371800014323644 0.2039330221672293 0.09227754839336699 0.42506207838599996 -0.18123950823009294 -0.26473554483570994 0.4635041444773357 0.6987124361542804 -0.19136793513946104 0.9403671576286855 -0.4967636821708209 -0.7332177682736304 -0.9121465213754589 0.30916068402649766 -0.6651026145263083 0.24265842814044458 0.2660639924808199 -0.5340122385423304 0.09794576141270417 0.773597294621299 0.80720399349701 -0.13289022183770605 0.03673844620213551 0.9506424088546793 -0.6099352263637113 0.7400402919056355 -0.061640670379203955 -0.9163085180673203 0.232855915866662 -0.8767605500065787 0.287439865948635 -0.7582819155521918 -0.04450546056316573 0.3384512313256476 0.07273190716902644 0.3059058581866889 -0.2184816928120792 -0.854733346300157 0.21561025013470603 -0.09859287341731804 -0.7960987621147882 0.22837835858207867 -0.6581374594896968 0.18132147068320936 0.9261124835417335 -0.48562900240119333 0.1915068565615211 -0.19909641795220068 -0.8036127997465787 0.24055410080201456 0.5727853709596319 0.6044318816977631 0.06863370326140716 0.2589565755547324 -0.008888293731334485 -0.3380510174414594 -0.37868549161610887 0.9817007981413928 0.10616750977687583 0.7454520747658455 -0.5459818379774919 0.8089761296477614 -0.9655002542384762 0.07816278360190732 -0.4473317620901197 0.14902383579029788 -0.6258199463561958 -0.022775885367090076 -0.20484934628606755 -0.015907531626499938 0.19505087345335992 0.6374021452925328 0.37071698760505567 0.7722644583794536 0.23486659910242202 0.8658445478497132 0.35434353357929405 -0.36069620851872375 0.1496898167954227 0.7172642469629874 -0.2588198637890834 -0.18397873882533355 -0.022959062141058584 0.13355228483206594 0.7705633765239442 -0.9542383583459525 0.43272132171896927 0.3471331217960836 0.2024324554664374 0.8260255551789815 -0.6634958720402832 -0.2544202928278607 0.934376542512946 0.3823605433285666 0.26696032968723793 -0.5547878467209233 -0.46765422657849387 0.8977825196197059 0.5098781416018361 0.10958432391093453 0.6940306201854626 -0.14471838059051512 0.875740168940061 -0.2522276001189786 -0.3428112489006656 -0.8155334448776419 -0.9833881714112743 -0.19305853939729611 -0.8737165030684914 -0.0519776908442634 -0.6719859597651826 0.8503863743692098 -0.5754244257235535 0.44318566827645567 -0.657277751534722 neuralnet.OutputLayer@7289634e-0.8393072949889367 -0.2679686493558894 0.22836134728976165 -0.517205692024342 -0.5257372950263548 0.9220869992106199 0.4732482215202143 0.33488036678914357 0.5563213591029944 -0.7833773943440042 0.5544314208055954 -0.7498421859077816 0.04155424833551924 -0.6403034540248586 -0.7078173707025917 0.9410811585993156 0.06987613251166458 -0.24050167091921615 -0.31005484592300714 -0.5134315190055818 0.11706418374012584 0.22674522752085913 0.9782213631902232 -0.6546410615001015 0.19102261602704784 -0.7726692062290446 0.13434960246251226 0.8167574932193652 0.012160014350440784 -0.5142843892569989 -0.6313752718907298 0.9815176757135371 0.005928886858436289 -0.5074810432584336 -0.04819670940783627 0.7696459581773414 0.2825349561096633 0.7418540616446674 0.5568894201341602 0.9051407062356238 0.6078986289218719 -0.2533455233237697 0.5861359617551128 -0.6984491225285736 0.572744318436785 -0.5665487633255378 -0.48879375539214875 0.36757257633597396 0.43168088550977524 -0.9839657659654519 -0.7489113199845578 0.3288945624115017 0.14667128812861652 -0.011198013640424498 -0.09882167680037057 -0.609277669745937 -0.9384035140834884 -0.7016219823932227 0.482351456185768 -0.47619527754470314 0.9358004461386898 0.8636328025756472 -0.2528509214997592 -0.8663274041835568 -0.8494639903400458 0.47135589369393294 0.8295171340388268 -0.4941243088901961 -0.8040328051860282 -0.7863952809206107 -0.30503376470228283 -0.04366178695589429 -0.2324526246097749 0.3237247039488994 0.9014222700554633 0.1619938092959049 -0.7842104849849294 0.7660704051434276 -0.7487659631254114 0.4184244254857009 -0.23385404473879057 -0.2711814390931736 -0.9425530234990969 0.1435128745964035 0.966278207766098 -0.7664161310966928 0.19008277961739128 -0.9963063169328009 0.6336436137317164 -0.882166499487693 0.9601970975617428 0.6261982348298436 0.12116006814784053 0.35873231805728 -0.43778849764940786 -0.8699428796818334 -0.256292408056385 -0.983208063657859 -0.028405886400245106 0.17324139048458498 0.5112386726259542 -0.6043209525039214 0.3004357065585941 -0.004734917022847673 -0.009976351366355884 -0.5137325490356731 -0.015250611226094501 -0.9847212432553236 0.8036550304357405 -0.4816223596134167 0.323198954267953 0.015978429118366222 -0.5716472600379855 -0.15310356020248161 0.7381009248371639 0.2537326646639484 0.018200857863287734 -0.701263055047771 0.28848384012977213 0.0447606801310213 -0.20256634065831491 -0.9136023859603608 0.9561427780390389 0.4049235685155398 0.4078751529385696 -0.9799122463628426 -0.2547161497549385 -0.8049615397330518 0.6260988766932265 0.8252663966553886 0.8026780231247767 -0.667713000476053 -0.7603352587470663 0.18212121534821624 -0.6317251199400259 -0.03166431982088125 0.06463458761897456 0.668506246050281 -0.8821212176348836 -0.03733953613875163 -0.8859324323775863 -0.8869594914906408 0.24355107952004063 0.46109471073501895 -0.39717032463778257 0.1897041229076808 0.7395374295687231 -0.750011394100214 -0.3418325068667636 -0.8670131733034219 0.7992669376241638 0.7301556415264464 0.4553233624062327 0.6814529896494229 -0.11825479459841748 0.6359281604522952 -0.2828919959240417 0.20987093205489138 -0.05524669085810685 0.9164722215799413 0.6067740141803242 0.16256911760017445 -0.939163945098825 0.7617164570159826 -0.4473991104956476 0.5145629360727725 -0.704847491908249 0.4659016683111423 0.3150369805750488 -0.04225227178040647 -0.5812156132822854 0.4093003179098601 0.03464592384783394 -0.2830381377854234 0.01584321835704572 0.7439122245296679 0.26995236602480366 -0.5407544380061884 -0.5016517657589958 -0.40789490262421013 -0.6160740949715475 0.26778765405612415 -0.1780964135663683 0.5178112550091472 0.5985083036121759 0.44287399249873016 0.5720995606358305 -0.623043779006104 0.6873806843908246 0.2830088294154771 -0.9874137224648404 -0.8243963834365412 0.494059184491049 0.5420325205584776 0.5190858718759024 -0.6014514104043412 0.1682529946610679 -0.011361516415898554 -0.8907431398342603 0.16484854029029117 0.42794219537940725 -0.8162934286358519 -0.021781364317012497 0.12649175987695094 -0.9555620489900144 -0.006797638758386904 -0.3025271490873336 -0.03210949956381193 0.676250010182234 -0.5406999792551738 0.08658527802424953 -0.23765803689906217 0.7552567998855331 -0.06649731601957454 0.4498573953917576 -0.018402268523702747 0.2626808682374685 -0.9591328238650942 -0.466266333631179 0.18016456664308822 -0.6231849724059554 -0.7136281564078572 -0.973851623644555 0.9402497927779582 0.38030221854153046 0.3597550564723687 0.9295790233010925 0.5790534594406953 0.1798940043466084 -0.6450694817582119 0.610279936187505 0.009473285862549918 0.9107271446348807 -0.16013831634721432 -0.40606502182412063 0.4896668430510155 -0.4881363981791851 -0.3775655056791277 -0.7484196507349675 0.38713265180629 0.8086179766294684 -0.978338719124728 -0.17022792088896266 -0.5307785908533594 -0.4946065302639895 -0.17988414958947851 0.9281463153460366 -0.8261590097662664 -0.13740562520963961 -0.07415685722150334 -0.4598412982421569 -0.7694800899358611 0.5317789406944449 -0.8225067376040119 0.3451808414780486 -0.5787366089935206 0.6805383077998403 -0.013144155351783926 -0.3095595271651307 0.0804698470073133 0.8254866391184492 -0.5855525540012354 0.9195577911521654 -0.36935679553977563 -0.32204830478203117 0.3368436597813854 -0.39743353883485144 -0.6078159783627693 0.30906426307322976 -0.9060724710511511 0.18410340894308985 -0.44301036173202946 -0.6275631906750215 -0.8605922807715376 -0.6024284751329729 0.4021360524820069 0.34384782283864024 -0.017525250612524523 -0.02893885651842998 0.9761223732524387 0.4055335996915762 -0.9396803621680961 -0.9249241396653068 -0.09002268319976259 -0.07806124864889541 -0.9371800014323644 0.2039330221672293 0.09227754839336699 0.42506207838599996 -0.18123950823009294 -0.26473554483570994 0.4635041444773357 0.6987124361542804 -0.19136793513946104 0.9403671576286855 -0.4967636821708209 -0.7332177682736304 -0.9121465213754589 0.30916068402649766 -0.6651026145263083 0.24265842814044458 0.2660639924808199 -0.5340122385423304 0.09794576141270417 0.773597294621299 0.80720399349701 -0.13289022183770605 0.03673844620213551 0.9506424088546793 -0.6099352263637113 0.7400402919056355 -0.061640670379203955 -0.9163085180673203 0.232855915866662 -0.8767605500065787 0.287439865948635 -0.7582819155521918 -0.04450546056316573 0.3384512313256476 0.07273190716902644 0.3059058581866889 -0.2184816928120792 -0.854733346300157 0.21561025013470603 -0.09859287341731804 -0.7960987621147882 0.22837835858207867 -0.6581374594896968 0.18132147068320936 0.9261124835417335 -0.48562900240119333 0.1915068565615211 -0.19909641795220068 -0.8036127997465787 0.24055410080201456 0.5727853709596319 0.6044318816977631 0.06863370326140716 0.2589565755547324 -0.008888293731334485 -0.3380510174414594 -0.37868549161610887 0.9817007981413928 0.10616750977687583 0.7454520747658455 -0.5459818379774919 0.8089761296477614 -0.9655002542384762 0.07816278360190732 -0.4473317620901197 0.14902383579029788 -0.6258199463561958 -0.022775885367090076 -0.20484934628606755 -0.015907531626499938 0.19505087345335992 0.6374021452925328 0.37071698760505567 0.7722644583794536 0.23486659910242202 0.8658445478497132 0.35434353357929405 -0.36069620851872375 0.1496898167954227 0.7172642469629874 -0.2588198637890834 -0.18397873882533355 -0.022959062141058584 0.13355228483206594 0.7705633765239442 -0.9542383583459525 0.43272132171896927 0.3471331217960836 0.2024324554664374 0.8260255551789815 -0.6634958720402832 -0.2544202928278607 0.934376542512946 0.3823605433285666 0.26696032968723793 -0.5547878467209233 -0.46765422657849387 0.8977825196197059 0.5098781416018361 0.10958432391093453 0.6940306201854626 -0.14471838059051512 0.875740168940061 -0.2522276001189786 -0.3428112489006656 -0.8155334448776419 -0.9833881714112743 -0.19305853939729611 -0.8737165030684914 -0.0519776908442634 -0.6719859597651826 0.8503863743692098 -0.5754244257235535 0.44318566827645567 -0.657277751534722 neuralnet.OutputLayer@60727dfe-0.8393072949889367 -0.2679686493558894 0.22836134728976165 -0.517205692024342 -0.5257372950263548 0.9220869992106199 0.4732482215202143 0.33488036678914357 0.5563213591029944 -0.7833773943440042 0.5544314208055954 -0.7498421859077816 0.04155424833551924 -0.6403034540248586 -0.7078173707025917 0.9410811585993156 0.06987613251166458 -0.24050167091921615 -0.31005484592300714 -0.5134315190055818 0.11706418374012584 0.22674522752085913 0.9782213631902232 -0.6546410615001015 0.19102261602704784 -0.7726692062290446 0.13434960246251226 0.8167574932193652 0.012160014350440784 -0.5142843892569989 -0.6313752718907298 0.9815176757135371 0.005928886858436289 -0.5074810432584336 -0.04819670940783627 0.7696459581773414 0.2825349561096633 0.7418540616446674 0.5568894201341602 0.9051407062356238 0.6078986289218719 -0.2533455233237697 0.5861359617551128 -0.6984491225285736 0.572744318436785 -0.5665487633255378 -0.48879375539214875 0.36757257633597396 0.43168088550977524 -0.9839657659654519 -0.7489113199845578 0.3288945624115017 0.14667128812861652 -0.011198013640424498 -0.09882167680037057 -0.609277669745937 -0.9384035140834884 -0.7016219823932227 0.482351456185768 -0.47619527754470314 0.9358004461386898 0.8636328025756472 -0.2528509214997592 -0.8663274041835568 -0.8494639903400458 0.47135589369393294 0.8295171340388268 -0.4941243088901961 -0.8040328051860282 -0.7863952809206107 -0.30503376470228283 -0.04366178695589429 -0.2324526246097749 0.3237247039488994 0.9014222700554633 0.1619938092959049 -0.7842104849849294 0.7660704051434276 -0.7487659631254114 0.4184244254857009 -0.23385404473879057 -0.2711814390931736 -0.9425530234990969 0.1435128745964035 0.966278207766098 -0.7664161310966928 0.19008277961739128 -0.9963063169328009 0.6336436137317164 -0.882166499487693 0.9601970975617428 0.6261982348298436 0.12116006814784053 0.35873231805728 -0.43778849764940786 -0.8699428796818334 -0.256292408056385 -0.983208063657859 -0.028405886400245106 0.17324139048458498 0.5112386726259542 -0.6043209525039214 0.3004357065585941 -0.004734917022847673 -0.009976351366355884 -0.5137325490356731 -0.015250611226094501 -0.9847212432553236 0.8036550304357405 -0.4816223596134167 0.323198954267953 0.015978429118366222 -0.5716472600379855 -0.15310356020248161 0.7381009248371639 0.2537326646639484 0.018200857863287734 -0.701263055047771 0.28848384012977213 0.0447606801310213 -0.20256634065831491 -0.9136023859603608 0.9561427780390389 0.4049235685155398 0.4078751529385696 -0.9799122463628426 -0.2547161497549385 -0.8049615397330518 0.6260988766932265 0.8252663966553886 0.8026780231247767 -0.667713000476053 -0.7603352587470663 0.18212121534821624 -0.6317251199400259 -0.03166431982088125 0.06463458761897456 0.668506246050281 -0.8821212176348836 -0.03733953613875163 -0.8859324323775863 -0.8869594914906408 0.24355107952004063 0.46109471073501895 -0.39717032463778257 0.1897041229076808 0.7395374295687231 -0.750011394100214 -0.3418325068667636 -0.8670131733034219 0.7992669376241638 0.7301556415264464 0.4553233624062327 0.6814529896494229 -0.11825479459841748 0.6359281604522952 -0.2828919959240417 0.20987093205489138 -0.05524669085810685 0.9164722215799413 0.6067740141803242 0.16256911760017445 -0.939163945098825 0.7617164570159826 -0.4473991104956476 0.5145629360727725 -0.704847491908249 0.4659016683111423 0.3150369805750488 -0.04225227178040647 -0.5812156132822854 0.4093003179098601 0.03464592384783394 -0.2830381377854234 0.01584321835704572 0.7439122245296679 0.26995236602480366 -0.5407544380061884 -0.5016517657589958 -0.40789490262421013 -0.6160740949715475 0.26778765405612415 -0.1780964135663683 0.5178112550091472 0.5985083036121759 0.44287399249873016 0.5720995606358305 -0.623043779006104 0.6873806843908246 0.2830088294154771 -0.9874137224648404 -0.8243963834365412 0.494059184491049 0.5420325205584776 0.5190858718759024 -0.6014514104043412 0.1682529946610679 -0.011361516415898554 -0.8907431398342603 0.16484854029029117 0.42794219537940725 -0.8162934286358519 -0.021781364317012497 0.12649175987695094 -0.9555620489900144 -0.006797638758386904 -0.3025271490873336 -0.03210949956381193 0.676250010182234 -0.5406999792551738 0.08658527802424953 -0.23765803689906217 0.7552567998855331 -0.06649731601957454 0.4498573953917576 -0.018402268523702747 0.2626808682374685 -0.9591328238650942 -0.466266333631179 0.18016456664308822 -0.6231849724059554 -0.7136281564078572 -0.973851623644555 0.9402497927779582 0.38030221854153046 0.3597550564723687 0.9295790233010925 0.5790534594406953 0.1798940043466084 -0.6450694817582119 0.610279936187505 0.009473285862549918 0.9107271446348807 -0.16013831634721432 -0.40606502182412063 0.4896668430510155 -0.4881363981791851 -0.3775655056791277 -0.7484196507349675 0.38713265180629 0.8086179766294684 -0.978338719124728 -0.17022792088896266 -0.5307785908533594 -0.4946065302639895 -0.17988414958947851 0.9281463153460366 -0.8261590097662664 -0.13740562520963961 -0.07415685722150334 -0.4598412982421569 -0.7694800899358611 0.5317789406944449 -0.8225067376040119 0.3451808414780486 -0.5787366089935206 0.6805383077998403 -0.013144155351783926 -0.3095595271651307 0.0804698470073133 0.8254866391184492 -0.5855525540012354 0.9195577911521654 -0.36935679553977563 -0.32204830478203117 0.3368436597813854 -0.39743353883485144 -0.6078159783627693 0.30906426307322976 -0.9060724710511511 0.18410340894308985 -0.44301036173202946 -0.6275631906750215 -0.8605922807715376 -0.6024284751329729 0.4021360524820069 0.34384782283864024 -0.017525250612524523 -0.02893885651842998 0.9761223732524387 0.4055335996915762 -0.9396803621680961 -0.9249241396653068 -0.09002268319976259 -0.07806124864889541 -0.9371800014323644 0.2039330221672293 0.09227754839336699 0.42506207838599996 -0.18123950823009294 -0.26473554483570994 0.4635041444773357 0.6987124361542804 -0.19136793513946104 0.9403671576286855 -0.4967636821708209 -0.7332177682736304 -0.9121465213754589 0.30916068402649766 -0.6651026145263083 0.24265842814044458 0.2660639924808199 -0.5340122385423304 0.09794576141270417 0.773597294621299 0.80720399349701 -0.13289022183770605 0.03673844620213551 0.9506424088546793 -0.6099352263637113 0.7400402919056355 -0.061640670379203955 -0.9163085180673203 0.232855915866662 -0.8767605500065787 0.287439865948635 -0.7582819155521918 -0.04450546056316573 0.3384512313256476 0.07273190716902644 0.3059058581866889 -0.2184816928120792 -0.854733346300157 0.21561025013470603 -0.09859287341731804 -0.7960987621147882 0.22837835858207867 -0.6581374594896968 0.18132147068320936 0.9261124835417335 -0.48562900240119333 0.1915068565615211 -0.19909641795220068 -0.8036127997465787 0.24055410080201456 0.5727853709596319 0.6044318816977631 0.06863370326140716 0.2589565755547324 -0.008888293731334485 -0.3380510174414594 -0.37868549161610887 0.9817007981413928 0.10616750977687583 0.7454520747658455 -0.5459818379774919 0.8089761296477614 -0.9655002542384762 0.07816278360190732 -0.4473317620901197 0.14902383579029788 -0.6258199463561958 -0.022775885367090076 -0.20484934628606755 -0.015907531626499938 0.19505087345335992 0.6374021452925328 0.37071698760505567 0.7722644583794536 0.23486659910242202 0.8658445478497132 0.35434353357929405 -0.36069620851872375 0.1496898167954227 0.7172642469629874 -0.2588198637890834 -0.18397873882533355 -0.022959062141058584 0.13355228483206594 0.7705633765239442 -0.9542383583459525 0.43272132171896927 0.3471331217960836 0.2024324554664374 0.8260255551789815 -0.6634958720402832 -0.2544202928278607 0.934376542512946 0.3823605433285666 0.26696032968723793 -0.5547878467209233 -0.46765422657849387 0.8977825196197059 0.5098781416018361 0.10958432391093453 0.6940306201854626 -0.14471838059051512 0.875740168940061 -0.2522276001189786 -0.3428112489006656 -0.8155334448776419 -0.9833881714112743 -0.19305853939729611 -0.8737165030684914 -0.0519776908442634 -0.6719859597651826 0.8503863743692098 -0.5754244257235535 0.44318566827645567 -0.657277751534722 neuralnet.OutputLayer@6ede3e82-0.8393072949889367 -0.2679686493558894 0.22836134728976165 -0.517205692024342 -0.5257372950263548 0.9220869992106199 0.4732482215202143 0.33488036678914357 0.5563213591029944 -0.7833773943440042 0.5544314208055954 -0.7498421859077816 0.04155424833551924 -0.6403034540248586 -0.7078173707025917 0.9410811585993156 0.06987613251166458 -0.24050167091921615 -0.31005484592300714 -0.5134315190055818 0.11706418374012584 0.22674522752085913 0.9782213631902232 -0.6546410615001015 0.19102261602704784 -0.7726692062290446 0.13434960246251226 0.8167574932193652 0.012160014350440784 -0.5142843892569989 -0.6313752718907298 0.9815176757135371 0.005928886858436289 -0.5074810432584336 -0.04819670940783627 0.7696459581773414 0.2825349561096633 0.7418540616446674 0.5568894201341602 0.9051407062356238 0.6078986289218719 -0.2533455233237697 0.5861359617551128 -0.6984491225285736 0.572744318436785 -0.5665487633255378 -0.48879375539214875 0.36757257633597396 0.43168088550977524 -0.9839657659654519 -0.7489113199845578 0.3288945624115017 0.14667128812861652 -0.011198013640424498 -0.09882167680037057 -0.609277669745937 -0.9384035140834884 -0.7016219823932227 0.482351456185768 -0.47619527754470314 0.9358004461386898 0.8636328025756472 -0.2528509214997592 -0.8663274041835568 -0.8494639903400458 0.47135589369393294 0.8295171340388268 -0.4941243088901961 -0.8040328051860282 -0.7863952809206107 -0.30503376470228283 -0.04366178695589429 -0.2324526246097749 0.3237247039488994 0.9014222700554633 0.1619938092959049 -0.7842104849849294 0.7660704051434276 -0.7487659631254114 0.4184244254857009 -0.23385404473879057 -0.2711814390931736 -0.9425530234990969 0.1435128745964035 0.966278207766098 -0.7664161310966928 0.19008277961739128 -0.9963063169328009 0.6336436137317164 -0.882166499487693 0.9601970975617428 0.6261982348298436 0.12116006814784053 0.35873231805728 -0.43778849764940786 -0.8699428796818334 -0.256292408056385 -0.983208063657859 -0.028405886400245106 0.17324139048458498 0.5112386726259542 -0.6043209525039214 0.3004357065585941 -0.004734917022847673 -0.009976351366355884 -0.5137325490356731 -0.015250611226094501 -0.9847212432553236 0.8036550304357405 -0.4816223596134167 0.323198954267953 0.015978429118366222 -0.5716472600379855 -0.15310356020248161 0.7381009248371639 0.2537326646639484 0.018200857863287734 -0.701263055047771 0.28848384012977213 0.0447606801310213 -0.20256634065831491 -0.9136023859603608 0.9561427780390389 0.4049235685155398 0.4078751529385696 -0.9799122463628426 -0.2547161497549385 -0.8049615397330518 0.6260988766932265 0.8252663966553886 0.8026780231247767 -0.667713000476053 -0.7603352587470663 0.18212121534821624 -0.6317251199400259 -0.03166431982088125 0.06463458761897456 0.668506246050281 -0.8821212176348836 -0.03733953613875163 -0.8859324323775863 -0.8869594914906408 0.24355107952004063 0.46109471073501895 -0.39717032463778257 0.1897041229076808 0.7395374295687231 -0.750011394100214 -0.3418325068667636 -0.8670131733034219 0.7992669376241638 0.7301556415264464 0.4553233624062327 0.6814529896494229 -0.11825479459841748 0.6359281604522952 -0.2828919959240417 0.20987093205489138 -0.05524669085810685 0.9164722215799413 0.6067740141803242 0.16256911760017445 -0.939163945098825 0.7617164570159826 -0.4473991104956476 0.5145629360727725 -0.704847491908249 0.4659016683111423 0.3150369805750488 -0.04225227178040647 -0.5812156132822854 0.4093003179098601 0.03464592384783394 -0.2830381377854234 0.01584321835704572 0.7439122245296679 0.26995236602480366 -0.5407544380061884 -0.5016517657589958 -0.40789490262421013 -0.6160740949715475 0.26778765405612415 -0.1780964135663683 0.5178112550091472 0.5985083036121759 0.44287399249873016 0.5720995606358305 -0.623043779006104 0.6873806843908246 0.2830088294154771 -0.9874137224648404 -0.8243963834365412 0.494059184491049 0.5420325205584776 0.5190858718759024 -0.6014514104043412 0.1682529946610679 -0.011361516415898554 -0.8907431398342603 0.16484854029029117 0.42794219537940725 -0.8162934286358519 -0.021781364317012497 0.12649175987695094 -0.9555620489900144 -0.006797638758386904 -0.3025271490873336 -0.03210949956381193 0.676250010182234 -0.5406999792551738 0.08658527802424953 -0.23765803689906217 0.7552567998855331 -0.06649731601957454 0.4498573953917576 -0.018402268523702747 0.2626808682374685 -0.9591328238650942 -0.466266333631179 0.18016456664308822 -0.6231849724059554 -0.7136281564078572 -0.973851623644555 0.9402497927779582 0.38030221854153046 0.3597550564723687 0.9295790233010925 0.5790534594406953 0.1798940043466084 -0.6450694817582119 0.610279936187505 0.009473285862549918 0.9107271446348807 -0.16013831634721432 -0.40606502182412063 0.4896668430510155 -0.4881363981791851 -0.3775655056791277 -0.7484196507349675 0.38713265180629 0.8086179766294684 -0.978338719124728 -0.17022792088896266 -0.5307785908533594 -0.4946065302639895 -0.17988414958947851 0.9281463153460366 -0.8261590097662664 -0.13740562520963961 -0.07415685722150334 -0.4598412982421569 -0.7694800899358611 0.5317789406944449 -0.8225067376040119 0.3451808414780486 -0.5787366089935206 0.6805383077998403 -0.013144155351783926 -0.3095595271651307 0.0804698470073133 0.8254866391184492 -0.5855525540012354 0.9195577911521654 -0.36935679553977563 -0.32204830478203117 0.3368436597813854 -0.39743353883485144 -0.6078159783627693 0.30906426307322976 -0.9060724710511511 0.18410340894308985 -0.44301036173202946 -0.6275631906750215 -0.8605922807715376 -0.6024284751329729 0.4021360524820069 0.34384782283864024 -0.017525250612524523 -0.02893885651842998 0.9761223732524387 0.4055335996915762 -0.9396803621680961 -0.9249241396653068 -0.09002268319976259 -0.07806124864889541 -0.9371800014323644 0.2039330221672293 0.09227754839336699 0.42506207838599996 -0.18123950823009294 -0.26473554483570994 0.4635041444773357 0.6987124361542804 -0.19136793513946104 0.9403671576286855 -0.4967636821708209 -0.7332177682736304 -0.9121465213754589 0.30916068402649766 -0.6651026145263083 0.24265842814044458 0.2660639924808199 -0.5340122385423304 0.09794576141270417 0.773597294621299 0.80720399349701 -0.13289022183770605 0.03673844620213551 0.9506424088546793 -0.6099352263637113 0.7400402919056355 -0.061640670379203955 -0.9163085180673203 0.232855915866662 -0.8767605500065787 0.287439865948635 -0.7582819155521918 -0.04450546056316573 0.3384512313256476 0.07273190716902644 0.3059058581866889 -0.2184816928120792 -0.854733346300157 0.21561025013470603 -0.09859287341731804 -0.7960987621147882 0.22837835858207867 -0.6581374594896968 0.18132147068320936 0.9261124835417335 -0.48562900240119333 0.1915068565615211 -0.19909641795220068 -0.8036127997465787 0.24055410080201456 0.5727853709596319 0.6044318816977631 0.06863370326140716 0.2589565755547324 -0.008888293731334485 -0.3380510174414594 -0.37868549161610887 0.9817007981413928 0.10616750977687583 0.7454520747658455 -0.5459818379774919 0.8089761296477614 -0.9655002542384762 0.07816278360190732 -0.4473317620901197 0.14902383579029788 -0.6258199463561958 -0.022775885367090076 -0.20484934628606755 -0.015907531626499938 0.19505087345335992 0.6374021452925328 0.37071698760505567 0.7722644583794536 0.23486659910242202 0.8658445478497132 0.35434353357929405 -0.36069620851872375 0.1496898167954227 0.7172642469629874 -0.2588198637890834 -0.18397873882533355 -0.022959062141058584 0.13355228483206594 0.7705633765239442 -0.9542383583459525 0.43272132171896927 0.3471331217960836 0.2024324554664374 0.8260255551789815 -0.6634958720402832 -0.2544202928278607 0.934376542512946 0.3823605433285666 0.26696032968723793 -0.5547878467209233 -0.46765422657849387 0.8977825196197059 0.5098781416018361 0.10958432391093453 0.6940306201854626 -0.14471838059051512 0.875740168940061 -0.2522276001189786 -0.3428112489006656 -0.8155334448776419 -0.9833881714112743 -0.19305853939729611 -0.8737165030684914 -0.0519776908442634 -0.6719859597651826 0.8503863743692098 -0.5754244257235535 0.44318566827645567 -0.657277751534722 neuralnet.OutputLayer@1ecd8a93-0.8393072949889367 -0.2679686493558894 0.22836134728976165 -0.517205692024342 -0.5257372950263548 0.9220869992106199 0.4732482215202143 0.33488036678914357 0.5563213591029944 -0.7833773943440042 0.5544314208055954 -0.7498421859077816 0.04155424833551924 -0.6403034540248586 -0.7078173707025917 0.9410811585993156 0.06987613251166458 -0.24050167091921615 -0.31005484592300714 -0.5134315190055818 0.11706418374012584 0.22674522752085913 0.9782213631902232 -0.6546410615001015 0.19102261602704784 -0.7726692062290446 0.13434960246251226 0.8167574932193652 0.012160014350440784 -0.5142843892569989 -0.6313752718907298 0.9815176757135371 0.005928886858436289 -0.5074810432584336 -0.04819670940783627 0.7696459581773414 0.2825349561096633 0.7418540616446674 0.5568894201341602 0.9051407062356238 0.6078986289218719 -0.2533455233237697 0.5861359617551128 -0.6984491225285736 0.572744318436785 -0.5665487633255378 -0.48879375539214875 0.36757257633597396 0.43168088550977524 -0.9839657659654519 -0.7489113199845578 0.3288945624115017 0.14667128812861652 -0.011198013640424498 -0.09882167680037057 -0.609277669745937 -0.9384035140834884 -0.7016219823932227 0.482351456185768 -0.47619527754470314 0.9358004461386898 0.8636328025756472 -0.2528509214997592 -0.8663274041835568 -0.8494639903400458 0.47135589369393294 0.8295171340388268 -0.4941243088901961 -0.8040328051860282 -0.7863952809206107 -0.30503376470228283 -0.04366178695589429 -0.2324526246097749 0.3237247039488994 0.9014222700554633 0.1619938092959049 -0.7842104849849294 0.7660704051434276 -0.7487659631254114 0.4184244254857009 -0.23385404473879057 -0.2711814390931736 -0.9425530234990969 0.1435128745964035 0.966278207766098 -0.7664161310966928 0.19008277961739128 -0.9963063169328009 0.6336436137317164 -0.882166499487693 0.9601970975617428 0.6261982348298436 0.12116006814784053 0.35873231805728 -0.43778849764940786 -0.8699428796818334 -0.256292408056385 -0.983208063657859 -0.028405886400245106 0.17324139048458498 0.5112386726259542 -0.6043209525039214 0.3004357065585941 -0.004734917022847673 -0.009976351366355884 -0.5137325490356731 -0.015250611226094501 -0.9847212432553236 0.8036550304357405 -0.4816223596134167 0.323198954267953 0.015978429118366222 -0.5716472600379855 -0.15310356020248161 0.7381009248371639 0.2537326646639484 0.018200857863287734 -0.701263055047771 0.28848384012977213 0.0447606801310213 -0.20256634065831491 -0.9136023859603608 0.9561427780390389 0.4049235685155398 0.4078751529385696 -0.9799122463628426 -0.2547161497549385 -0.8049615397330518 0.6260988766932265 0.8252663966553886 0.8026780231247767 -0.667713000476053 -0.7603352587470663 0.18212121534821624 -0.6317251199400259 -0.03166431982088125 0.06463458761897456 0.668506246050281 -0.8821212176348836 -0.03733953613875163 -0.8859324323775863 -0.8869594914906408 0.24355107952004063 0.46109471073501895 -0.39717032463778257 0.1897041229076808 0.7395374295687231 -0.750011394100214 -0.3418325068667636 -0.8670131733034219 0.7992669376241638 0.7301556415264464 0.4553233624062327 0.6814529896494229 -0.11825479459841748 0.6359281604522952 -0.2828919959240417 0.20987093205489138 -0.05524669085810685 0.9164722215799413 0.6067740141803242 0.16256911760017445 -0.939163945098825 0.7617164570159826 -0.4473991104956476 0.5145629360727725 -0.704847491908249 0.4659016683111423 0.3150369805750488 -0.04225227178040647 -0.5812156132822854 0.4093003179098601 0.03464592384783394 -0.2830381377854234 0.01584321835704572 0.7439122245296679 0.26995236602480366 -0.5407544380061884 -0.5016517657589958 -0.40789490262421013 -0.6160740949715475 0.26778765405612415 -0.1780964135663683 0.5178112550091472 0.5985083036121759 0.44287399249873016 0.5720995606358305 -0.623043779006104 0.6873806843908246 0.2830088294154771 -0.9874137224648404 -0.8243963834365412 0.494059184491049 0.5420325205584776 0.5190858718759024 -0.6014514104043412 0.1682529946610679 -0.011361516415898554 -0.8907431398342603 0.16484854029029117 0.42794219537940725 -0.8162934286358519 -0.021781364317012497 0.12649175987695094 -0.9555620489900144 -0.006797638758386904 -0.3025271490873336 -0.03210949956381193 0.676250010182234 -0.5406999792551738 0.08658527802424953 -0.23765803689906217 0.7552567998855331 -0.06649731601957454 0.4498573953917576 -0.018402268523702747 0.2626808682374685 -0.9591328238650942 -0.466266333631179 0.18016456664308822 -0.6231849724059554 -0.7136281564078572 -0.973851623644555 0.9402497927779582 0.38030221854153046 0.3597550564723687 0.9295790233010925 0.5790534594406953 0.1798940043466084 -0.6450694817582119 0.610279936187505 0.009473285862549918 0.9107271446348807 -0.16013831634721432 -0.40606502182412063 0.4896668430510155 -0.4881363981791851 -0.3775655056791277 -0.7484196507349675 0.38713265180629 0.8086179766294684 -0.978338719124728 -0.17022792088896266 -0.5307785908533594 -0.4946065302639895 -0.17988414958947851 0.9281463153460366 -0.8261590097662664 -0.13740562520963961 -0.07415685722150334 -0.4598412982421569 -0.7694800899358611 0.5317789406944449 -0.8225067376040119 0.3451808414780486 -0.5787366089935206 0.6805383077998403 -0.013144155351783926 -0.3095595271651307 0.0804698470073133 0.8254866391184492 -0.5855525540012354 0.9195577911521654 -0.36935679553977563 -0.32204830478203117 0.3368436597813854 -0.39743353883485144 -0.6078159783627693 0.30906426307322976 -0.9060724710511511 0.18410340894308985 -0.44301036173202946 -0.6275631906750215 -0.8605922807715376 -0.6024284751329729 0.4021360524820069 0.34384782283864024 -0.017525250612524523 -0.02893885651842998 0.9761223732524387 0.4055335996915762 -0.9396803621680961 -0.9249241396653068 -0.09002268319976259 -0.07806124864889541 -0.9371800014323644 0.2039330221672293 0.09227754839336699 0.42506207838599996 -0.18123950823009294 -0.26473554483570994 0.4635041444773357 0.6987124361542804 -0.19136793513946104 0.9403671576286855 -0.4967636821708209 -0.7332177682736304 -0.9121465213754589 0.30916068402649766 -0.6651026145263083 0.24265842814044458 0.2660639924808199 -0.5340122385423304 0.09794576141270417 0.773597294621299 0.80720399349701 -0.13289022183770605 0.03673844620213551 0.9506424088546793 -0.6099352263637113 0.7400402919056355 -0.061640670379203955 -0.9163085180673203 0.232855915866662 -0.8767605500065787 0.287439865948635 -0.7582819155521918 -0.04450546056316573 0.3384512313256476 0.07273190716902644 0.3059058581866889 -0.2184816928120792 -0.854733346300157 0.21561025013470603 -0.09859287341731804 -0.7960987621147882 0.22837835858207867 -0.6581374594896968 0.18132147068320936 0.9261124835417335 -0.48562900240119333 0.1915068565615211 -0.19909641795220068 -0.8036127997465787 0.24055410080201456 0.5727853709596319 0.6044318816977631 0.06863370326140716 0.2589565755547324 -0.008888293731334485 -0.3380510174414594 -0.37868549161610887 0.9817007981413928 0.10616750977687583 0.7454520747658455 -0.5459818379774919 0.8089761296477614 -0.9655002542384762 0.07816278360190732 -0.4473317620901197 0.14902383579029788 -0.6258199463561958 -0.022775885367090076 -0.20484934628606755 -0.015907531626499938 0.19505087345335992 0.6374021452925328 0.37071698760505567 0.7722644583794536 0.23486659910242202 0.8658445478497132 0.35434353357929405 -0.36069620851872375 0.1496898167954227 0.7172642469629874 -0.2588198637890834 -0.18397873882533355 -0.022959062141058584 0.13355228483206594 0.7705633765239442 -0.9542383583459525 0.43272132171896927 0.3471331217960836 0.2024324554664374 0.8260255551789815 -0.6634958720402832 -0.2544202928278607 0.934376542512946 0.3823605433285666 0.26696032968723793 -0.5547878467209233 -0.46765422657849387 0.8977825196197059 0.5098781416018361 0.10958432391093453 0.6940306201854626 -0.14471838059051512 0.875740168940061 -0.2522276001189786 -0.3428112489006656 -0.8155334448776419 -0.9833881714112743 -0.19305853939729611 -0.8737165030684914 -0.0519776908442634 -0.6719859597651826 0.8503863743692098 -0.5754244257235535 0.44318566827645567 -0.657277751534722 neuralnet.OutputLayer@27e709170.8043553962322727 -0.8504645508634814 0.4514647280527381 -0.8403203954566997 0.5882904601001907 -0.8702067960441934 -0.6791422866856166 0.9772125742482777 -0.7329001877006796 -0.44825386399405753 -0.1618667437171487 0.34655386489166073 -0.0718337906039399 -0.34806875146537386 -0.7397086830780092 -0.11105016390295885 0.9809634961604925 -0.08484484533553716 -0.5441634100932806 0.5618141513116421 0.31199598947374085 -0.27457910262830176 -0.5927789288980118 -0.6336545708316521 -0.9547143230207129 -0.4400348961179382 -0.7626990070255997 -0.014908467348856091 -0.1426748770575409 -0.6358725714924255 -0.14091976078929536 -0.367032997894177 -0.04030575007940651 -0.11040103247742705 0.7996156959635953 0.2742672695165884 -0.5096191275551039 -0.48435446636780366 -0.1693707234580082 -0.5433079343478093 -0.8527742831000792 0.5789325390955042 -0.2567309526653434 0.10398624512246679 -0.49831727659404146 0.173724604704807 -0.4023691078578757 -0.9364025763485313 -0.10702640613370173 -0.8539998250097414 -0.35399735465406634 -0.7438153494598043 -0.9866795373925895 -0.0277032807151657 -0.3688843659811084 -0.739291622078692 -0.05725867398155715 -0.9988624734378753 -0.522351630841453 0.7923867373078108 -0.787760233977628 0.24032485480694687 0.379361369957092 0.10058451014401759 0.4993401464773809 0.3302205435585691 -0.2900336414024238 0.9986580253893236 0.368913691704 0.3687589741972648 0.999435698252881 0.3162272243133072 0.4410865101562662 -0.09989587953142598 0.7871023203905814 -0.32601488656393507 0.9195682022239051 0.18170853600059855 -0.4713725777239325 -0.13094776119506668 -0.7322826098470758 0.07456111612443428 -0.1423649726389763 -0.06851461018168425 0.2426680680994341 -0.18649049890010638 -0.48168072863143385 -0.714322465111128 0.5533560906402387 0.9979654858900016 0.7482856963150775 0.9992323395745398 0.20665943258453146 0.3716848365770762 0.028831328066461603 0.011035194869375542 -0.44567477984090775 0.04166067201348078 0.08221304555662134 0.5436152445814116 -0.8939964930417496 -0.587132409687268 0.10349038617887307 0.7758238596087311 -0.9184825003392976 -0.7856020838390897 -0.7885809016703619 0.7930347642934644 -0.7636741692978533 -0.025424263478667886 -0.5963421995906236 0.9655755628329932 -0.19730083449897817 0.31342607544622225 0.2431424508162242 -0.7866312267158153 -0.9129562439612775 0.5902989772317558 0.5936741518201507 0.18661934915867318 -0.21046516094293544 -0.863241642569844 -0.10578277382988932 -0.32097464670337095 -0.04887564405416167 -0.6313231246570457 -0.6843436262408966 0.6509808971489592 -0.6327134710131239 0.08983807123545473 -0.7947722486239777 -0.005466548105073632 0.6666641996411629 0.8396193232415375 0.18880908828001808 0.6477664755281302 0.1620540567808021 0.0012694629865682705 0.2878900039072537 0.2515032680521868 0.2137706892917116 -0.13896060462948756 0.20638852211996428 0.23283601276793775 0.6710876245937957 0.9124763882512082 0.2644430918643006 0.8544223178590754 0.9927647673692911 0.4394402046846624 -0.8143160324850114 -0.6484211356000127 -0.29388224371559835 0.025095577818190384 -0.6130648402625944 0.11613579471194391 -0.1939870141529062 0.8459162364093796 0.5523586245577224 0.9113632635109563 0.677811530767147 0.8776076870893437 -0.0028600895175074914 -0.8900081808170953 0.8557365439782321 0.9062016687959851 -0.28978254757670263 0.8407382260821763 0.9013786793506716 -0.8208463016566464 -0.49555892297016624 0.970516186297924 -0.5460662248558956 -0.1907832660825265 -0.439052742561854 0.9117246455254232 0.9090143962017663 0.5536803987446605 -0.08062540019115072 0.0581129855196284 -0.3819087385467096 -0.7868650874044054 -0.6044002176620392 0.05954009231483581 -0.8457195702350051 0.7415030834480663 -0.31538135158823377 -0.6543288810292657 -0.7023510834621012 -0.16868672772947713 0.3805658180512428 0.11085947972420152 0.4866897539895061 0.5680699683728645 0.593074375877148 -0.9539111509252794 0.6412218300088133 -0.9475012214299069 -0.7944851664416035 -0.7727780491971742 -0.6383257675242046 -0.7788429225198048 -0.5257191167014407 0.8796117798439341 -0.5266277623518806 0.4905437931172426 0.14925083235387893 0.9844515351410725 0.9317789179346851 -0.9220816055199342 -0.9342397804407524 -0.5214876120229687 -0.9977368139911673 0.6684341521272774 -0.14833821876610698 0.8419677753800219 -0.06065960749666255 0.4921611864133687 0.06498900810058406 -0.7559780779195171 -0.2741854230856515 -0.6802462460661705 -0.5440827132345755 -0.19238066034807855 -0.30092919483696245 -0.4100884000241003 -0.21945418238976544 -0.49344162558209237 -0.4559781108297173 -0.9622204402269406 0.5047944154457745 -0.6258174637954043 0.42088344940780664 